tree
version=v4
num_class=1
num_tree_per_iteration=1
label_index=0
max_feature_idx=21
objective=quantile
feature_names=Column_0 Column_1 Column_2 Column_3 Column_4 Column_5 Column_6 Column_7 Column_8 Column_9 Column_10 Column_11 Column_12 Column_13 Column_14 Column_15 Column_16 Column_17 Column_18 Column_19 Column_20 Column_21
feature_infos=[4.2868379318103971:5.6484946728703047] [4.1631682843477487:5.6203917813954831] [4.3366134602120097:5.7090511313124219] [3:14] [4.2868379318103971:5.6081736292225886] [4.2868379318103971:5.5629551514252666] [4.2868379318103971:5.5629551514252666] [4.1850571309574658:5.5629551514252666] [4.1718885937175889:5.5629551514252666] [4.1718885937175889:5.5629551514252666] [4.1718885937175889:5.510756169763062] [4.2945328857523544:5.5512138869785241] [4.3059126176287492:5.4861236805137077] [4.3817730738044869:5.3484893255496369] [4.581778645468928:5.1294373298853335] [0.036860866632805182:0.28088910307008308] [94.873884294986041:104.99340672089552] [227.8770592758481:268.23146683949227] [2021:2025] [1:52] [1:12] [1:4]
tree_sizes=478 522 534 634 641 620 748 638 728 750 516 646 513 631 516 597 534 649 636 621 631 634 547 619 745 744 651 648 810 618 749 752 831 755 746 740 749 744 731 658 732 734 734 748 752 742 830 737 843 739 850 1026 1011 936 1145 830 839 749 951 837 842 726 847 835 832 849 947 1024 952 953 1127 910 1144 912 829 723 1000 932 830 982 904 1123 1013 1021 893 906 913 1007 879 1005 899 912 1032 901 1134 1134 1242 915 1002 1203 872 1415 1209 1226 990 1238 1036

Tree=0
num_leaves=4
num_cat=0
split_feature=10 9 1
split_gain=9.84391 5.1 0.804233
threshold=5.1778791897403904 4.6656566646411024 5.116299540650469
decision_type=2 2 2
left_child=2 -2 -1
right_child=1 -3 -4
leaf_value=5.3675938123370939 5.3774805425237533 5.3928422354977554 5.3807094278402587
leaf_weight=171 10.000000000000002 17 18
leaf_count=171 10 17 18
internal_value=5.37811 5.40635 5.37408
internal_weight=216 27 189
internal_count=216 27 189
is_linear=0
shrinkage=1


Tree=1
num_leaves=4
num_cat=0
split_feature=0 1 19
split_gain=9.6586 1.38955 2.82121
threshold=5.4089541112617008 5.116299540650469 9.5000000000000018
decision_type=2 2 2
left_child=1 -1 -3
right_child=-2 2 -4
leaf_value=-0.0099019795447142581 0.014119375173252147 0.0058956888735448472 -0.00318025796521213
leaf_weight=171 14.999999999999998 11.000000000000002 19
leaf_count=171 15 11 19
internal_value=-0.000370372 -0.00325871 0.00666667
internal_weight=216 201 30
internal_count=216 201 30
is_linear=0
shrinkage=0.05


Tree=2
num_leaves=4
num_cat=0
split_feature=1 19 1
split_gain=8.17248 2.20622 2.45
threshold=5.330958946825759 4.5000000000000009 4.9252718625527487
decision_type=2 2 2
left_child=1 2 -1
right_child=-2 -3 -4
leaf_value=-0.0086105500699451554 0.013413406414589525 -0.0067433906395890754 0.0081322601587363909
leaf_weight=10.000000000000002 14.999999999999998 181 9.9999999999999982
leaf_count=10 15 181 10
internal_value=-0.000601853 -0.00325871 0.0125
internal_weight=216 201 20
internal_count=216 201 20
is_linear=0
shrinkage=0.05


Tree=3
num_leaves=5
num_cat=0
split_feature=1 19 1 2
split_gain=8.17248 1.56174 1.8 0.0944751
threshold=5.330958946825759 4.5000000000000009 4.9252718625527487 5.3922781115971006
decision_type=2 2 2 2
left_child=1 2 -1 -3
right_child=-2 3 -4 -5
leaf_value=-0.0081800225664478976 0.01274273609386003 -0.0090697110354990961 0.0077256471507995833 -0.00018640143362695272
leaf_weight=10.000000000000002 14.999999999999998 171 9.9999999999999982 9.9999999999999982
leaf_count=10 15 171 10 10
internal_value=-0.000601853 -0.00325871 0.01 -0.00472376
internal_weight=216 201 20 181
internal_count=216 201 20 181
is_linear=0
shrinkage=0.05


Tree=4
num_leaves=5
num_cat=0
split_feature=0 19 5 0
split_gain=7.96132 2.06427 3.93846 0.0942857
threshold=5.4089541112617008 6.5000000000000009 4.9703779869215294 5.3203637813956224
decision_type=2 2 2 2
left_child=1 2 -1 -3
right_child=-2 3 -4 -5
leaf_value=-0.0050416028548154477 0.012105599289167036 -0.009828578565668572 0.004576297493489436 -0.00017708136194560144
leaf_weight=16.000000000000004 14.999999999999998 165 9.9999999999999982 9.9999999999999982
leaf_count=16 15 165 10 10
internal_value=-0.00013889 -0.0027612 0.0103846 -0.00471429
internal_weight=216 201 26 175
internal_count=216 201 26 175
is_linear=0
shrinkage=0.05


Tree=5
num_leaves=5
num_cat=0
split_feature=0 1 19 14
split_gain=7.85677 2.20834 4.66364 0.094152
threshold=5.4089541112617008 5.116299540650469 9.5000000000000018 5.0915074347032183
decision_type=2 2 2 2
left_child=1 3 -3 -1
right_child=-2 2 -4 -5
leaf_value=-0.0088136115478499588 0.011500319324708698 0.0040642825525351797 -0.0026659013951934266 -0.0036063618757562477
leaf_weight=161 14.999999999999998 11.000000000000002 19 9.9999999999999982
leaf_count=161 15 11 19 10
internal_value=9.25914e-05 -0.00251244 0.01 -0.0047076
internal_weight=216 201 30 171
internal_count=216 201 30 171
is_linear=0
shrinkage=0.05


Tree=6
num_leaves=6
num_cat=0
split_feature=0 19 0 10 14
split_gain=6.52251 2.30757 3.61739 0.0834805 0.0940476
threshold=5.4089541112617008 5.5000000000000009 5.0771121254584939 5.1778791897403904 5.0915074347032183
decision_type=2 2 2 2 2
left_child=1 2 -1 4 -3
right_child=-2 3 -4 -5 -6
leaf_value=-0.0058514676603260117 0.010925303358473261 -0.0088733215338317965 0.0041442684911882207 -5.7442351864775208e-05 -0.0034260437819684242
leaf_weight=13.000000000000002 14.999999999999998 158 9.9999999999999982 9.9999999999999982 9.9999999999999982
leaf_count=13 15 158 10 10 10
internal_value=-0.00013889 -0.00251244 0.0123913 -0.0044382 -0.00470238
internal_weight=216 201 23 178 168
internal_count=216 201 23 178 168
is_linear=0
shrinkage=0.05


Tree=7
num_leaves=5
num_cat=0
split_feature=0 19 0 14
split_gain=6.6178 1.80973 4.1931 0.094186
threshold=5.4089541112617008 7.5000000000000009 5.1572672278112526 5.0915074347032183
decision_type=2 2 2 2
left_child=1 2 -1 -3
right_child=-2 3 -4 -5
leaf_value=-0.0031388911752580997 0.010379038190549618 -0.00754398415200666 0.0039370550666287937 -0.0032547415928700033
leaf_weight=19.000000000000004 14.999999999999998 162 9.9999999999999982 9.9999999999999982
leaf_count=19 15 162 10 10
internal_value=-0.000370372 -0.0027612 0.0087931 -0.0047093
internal_weight=216 201 29 172
internal_count=216 201 29 172
is_linear=0
shrinkage=0.05


Tree=8
num_leaves=6
num_cat=0
split_feature=0 0 9 10 0
split_gain=6.71378 1.4181 1.88571 0.0989899 0.278788
threshold=5.4089541112617008 5.2449242574266046 4.6408062721757117 4.9643902269226796 5.1317483689065426
decision_type=2 2 2 2 2
left_child=1 3 -3 -1 -5
right_child=-2 2 -4 4 -6
leaf_value=-0.010829380814820148 0.0098600862810221297 -0.0022895397797038975 0.0037402023132973375 9.6035701714174232e-05 -0.00096819369075185177
leaf_weight=147 14.999999999999998 11.000000000000002 9.9999999999999982 9.9999999999999982 23
leaf_count=147 15 11 10 10 23
internal_value=-0.000601853 -0.00300995 0.00928571 -0.00444445 -0.0019697
internal_weight=216 201 21 180 33
internal_count=216 201 21 180 33
is_linear=0
shrinkage=0.05


Tree=9
num_leaves=6
num_cat=0
split_feature=0 20 0 0 14
split_gain=6.71378 1.4181 1.88571 0.0836601 0.0850267
threshold=5.4089541112617008 1.5000000000000002 5.0609924569236284 5.3203637813956224 5.0915074347032183
decision_type=2 2 2 2 2
left_child=1 2 -1 4 -3
right_child=-2 3 -4 -5 -6
leaf_value=-0.0057391230145618539 0.0093670819669710251 -0.008063090417666216 0.0035531921976324726 -0.00017838021194635414 -0.00033226219443267954
leaf_weight=11.000000000000002 14.999999999999998 159 9.9999999999999982 9.9999999999999982 10.999999999999998
leaf_count=11 15 159 10 10 11
internal_value=-0.000601853 -0.00300995 0.00928571 -0.00444445 -0.00470588
internal_weight=216 201 21 180 170
internal_count=216 201 21 180 170
is_linear=0
shrinkage=0.05


Tree=10
num_leaves=4
num_cat=0
split_feature=0 19 14
split_gain=6.53333 7.18275 0.0853535
threshold=5.2449242574266046 10.500000000000002 5.0915074347032183
decision_type=2 2 2
left_child=2 -2 -1
right_child=1 -3 -4
leaf_value=-0.0062795488793661817 0.0088280224379466265 -0.0018416806969734614 -0.00031564908471104909
leaf_weight=169 19 17 10.999999999999998
leaf_count=169 19 17 11
internal_value=-0.000833335 0.0186111 -0.00472222
internal_weight=216 36 180
internal_count=216 36 180
is_linear=0
shrinkage=0.05


Tree=11
num_leaves=5
num_cat=0
split_feature=1 20 1 14
split_gain=5.48507 2.02048 2.56667 0.0853535
threshold=5.330958946825759 1.5000000000000002 4.9353059259531138 5.0915074347032183
decision_type=2 2 2 2
left_child=1 2 -1 -3
right_child=-2 3 -4 -5
leaf_value=-0.0051381894198654354 0.0084573267467251256 -0.0053830250863548057 0.0054965885446068572 -0.0002998666304755024
leaf_weight=11.000000000000002 14.999999999999998 169 9.9999999999999982 10.999999999999998
leaf_count=11 15 169 10 11
internal_value=-0.000833335 -0.00300995 0.0116667 -0.00472222
internal_weight=216 201 21 180
internal_count=216 201 21 180
is_linear=0
shrinkage=0.05


Tree=12
num_leaves=4
num_cat=0
split_feature=0 9 14
split_gain=5.7787 7.11111 0.0853535
threshold=5.2449242574266046 4.6972758648152384 5.0915074347032183
decision_type=2 2 2
left_child=2 -2 -1
right_child=1 -3 -4
leaf_value=-0.0056964201810801524 -0.00041839396897790278 0.0079814313363820062 -0.0002848732989517086
leaf_weight=169 18 18 10.999999999999998
leaf_count=169 18 18 11
internal_value=-0.00106482 0.0172222 -0.00472222
internal_weight=216 36 180
internal_count=216 36 180
is_linear=0
shrinkage=0.05


Tree=13
num_leaves=5
num_cat=0
split_feature=20 13 14 3
split_gain=4.76302 8.9418 0.085162 0.062963
threshold=2.5000000000000004 4.7748247754795949 5.0915074347032183 8.5000000000000018
decision_type=2 2 2 2
left_child=1 3 -2 -1
right_child=2 -3 -4 -5
leaf_value=-8.8939327215815323e-06 -0.0062408147383816916 0.007635388842569802 -0.00027062963400410896 -0.00037368093893638224
leaf_weight=10.000000000000002 163 14.999999999999998 10.999999999999998 17
leaf_count=10 163 15 11 17
internal_value=-0.00106482 0.0140476 -0.00471264 -0.00314815
internal_weight=216 42 174 27
internal_count=216 42 174 27
is_linear=0
shrinkage=0.05


Tree=14
num_leaves=4
num_cat=0
split_feature=1 14 20
split_gain=5.6633 0.795014 0.200946
threshold=5.3003934827671353 5.0973612776893757 1.5000000000000002
decision_type=2 2 2
left_child=1 2 -1
right_child=-2 -3 -4
leaf_value=-9.7916194701752526e-05 0.0072005903274344092 0.0018117127701809147 -0.0049190792093674269
leaf_weight=18 18 9.9999999999999982 170
leaf_count=18 18 10 170
internal_value=-0.0012963 -0.00373737 -0.00446809
internal_weight=216 198 188
internal_count=216 198 188
is_linear=0
shrinkage=0.05


Tree=15
num_leaves=5
num_cat=0
split_feature=0 19 10 4
split_gain=4.93426 6.98529 0.0989899 0.278788
threshold=5.2449242574266046 9.5000000000000018 4.9643902269226796 5.1306892442660805
decision_type=2 2 2 2
left_child=2 -2 -1 -4
right_child=1 -3 3 -5
leaf_value=-0.008731248215437748 0.0068582371687316629 -0.00052568255197769605 0.00025461322788155406 -0.0046149105046631991
leaf_weight=147 17 19 9.9999999999999982 23
leaf_count=147 17 19 10 23
internal_value=-0.00106482 0.0158333 -0.00444445 -0.0019697
internal_weight=216 36 180 33
internal_count=216 36 180 33
is_linear=0
shrinkage=0.05


Tree=16
num_leaves=4
num_cat=0
split_feature=14 1 20
split_gain=4.67347 0.716358 0.201497
threshold=5.1028050667914675 5.330958946825759 1.5000000000000002
decision_type=2 2 2
left_child=1 2 -1
right_child=-2 -3 -4
leaf_value=-0.00013998333736675293 0.0066037070986398666 0.00080966835682578012 -0.0043705925565762785
leaf_weight=18 11.999999999999998 10.999999999999998 175
leaf_count=18 12 11 175
internal_value=-0.00199074 -0.00377451 -0.00448187
internal_weight=216 204 193
internal_count=216 204 193
is_linear=0
shrinkage=0.05


Tree=17
num_leaves=5
num_cat=0
split_feature=14 15 9 16
split_gain=4.6024 0.882353 1.48284 0.0583333
threshold=5.1028050667914675 0.20663020131443588 4.7302808833498711 98.541672350456807
decision_type=2 2 2 2
left_child=1 -1 3 -3
right_child=-2 2 -4 -5
leaf_value=-0.0061629567503283427 0.0062735217437078555 -5.6555008378687843e-05 0.00078191409519803303 -0.0020105580020003109
leaf_weight=170 11.999999999999998 10.000000000000002 9.9999999999999982 13.999999999999998
leaf_count=170 12 10 10 14
internal_value=-0.00175926 -0.00352941 0.00382353 -0.00291667
internal_weight=216 204 34 24
internal_count=216 204 34 24
is_linear=0
shrinkage=0.05


Tree=18
num_leaves=5
num_cat=0
split_feature=14 20 8 16
split_gain=4.46187 1.51485 3.11143 0.06
threshold=5.1028050667914675 2.5000000000000004 4.5037047535136034 99.238955969224079
decision_type=2 2 2 2
left_child=1 2 3 -1
right_child=-2 -3 -4 -5
leaf_value=-4.791587575779387e-05 0.0059598456565224563 -0.0054454991246584497 0.00074281839043814917 -0.0019690145764540536
leaf_weight=10.000000000000002 11.999999999999998 169 9.9999999999999982 14.999999999999998
leaf_count=10 12 169 10 15
internal_value=-0.0012963 -0.00303922 0.00642857 -0.003
internal_weight=216 204 35 25
internal_count=216 204 35 25
is_linear=0
shrinkage=0.05


Tree=19
num_leaves=5
num_cat=0
split_feature=20 8 1 16
split_gain=4.1777 6.21227 0.0942529 0.06
threshold=2.5000000000000004 4.5037047535136034 5.2915075407180892 99.238955969224079
decision_type=2 2 2 2
left_child=1 3 -2 -1
right_child=2 -3 -4 -5
leaf_value=-4.5520081969903417e-05 -0.0058681198858740128 0.0055734715853515311 -6.0381651052146808e-05 -0.0018705638476313681
leaf_weight=10.000000000000002 164 17 9.9999999999999982 14.999999999999998
leaf_count=10 164 17 10 15
internal_value=-0.0012963 0.0128571 -0.00471264 -0.003
internal_weight=216 42 174 25
internal_count=216 42 174 25
is_linear=0
shrinkage=0.05


Tree=20
num_leaves=5
num_cat=0
split_feature=0 20 0 19
split_gain=3.7984 0.353413 0.471429 0.0776836
threshold=5.3795457716172521 1.5000000000000002 5.0609924569236284 49.500000000000007
decision_type=2 2 2 2
left_child=1 2 -1 -3
right_child=-2 3 -4 -5
leaf_value=-0.0038164978792847911 0.0052771216484150067 -0.0039156542931382344 0.0005913239213583628 -0.0005912322107573492
leaf_weight=11.000000000000002 18 165 9.9999999999999982 11.999999999999998
leaf_count=11 18 165 10 12
internal_value=-0.00199074 -0.0039899 0.00214286 -0.00471752
internal_weight=216 198 21 177
internal_count=216 198 21 177
is_linear=0
shrinkage=0.05


Tree=21
num_leaves=5
num_cat=0
split_feature=2 15 9 14
split_gain=3.7984 0.353413 0.471429 0.0776836
threshold=5.4716997713072333 0.23430528738347642 4.6408062721757117 5.0915074347032183
decision_type=2 2 2 2
left_child=1 3 -3 -1
right_child=-2 2 -4 -5
leaf_value=-0.0050609222936464941 0.0050132655659942404 -0.0013453153646843753 0.00014924350477335456 -0.00022755331236618662
leaf_weight=165 18 11.000000000000002 9.9999999999999982 11.999999999999998
leaf_count=165 18 11 10 12
internal_value=-0.00199074 -0.0039899 0.00214286 -0.00471752
internal_weight=216 198 21 177
internal_count=216 198 21 177
is_linear=0
shrinkage=0.05


Tree=22
num_leaves=4
num_cat=0
split_feature=14 15 9
split_gain=3.60158 0.536953 0.984615
threshold=5.1028050667914675 0.23430528738347642 4.6840778880247109
decision_type=2 2 2
left_child=1 -1 -3
right_child=-2 2 -4
leaf_value=-0.0044659397153554801 0.0048686604337083057 -0.0001233525680737827 0.00014178132953469511
leaf_weight=178 11.999999999999998 16.000000000000004 9.9999999999999982
leaf_count=178 12 16 10
internal_value=-0.0024537 -0.00401961 0.00269231
internal_weight=216 204 26
internal_count=216 204 26
is_linear=0
shrinkage=0.05


Tree=23
num_leaves=5
num_cat=0
split_feature=19 13 3 19
split_gain=3.32327 4.225 1.25 0.0776515
threshold=8.5000000000000018 4.6282517422152845 6.5000000000000009 49.500000000000007
decision_type=2 2 2 2
left_child=1 -1 -3 -2
right_child=3 2 -4 -5
leaf_value=-0.0018699970997008348 -0.0040394810355427616 0.0046811508382256228 0.00072090760808703408 -0.00041986546849504089
leaf_weight=20 164 10.000000000000002 9.9999999999999982 11.999999999999998
leaf_count=20 164 10 10 12
internal_value=-0.00175926 0.01125 0.0275 -0.00471591
internal_weight=216 40 20 176
internal_count=216 40 20 176
is_linear=0
shrinkage=0.05


Tree=24
num_leaves=6
num_cat=0
split_feature=14 1 7 19 0
split_gain=2.56236 0.340511 1.14286 0.0774162 5.55112e-17
threshold=5.1028050667914675 5.1388536653947119 4.8898488419023378 48.500000000000007 5.3795457716172521
decision_type=2 2 2 2 2
left_child=1 3 -3 -1 -4
right_child=-2 2 4 -5 -6
leaf_value=-0.0044179252092951286 0.00442797002861653 0.0001837907833805623 -0.0012436957652180677 -0.0047434995872076783 -4.4960287332025289e-05
leaf_weight=157 11.999999999999998 9.9999999999999982 13.000000000000002 11.999999999999998 11.999999999999998
leaf_count=157 12 10 13 12 12
internal_value=-0.0024537 -0.00377451 0.000714285 -0.00470414 -0.005
internal_weight=216 204 35 169 25
internal_count=216 204 35 169 25
is_linear=0
shrinkage=0.05


Tree=25
num_leaves=6
num_cat=0
split_feature=20 9 13 19 0
split_gain=2.65191 3.62143 0.6 0.0775862 2.77556e-17
threshold=2.5000000000000004 4.9400772878867363 4.6144094396009825 49.500000000000007 5.0000621162290981
decision_type=2 2 2 2 2
left_child=1 2 4 -2 -1
right_child=3 -3 -4 -5 -6
leaf_value=-0.0041834006064038589 -0.0040249600378735153 0.0042065715271857162 0.00010580793712071584 -0.00062027069650110291 -0.00090260993244154701
leaf_weight=10.000000000000005 162 11.999999999999998 9.9999999999999982 11.999999999999998 9.9999999999999982
leaf_count=10 162 12 10 12 10
internal_value=-0.00199074 0.00928571 -1.19209e-09 -0.00471264 -0.005
internal_weight=216 42 30 174 20
internal_count=216 42 30 174 20
is_linear=0
shrinkage=0.05


Tree=26
num_leaves=5
num_cat=0
split_feature=0 7 15 19
split_gain=2.96892 2.96296 0.291364 0.0776836
threshold=5.3203637813956224 5.1125646260545965 0.25544594735760645 49.500000000000007
decision_type=2 2 2 2
left_child=2 -2 3 -1
right_child=1 -3 -4 -5
leaf_value=-0.0044379417899902407 0.0039898683612183128 -0.00025023603845287498 4.7839967335722653e-05 -0.00058925716167603892
leaf_weight=165 15.000000000000002 11.999999999999998 11.999999999999998 11.999999999999998
leaf_count=165 15 12 12 12
internal_value=-0.00199074 0.0135185 -0.00420635 -0.00471752
internal_weight=216 27 189 177
internal_count=216 27 189 177
is_linear=0
shrinkage=0.05


Tree=27
num_leaves=5
num_cat=0
split_feature=14 19 0 19
split_gain=2.56236 0.549673 0.933333 0.0777778
threshold=5.1028050667914675 6.5000000000000009 5.0771121254584939 48.500000000000007
decision_type=2 2 2 2
left_child=1 2 -1 -3
right_child=-2 3 -4 -5
leaf_value=-0.002488611260970712 0.0037967495327655264 -0.0020655961231477995 0.00015710750006908277 -0.004445848214938453
leaf_weight=14.000000000000002 11.999999999999998 168 9.9999999999999982 11.999999999999998
leaf_count=14 12 168 10 12
internal_value=-0.0024537 -0.00377451 0.00333333 -0.00472222
internal_weight=216 204 24 180
internal_count=216 204 24 180
is_linear=0
shrinkage=0.05


Tree=28
num_leaves=7
num_cat=0
split_feature=2 16 20 0 7 0
split_gain=2.52083 3.375 0.635756 0.8 0.101744 0.275
threshold=5.4306905682136817 101.27023480414944 1.5000000000000002 5.0264982234204885 4.6408062721757117 4.8194366391052261
decision_type=2 2 2 2 2 2
left_child=2 -2 3 -1 5 -4
right_child=1 -3 4 -5 -6 -7
leaf_value=-0.0028099193700391826 0.0036069120561272715 -8.9046863056660739e-05 -0.011587681002951024 0.00014925212506563119 -0.0037839959057535824 0.00012417693354967714
leaf_weight=10.000000000000002 12.000000000000002 11.999999999999998 22 9.9999999999999982 140 9.9999999999999982
leaf_count=10 12 12 22 10 140 10
internal_value=-0.00152778 0.01375 -0.0034375 0.005 -0.00441861 -0.001875
internal_weight=216 24 192 20 172 32
internal_count=216 24 192 20 172 32
is_linear=0
shrinkage=0.05


Tree=29
num_leaves=5
num_cat=0
split_feature=19 13 9 19
split_gain=3.32327 4.225 0.45 0.0776515
threshold=8.5000000000000018 4.6282517422152845 4.9596064167249656 49.500000000000007
decision_type=2 2 2 2
left_child=1 -1 -3 -2
right_child=3 2 -4 -5
leaf_value=-0.0015158132399043605 -0.0031766638570512209 0.0001399654702163665 0.0034648134898431341 -0.00056043198494282295
leaf_weight=20 164 10.000000000000002 9.9999999999999982 11.999999999999998
leaf_count=20 164 10 10 12
internal_value=-0.00175926 0.01125 0.0275 -0.00471591
internal_weight=216 40 20 176
internal_count=216 40 20 176
is_linear=0
shrinkage=0.05


Tree=30
num_leaves=6
num_cat=0
split_feature=10 19 19 2 19
split_gain=4.77844 1.66688 0.708592 1.60714 0.0771222
threshold=5.1778791897403904 10.500000000000002 8.5000000000000018 5.2405703080832522 49.500000000000007
decision_type=2 2 2 2 2
left_child=2 -2 3 -1 -4
right_child=1 -3 4 -5 -6
leaf_value=-0.0014066765936798283 0.0032448263260179445 5.1745018250488171e-05 -0.0047095948423019609 7.5132822792510365e-05 -0.00053241038569567069
leaf_weight=18.000000000000004 16.000000000000004 10.999999999999998 149 9.9999999999999982 11.999999999999998
leaf_count=18 16 11 149 10 12
internal_value=-0.000601853 0.0190741 -0.0034127 0.00392857 -0.00468944
internal_weight=216 27 189 28 161
internal_count=216 27 189 28 161
is_linear=0
shrinkage=0.05


Tree=31
num_leaves=6
num_cat=0
split_feature=14 19 12 0 19
split_gain=2.40632 0.630268 1.60714 0.240751 0.0771605
threshold=5.1028050667914675 7.5000000000000009 4.6980674704557419 5.3635425963914196 48.500000000000007
decision_type=2 2 2 2 2
left_child=1 2 -1 4 -3
right_child=-2 3 -4 -5 -6
leaf_value=-0.0015112801791881557 0.0030910844625278884 -0.0036131151215173345 7.1376181652880877e-05 1.355217832443524e-05 -0.0041165630890767167
leaf_weight=18.000000000000004 11.999999999999998 150 9.9999999999999982 13.999999999999998 11.999999999999998
leaf_count=18 12 150 10 14 12
internal_value=-0.00175926 -0.00303922 0.00392857 -0.00414773 -0.00469136
internal_weight=216 204 28 176 162
internal_count=216 204 28 176 162
is_linear=0
shrinkage=0.05


Tree=32
num_leaves=7
num_cat=0
split_feature=20 13 16 0 20 9
split_gain=3.38043 3.42857 1.50693 0.318047 0.0526886 0.052381
threshold=2.5000000000000004 4.6282517422152845 99.359610194631514 5.3635425963914196 11.500000000000002 4.6187065278766788
decision_type=2 2 2 2 2 2
left_child=1 5 -3 4 -2 -1
right_child=3 2 -4 -5 -6 -7
leaf_value=-0.0022928074533748416 -0.003993067616225361 0.0029747772759237028 0.00012107521244202236 4.8480269616227968e-05 -0.00081365528511616488 -0.0014122207228971851
leaf_weight=10.000000000000002 146 10.000000000000002 10.999999999999998 10.999999999999998 17 10.999999999999998
leaf_count=10 146 10 11 11 17 11
internal_value=-0.00106482 0.0116667 0.0259524 -0.00413793 -0.00469325 -0.00261905
internal_weight=216 42 21 174 163 21
internal_count=216 42 21 174 163 21
is_linear=0
shrinkage=0.05


Tree=33
num_leaves=6
num_cat=0
split_feature=14 19 2 9 19
split_gain=2.45779 0.593137 0.256061 0.416667 0.0772727
threshold=5.1028050667914675 3.5000000000000004 5.3414071942406638 4.6187065278766788 48.500000000000007
decision_type=2 2 2 2 2
left_child=1 -1 4 -4 -3
right_child=-2 2 3 -5 -6
leaf_value=2.4146432547524534e-05 0.0027877913756053033 -0.0031711287244913888 8.1659301290739047e-05 -9.0088743341582334e-05 -0.0038700521703670973
leaf_weight=11.999999999999998 11.999999999999998 153 12.000000000000002 14.999999999999998 11.999999999999998
leaf_count=12 12 153 12 15 12
internal_value=-0.00199074 -0.00328431 -0.00395833 0.000555554 -0.00469697
internal_weight=216 204 192 27 165
internal_count=216 204 192 27 165
is_linear=0
shrinkage=0.05


Tree=34
num_leaves=6
num_cat=0
split_feature=19 9 1 4 19
split_gain=2.16873 2.40833 0.921212 0.288295 0.0772358
threshold=8.5000000000000018 4.9596064167249656 5.0825483535955147 5.3780169402261153 49.500000000000007
decision_type=2 2 2 2 2
left_child=1 2 -1 4 -2
right_child=3 -3 -4 -5 -6
leaf_value=-0.0012099051903352587 -0.0033975001639378194 0.0026866488433472408 0.00011381414151593263 3.0963466810158868e-05 -0.00072322078425505706
leaf_weight=19.000000000000004 152 9.9999999999999982 10.999999999999998 11.999999999999998 11.999999999999998
leaf_count=19 152 10 11 12 12
internal_value=-0.00175926 0.00875 0.00166667 -0.00414773 -0.00469512
internal_weight=216 40 30 176 164
internal_count=216 40 30 176 164
is_linear=0
shrinkage=0.05


Tree=35
num_leaves=6
num_cat=0
split_feature=0 16 9 9 19
split_gain=2.22355 1.91005 2.00173 0.215488 0.077381
threshold=5.1813706702069329 100.58701039954967 4.7131629571974818 4.6088832388225232 49.500000000000007
decision_type=2 2 2 2 2
left_child=4 2 -2 -3 -1
right_child=1 3 -4 -5 -6
leaf_value=-0.0036186078497305661 4.0425113708174143e-05 7.9984007820069352e-05 0.0025523164011798565 -0.00022276889760014667 -0.00068705974504232282
leaf_weight=156 11.000000000000002 11.000000000000002 9.9999999999999982 15.999999999999998 11.999999999999998
leaf_count=156 11 11 10 16 12
internal_value=-0.00199074 0.0075 0.0188095 -0.0012963 -0.00470238
internal_weight=216 48 21 27 168
internal_count=216 48 21 27 168
is_linear=0
shrinkage=0.05


Tree=36
num_leaves=6
num_cat=0
split_feature=2 16 19 2 19
split_gain=2.08333 1.5 0.338645 0.074779 0.0774854
threshold=5.4306905682136817 101.27023480414944 2.5000000000000004 5.3236333308728936 49.500000000000007
decision_type=2 2 2 2 2
left_child=2 -2 -1 4 -4
right_child=1 -3 3 -5 -6
leaf_value=5.9348960678910129e-05 0.0023864535445986606 -9.3101421206266414e-05 -0.0027372165241421062 -8.8747491630482441e-05 -0.00065270675779022745
leaf_weight=9.9999999999999982 12.000000000000002 11.999999999999998 159 10.999999999999998 11.999999999999998
leaf_count=10 12 12 159 11 12
internal_value=-0.00222222 0.0116667 -0.00395833 -0.00445055 -0.0047076
internal_weight=216 24 192 182 171
internal_count=216 24 192 182 171
is_linear=0
shrinkage=0.05


Tree=37
num_leaves=6
num_cat=0
split_feature=19 7 9 11 19
split_gain=1.85606 1.66667 0.57619 0.0832968 0.0773092
threshold=8.5000000000000018 4.526474442296796 4.9596064167249656 5.4091318517787297 49.500000000000007
decision_type=2 2 2 2 2
left_child=1 -1 -3 4 -2
right_child=3 2 -4 -5 -6
leaf_value=-0.0012238609150401871 -0.0027102787410179137 0.00010473608446838007 0.0023053779038909386 -4.0427652657944424e-05 -0.00062007141990069693
leaf_weight=15.999999999999998 154 14.000000000000002 9.9999999999999982 9.9999999999999982 11.999999999999998
leaf_count=16 154 14 10 10 12
internal_value=-0.00222222 0.0075 0.0158333 -0.00443182 -0.0046988
internal_weight=216 40 24 176 166
internal_count=216 40 24 176 166
is_linear=0
shrinkage=0.05


Tree=38
num_leaves=6
num_cat=0
split_feature=15 16 1 2 20
split_gain=2.08172 1.63333 0.124452 0.119048 0.0526507
threshold=0.23430528738347642 98.885377508293473 5.1388536653947119 5.4508476804300496 11.500000000000002
decision_type=2 2 2 2 2
left_child=2 -2 4 -4 -1
right_child=1 -3 3 -5 -6
leaf_value=-0.0043635075914280983 0.0021454873825660415 -0.0001578292123286429 3.099879461185848e-05 -0.00047820764835146363 -0.00090168402974966631
leaf_weight=145 15.000000000000002 14.999999999999998 14.000000000000002 9.9999999999999982 17
leaf_count=145 15 15 14 10 17
internal_value=-0.00222222 0.01 -0.00419355 -0.000833335 -0.00469136
internal_weight=216 30 186 24 162
internal_count=216 30 186 24 162
is_linear=0
shrinkage=0.05


Tree=39
num_leaves=5
num_cat=0
split_feature=4 19 15 19
split_gain=1.32808 0.497127 0.0841764 0.0776515
threshold=5.3969798286739215 3.5000000000000004 0.26862031953982596 49.500000000000007
decision_type=2 2 2 2
left_child=1 -1 3 -3
right_child=-2 2 -4 -5
leaf_value=0.00013904135910212462 0.0020382130134377454 -0.0018205639629598359 -2.9471264654254732e-05 -0.00054398364741816091
leaf_weight=14.999999999999998 14.999999999999998 164 9.9999999999999982 11.999999999999998
leaf_count=15 15 164 10 12
internal_value=-0.00268519 -0.00375622 -0.00446237 -0.00471591
internal_weight=216 201 186 176
internal_count=216 201 186 176
is_linear=0
shrinkage=0.05


Tree=40
num_leaves=6
num_cat=0
split_feature=19 9 0 16 19
split_gain=1.66635 1.86831 0.595238 0.500433 0.0772358
threshold=11.500000000000002 4.9596064167249656 5.1813706702069329 101.27023480414944 49.500000000000007
decision_type=2 2 2 2 2
left_child=1 2 -1 -4 -2
right_child=4 -3 3 -5 -6
leaf_value=-0.0011761162484303976 -0.0034706359884413753 0.0019809239888962009 8.9522600441337778e-05 -0.00014587742080149886 -0.00051678446504725369
leaf_weight=21 152 9.9999999999999982 10.000000000000002 10.999999999999998 11.999999999999998
leaf_count=21 152 10 10 11 12
internal_value=-0.00222222 0.00557692 0.00095238 0.00690476 -0.00469512
internal_weight=216 52 42 21 164
internal_count=216 52 42 21 164
is_linear=0
shrinkage=0.05


Tree=41
num_leaves=6
num_cat=0
split_feature=4 14 19 12 19
split_gain=2.32483 0.916017 0.579133 0.804924 0.0771605
threshold=5.3581239208339628 5.0089136018519147 8.5000000000000018 4.6811444002924398 49.500000000000007
decision_type=2 2 2 2 2
left_child=2 -2 3 -1 -4
right_child=1 -3 4 -5 -6
leaf_value=-0.0010504877933811664 3.387280804365412e-05 0.0018818777894513709 -0.0029721294537825103 8.1952415129102647e-05 -0.00049094524179490952
leaf_weight=17 11.000000000000002 9.9999999999999982 150 15.999999999999998 11.999999999999998
leaf_count=17 11 10 150 16 12
internal_value=-0.00175926 0.0140476 -0.00346154 0.00257576 -0.00469136
internal_weight=216 21 195 33 162
internal_count=216 21 195 33 162
is_linear=0
shrinkage=0.05


Tree=42
num_leaves=6
num_cat=0
split_feature=4 14 19 7 19
split_gain=2.32483 0.916017 0.579133 0.713012 0.0771605
threshold=5.3581239208339628 5.0089136018519147 8.5000000000000018 4.526474442296796 49.500000000000007
decision_type=2 2 2 2 2
left_child=2 -2 3 -1 -4
right_child=1 -3 4 -5 -6
leaf_value=-0.00094104342727471726 3.2179167641464673e-05 0.0017877838999787801 -0.0028235229810933825 7.4414577299627383e-05 -0.00046639797970515155
leaf_weight=15.999999999999998 11.000000000000002 9.9999999999999982 150 17 11.999999999999998
leaf_count=16 11 10 150 17 12
internal_value=-0.00175926 0.0140476 -0.00346154 0.00257576 -0.00469136
internal_weight=216 21 195 33 162
internal_count=216 21 195 33 162
is_linear=0
shrinkage=0.05


Tree=43
num_leaves=6
num_cat=0
split_feature=15 5 19 6 19
split_gain=1.927 1.96507 0.488983 0.0828194 0.0771222
threshold=0.23430528738347642 5.3018596051558156 3.5000000000000004 5.3969798286739215 49.500000000000007
decision_type=2 2 2 2 2
left_child=2 -2 -1 4 -4
right_child=1 -3 3 -5 -6
leaf_value=5.1838941712111659e-05 -5.208012263230568e-05 0.0016622725316603273 -0.0029265674978182373 -2.6394717284542592e-05 -0.00044307808071987703
leaf_weight=14.999999999999998 19.000000000000004 10.999999999999998 149 9.9999999999999982 11.999999999999998
leaf_count=15 19 11 149 10 12
internal_value=-0.00175926 0.01 -0.00365592 -0.00441521 -0.00468944
internal_weight=216 30 186 171 161
internal_count=216 30 186 171 161
is_linear=0
shrinkage=0.05


Tree=44
num_leaves=6
num_cat=0
split_feature=20 9 1 11 19
split_gain=2.12153 2.75238 0.518182 0.0740556 0.0771984
threshold=2.5000000000000004 4.9400772878867363 5.0825483535955147 5.37824358283767 49.500000000000007
decision_type=2 2 2 2 2
left_child=1 2 -1 4 -2
right_child=3 -3 -4 -5 -6
leaf_value=-0.00054649810887496793 -0.002517750247709605 0.0015770340418746203 4.4087151386218204e-05 -2.9430832517179978e-05 -0.00042092417668386181
leaf_weight=19.000000000000004 151 11.999999999999998 10.999999999999998 10.999999999999998 11.999999999999998
leaf_count=19 151 12 11 11 12
internal_value=-0.00199074 0.00809524 -1.19209e-09 -0.00442529 -0.00469325
internal_weight=216 42 30 174 163
internal_count=216 42 30 174 163
is_linear=0
shrinkage=0.05


Tree=45
num_leaves=6
num_cat=0
split_feature=2 7 0 6 19
split_gain=2.30225 1.35 0.349868 0.471429 0.077381
threshold=5.3922781115971006 5.1125646260545965 5.1813706702069329 5.1778791897403904 49.500000000000007
decision_type=2 2 2 2 2
left_child=2 -2 4 -4 -1
right_child=1 -3 3 -5 -6
leaf_value=-0.002750766461517451 0.0014918077501727745 -4.7095306527330661e-05 6.6543117767304538e-05 -0.0011358206985792288 -0.00039987796784967614
leaf_weight=156 15.000000000000002 11.999999999999998 10.000000000000002 10.999999999999998 11.999999999999998
leaf_count=156 15 12 10 11 12
internal_value=-0.00199074 0.0116667 -0.0039418 0.00214286 -0.00470238
internal_weight=216 27 189 21 168
internal_count=216 27 189 21 168
is_linear=0
shrinkage=0.05


Tree=46
num_leaves=7
num_cat=0
split_feature=19 13 0 4 6 19
split_gain=1.44048 1.14247 1.1361 0.838095 0.0825196 0.0770042
threshold=10.500000000000002 4.5830442984473541 5.2326237074400019 5.3581239208339628 5.3969798286739215 49.500000000000007
decision_type=2 2 2 2 2 2
left_child=1 -1 -3 -4 5 -2
right_child=4 2 3 -5 -6 -7
leaf_value=-0.00051366838454153534 -0.0028707200008054896 0.0001302408009733157 -6.136345621217584e-05 0.001461838988794463 -1.5315522615605165e-05 -0.00037988406945720869
leaf_weight=17 146 10.000000000000002 11.000000000000002 9.9999999999999982 9.9999999999999982 11.999999999999998
leaf_count=17 146 10 11 10 10 12
internal_value=-0.00222222 0.00541667 0.011129 0.00452381 -0.00440476 -0.00468355
internal_weight=216 48 31 21 168 158
internal_count=216 48 31 21 168 158
is_linear=0
shrinkage=0.05


Tree=47
num_leaves=6
num_cat=0
split_feature=19 13 0 2 19
split_gain=1.40947 1.215 0.96 0.205114 0.0770833
threshold=8.5000000000000018 4.5830442984473541 5.2449242574266046 5.3922781115971006 49.500000000000007
decision_type=2 2 2 2 2
left_child=1 -1 -3 4 -2
right_child=3 2 -4 -5 -6
leaf_value=-0.00066317231195784461 -0.0025752729961140038 0.00012372876092464836 0.0013441254132243786 -3.0061516056634502e-06 -0.00036088986598434237
leaf_weight=14.999999999999998 148 10.000000000000002 14.999999999999998 15.999999999999998 11.999999999999998
leaf_count=15 148 10 15 16 12
internal_value=-0.00222222 0.00625 0.013 -0.00414773 -0.0046875
internal_weight=216 40 25 176 160
internal_count=216 40 25 176 160
is_linear=0
shrinkage=0.05


Tree=48
num_leaves=7
num_cat=0
split_feature=5 17 19 13 0 19
split_gain=1.23223 0.876623 0.53592 0.535714 1.25 0.0770833
threshold=5.3504190403339607 264.26258883028385 8.5000000000000018 4.5830442984473541 5.2449242574266046 49.500000000000007
decision_type=2 2 2 2 2 2
left_child=2 -2 3 -1 -5 -4
right_child=1 -3 5 4 -6 -7
leaf_value=-0.00063001369635994986 -7.3278027756857155e-05 0.001321540768693509 -0.0022323744681107412 0.00011754232287840771 -0.00013664434304585157 -0.00034284537268513497
leaf_weight=14.999999999999998 11.000000000000002 9.9999999999999982 148 10.000000000000002 9.9999999999999982 11.999999999999998
leaf_count=15 11 10 148 10 10 12
internal_value=-0.00222222 0.00928571 -0.00346154 0.00214286 0.0075 -0.0046875
internal_weight=216 21 195 35 20 160
internal_count=216 21 195 35 20 160
is_linear=0
shrinkage=0.05


Tree=49
num_leaves=6
num_cat=0
split_feature=15 16 19 5 19
split_gain=1.75957 1.60428 0.33569 0.0830136 0.0771984
threshold=0.2310387250902127 98.885377508293473 2.5000000000000004 5.3716785934967941 49.500000000000007
decision_type=2 2 2 2 2
left_child=2 -2 -1 4 -4
right_child=1 -3 3 -5 -6
leaf_value=8.299045965819782e-05 0.0012087172409257698 -0.00018225162901800519 -0.0021934420357704073 -5.8208664547105844e-05 -0.00032570310405086124
leaf_weight=9.9999999999999982 15.999999999999998 17 151 9.9999999999999982 11.999999999999998
leaf_count=10 16 17 151 10 12
internal_value=-0.00199074 0.00863636 -0.00390711 -0.00442197 -0.00469325
internal_weight=216 33 183 173 163
internal_count=216 33 183 173 163
is_linear=0
shrinkage=0.05


Tree=50
num_leaves=7
num_cat=0
split_feature=0 9 9 9 19 19
split_gain=1.49245 0.992063 0.372671 0.589967 0.286991 0.077044
threshold=5.1974223158200683 4.9400772878867363 4.6656566646411024 4.5700415306477149 3.5000000000000004 49.500000000000007
decision_type=2 2 2 2 2 2
left_child=4 2 3 -2 -1 -6
right_child=1 -3 -4 -5 5 -7
leaf_value=-3.4094079004409469e-05 -7.0933925574331351e-05 0.0011950278682125517 -0.00029153021366519613 0.0001046708785242825 -0.0023651672082100452 -0.00030941794884832785
leaf_weight=11.999999999999998 13.000000000000002 9.9999999999999982 11.999999999999998 9.9999999999999982 147 11.999999999999998
leaf_count=12 13 10 12 10 147 12
internal_value=-0.00199074 0.00611111 0.00214286 0.00586956 -0.00412281 -0.00468554
internal_weight=216 45 35 23 171 159
internal_count=216 45 35 23 171 159
is_linear=0
shrinkage=0.05


Tree=51
num_leaves=9
num_cat=0
split_feature=2 5 5 15 2 19 0 0
split_gain=1.70668 1.59707 0.925735 0.744048 0.129199 0.0836627 2.22045e-16 5.55112e-17
threshold=5.1559735538596039 5.0641371701252078 5.3260538793188239 0.23430528738347642 5.3043383370368096 49.500000000000007 5.0000621162290981 5.1671367132770945
decision_type=2 2 2 2 2 2 2 2
left_child=5 -2 4 -4 7 6 -1 -3
right_child=1 2 3 -5 -6 -7 -8 -9
leaf_value=-0.008509115521340609 7.927213036184012e-05 -0.0020463386906972758 1.6681055943789188e-05 0.0011352764748019174 1.9651896596312431e-05 -0.0029640065917908281 -0.0012141321163072272 -0.00014718509629027071
leaf_weight=116 10.999999999999998 15.000000000000002 14.000000000000002 9.9999999999999982 18 10.999999999999998 10.999999999999998 9.9999999999999982
leaf_count=116 11 15 14 10 18 11 11 10
internal_value=-0.0012963 0.00461538 0.00171642 0.00958333 -0.00267442 -0.00463768 -0.005 -0.005
internal_weight=216 78 67 24 43 138 127 25
internal_count=216 78 67 24 43 138 127 25
is_linear=0
shrinkage=0.05


Tree=52
num_leaves=9
num_cat=0
split_feature=10 7 14 1 1 16 0 0
split_gain=1.40445 1.13881 1.10404 0.10719 0.266667 0.0714286 2.22045e-16 5.55112e-17
threshold=4.9764423753532459 4.6946862182847431 5.018437225614325 4.9010157803660404 4.9505750765641912 97.225024646101247 4.950391712804123 5.4089541112617008
decision_type=2 2 2 2 2 2 2 2
left_child=3 -2 5 6 -5 -3 -1 -7
right_child=1 2 -4 4 -6 7 -8 -9
leaf_value=-0.0085165249909023352 9.472564946537296e-05 -2.9489540756044775e-05 0.0010275164353233553 0.00026048836456461484 -0.0007350344835722187 -7.6350719398120812e-05 -0.0073907691620165739 -0.00053605531431305412
leaf_weight=111 9.9999999999999982 9.9999999999999982 18 10.000000000000002 20 15.000000000000002 11.999999999999998 9.9999999999999982
leaf_count=111 10 10 18 10 20 15 12 10
internal_value=-0.00175926 0.00452381 0.00160377 -0.00434641 -0.00166667 -0.00357143 -0.005 -0.005
internal_weight=216 63 53 153 30 35 123 25
internal_count=216 63 53 153 30 35 123 25
is_linear=0
shrinkage=0.05


Tree=53
num_leaves=8
num_cat=0
split_feature=2 5 15 8 19 15 0
split_gain=1.26651 1.8374 0.765626 0.222727 0.0836627 0.0681818 2.22045e-16
threshold=5.1559735538596039 5.0641371701252078 0.26508435492678062 5.3840083387864253 49.500000000000007 0.23430528738347642 5.0000621162290981
decision_type=2 2 2 2 2 2 2
left_child=4 -2 3 5 6 -3 -1
right_child=1 2 -4 -5 -6 -7 -8
leaf_value=-0.0076859772371199401 7.057224137044761e-05 -0.00019393161190854968 0.00098888979277343453 5.0215162721750638e-06 -0.0023899801172863242 -3.3921772713029998e-05 -0.0011166737863132559
leaf_weight=116 10.999999999999998 33 11.999999999999998 10.999999999999998 10.999999999999998 10.999999999999998 10.999999999999998
leaf_count=116 11 33 12 11 11 11 11
internal_value=-0.00175926 0.00333333 0.000223879 -0.00227273 -0.00463768 -0.00386364 -0.005
internal_weight=216 78 67 55 138 44 127
internal_count=216 78 67 55 138 44 127
is_linear=0
shrinkage=0.05


Tree=54
num_leaves=10
num_cat=0
split_feature=2 5 5 14 16 2 1 0 0
split_gain=1.4784 1.71513 0.846018 0.876623 0.113043 0.2 0.0594203 2.22045e-16 5.55112e-17
threshold=5.1559735538596039 5.0641371701252078 5.3504190403339607 5.0089136018519147 102.28758569682476 5.2767656325561161 4.9010157803660404 4.950391712804123 5.2525154641931158
decision_type=2 2 2 2 2 2 2 2 2
left_child=6 -2 4 -4 8 -6 7 -1 -3
right_child=1 2 3 -5 5 -7 -8 -9 -10
leaf_value=-0.0077063998795012072 6.7043629301910226e-05 -0.00023983505258040155 -5.2819997121900548e-05 0.00097769233965698944 -0.0011847340153902108 5.8748054607973248e-05 -0.00056870163670533008 -0.0068687862193926646 -3.0436145913359142e-05
leaf_weight=111 10.999999999999998 16.000000000000004 11.000000000000002 9.9999999999999982 10.000000000000002 9.9999999999999982 14.999999999999998 11.999999999999998 9.9999999999999982
leaf_count=111 11 16 11 10 10 10 15 12 10
internal_value=-0.00152778 0.00397436 0.000970148 0.00928571 -0.00282609 -1.19209e-09 -0.00463768 -0.005 -0.005
internal_weight=216 78 67 21 46 20 138 123 26
internal_count=216 78 67 21 46 20 138 123 26
is_linear=0
shrinkage=0.05


Tree=55
num_leaves=7
num_cat=0
split_feature=20 9 1 1 9 2
split_gain=1.23812 1.37143 0.45 0.174713 0.446918 0.0787234
threshold=2.5000000000000004 4.9400772878867363 5.0751710478742824 4.9010157803660404 4.8194366391052261 5.4508476804300496
decision_type=2 2 2 2 2 2
left_child=1 2 -1 -2 5 -5
right_child=3 -3 -4 4 -6 -7
leaf_value=-0.00017806013106650624 -0.007408315145232644 0.00089056068615190373 6.1886684608053485e-05 -0.00016403719365900343 3.6459756829517125e-05 -4.2212833311125556e-05
leaf_weight=18.000000000000004 114 11.999999999999998 11.999999999999998 37 12.999999999999998 9.9999999999999982
leaf_count=18 114 12 12 37 13 10
internal_value=-0.00199074 0.00571428 -1.19209e-09 -0.00385058 -0.00166667 -0.00393617
internal_weight=216 42 30 174 60 47
internal_count=216 42 30 174 60 47
is_linear=0
shrinkage=0.05


Tree=56
num_leaves=7
num_cat=0
split_feature=19 9 1 19 6 3
split_gain=1.02424 1.2 0.45 0.266815 0.142276 0.233333
threshold=8.5000000000000018 4.9596064167249656 5.0751710478742824 49.500000000000007 5.2864455059029014 6.5000000000000009
decision_type=2 2 2 2 2 2
left_child=1 2 -1 4 -2 -6
right_child=3 -3 -4 -5 5 -7
leaf_value=-0.00016915712451318825 -0.0034859877952761911 0.00088427968836653063 5.8792350377651083e-05 -0.0001273446413579351 -8.3899162709057183e-05 3.209295149125016e-05
leaf_weight=18.000000000000004 140 9.9999999999999982 11.999999999999998 11.999999999999998 14.000000000000002 9.9999999999999982
leaf_count=18 140 10 12 12 14 10
internal_value=-0.00222222 0.005 -1.19209e-09 -0.00386364 -0.00439025 -0.000833335
internal_weight=216 40 30 176 164 24
internal_count=216 40 30 176 164 24
is_linear=0
shrinkage=0.05


Tree=57
num_leaves=6
num_cat=0
split_feature=15 13 1 19 7
split_gain=2.80844 0.969697 0.727273 0.290001 0.0774854
threshold=0.2310387250902127 4.5830442984473541 5.330958946825759 49.500000000000007 5.3840083387864253
decision_type=2 2 2 2 2
left_child=3 -2 -3 4 -1
right_child=1 2 -4 -5 -6
leaf_value=-0.0018079456952094131 -4.8450121520703553e-05 0.0001517973901875435 0.00080394353062868357 -0.00012097740929002974 -3.1935784410066664e-05
leaf_weight=159 10.999999999999998 11.000000000000002 10.999999999999998 11.999999999999998 11.999999999999998
leaf_count=159 11 11 11 12 12
internal_value=-0.00175926 0.0116667 0.0177273 -0.00418033 -0.0047076
internal_weight=216 33 22 183 171
internal_count=216 33 22 183 171
is_linear=0
shrinkage=0.05


Tree=58
num_leaves=8
num_cat=0
split_feature=19 13 16 19 8 14 8
split_gain=2.95638 1.72024 2.01353 0.28384 0.270563 0.233333 0.0765766
threshold=12.500000000000002 4.6144094396009825 100.99612036046769 49.500000000000007 4.6243318643112126 4.7435905721117528 5.3840083387864253
decision_type=2 2 2 2 2 2 2
left_child=1 5 4 6 -3 -1 -2
right_child=3 2 -4 -5 -6 -7 -8
leaf_value=-0.00049903240251389488 -0.0051825606129302934 0.00010633178072274807 -0.00032627766992919082 -0.00011492853882551522 0.00079986852741673737 2.6859836873200836e-05 -0.00010517325928670256
leaf_weight=14.000000000000002 136 11.000000000000002 10.999999999999998 11.999999999999998 9.9999999999999982 9.9999999999999982 11.999999999999998
leaf_count=14 136 11 11 12 10 10 12
internal_value=-0.000601853 0.00928571 0.016875 -0.0040625 0.0259524 -0.000833335 -0.00466216
internal_weight=216 56 32 160 21 24 148
internal_count=216 56 32 160 21 24 148
is_linear=0
shrinkage=0.05


Tree=59
num_leaves=7
num_cat=0
split_feature=2 9 13 13 19 19
split_gain=2.86012 1.23355 1.74972 0.96 0.878525 0.30719
threshold=5.2872399622648212 4.5254600156969618 4.8055452244742556 4.921056907897376 4.5000000000000009 49.500000000000007
decision_type=2 2 2 2 2 2
left_child=4 -2 -3 -4 -1 -6
right_child=1 2 3 -5 5 -7
leaf_value=3.5877896437380119e-05 -0.00063823963972361401 0.00013131578199316465 -0.00043662989732232431 0.00071525347491555036 -0.0031003358190168735 -0.00010918211188424862
leaf_weight=14.999999999999998 9.9999999999999982 12.999999999999998 10.000000000000002 14.999999999999998 141 11.999999999999998
leaf_count=15 10 13 10 15 141 12
internal_value=-0.00013889 0.010625 0.0147368 0.007 -0.00321429 -0.00434641
internal_weight=216 48 38 25 168 153
internal_count=216 48 38 25 168 153
is_linear=0
shrinkage=0.05


Tree=60
num_leaves=7
num_cat=0
split_feature=19 10 13 13 7 19
split_gain=3.03385 1.32083 0.856098 1.39286 0.623877 0.307018
threshold=11.500000000000002 4.8747871911549012 4.8055452244742556 4.6144094396009825 5.3840083387864253 49.500000000000007
decision_type=2 2 2 2 2 2
left_child=1 -1 3 -3 5 -2
right_child=4 2 -4 -5 -6 -7
leaf_value=-0.0014064654178814681 -0.0037472034108645366 1.0214933389273735e-05 0.00067949080116978529 8.3585446536054044e-05 5.6095551683408982e-05 -0.00010372300629005203
leaf_weight=10.999999999999998 140 12.000000000000002 14.999999999999998 13.999999999999998 11.999999999999998 11.999999999999998
leaf_count=11 140 12 15 14 12 12
internal_value=-0.00013889 0.0103846 0.0145122 0.02 -0.00347561 -0.00434211
internal_weight=216 52 41 26 164 152
internal_count=216 52 41 26 164 152
is_linear=0
shrinkage=0.05


Tree=61
num_leaves=6
num_cat=0
split_feature=2 13 14 19 19
split_gain=3.30688 1.42222 1.37143 0.878525 0.30719
threshold=5.2872399622648212 4.8055452244742556 5.018437225614325 4.5000000000000009 49.500000000000007
decision_type=2 2 2 2 2
left_child=3 -2 -3 -1 -5
right_child=1 2 -4 4 -6
leaf_value=2.990472928870388e-05 0.00014589956152070312 -0.00050059463616220444 0.00064764112431402654 -0.0027579588575227893 -9.8536855975567478e-05
leaf_weight=14.999999999999998 18 16.000000000000004 13.999999999999998 141 11.999999999999998
leaf_count=15 18 16 14 141 12
internal_value=9.25914e-05 0.0116667 0.005 -0.00321429 -0.00434641
internal_weight=216 48 30 168 153
internal_count=216 48 30 168 153
is_linear=0
shrinkage=0.05


Tree=62
num_leaves=7
num_cat=0
split_feature=19 10 13 13 1 19
split_gain=3.44048 1.58559 1.07176 0.856719 0.776507 0.308017
threshold=10.500000000000002 4.8747871911549012 4.8055452244742556 4.6144094396009825 5.2756653160839386 49.500000000000007
decision_type=2 2 2 2 2 2
left_child=1 -1 3 -3 5 -2
right_child=4 2 -4 -5 -6 -7
leaf_value=-0.0011982442373451706 -0.0017758800987564733 7.1053323565269873e-05 0.00061525906809830808 7.9933809941161457e-05 0.00015828779215389308 -9.3610013176809368e-05
leaf_weight=10.999999999999998 146 11.000000000000002 13.999999999999998 11.999999999999998 9.9999999999999982 11.999999999999998
leaf_count=11 146 11 14 12 10 12
internal_value=-0.00013889 0.0116667 0.0166216 0.0232609 -0.00351191 -0.00436709
internal_weight=216 48 37 23 168 158
internal_count=216 48 37 23 168 158
is_linear=0
shrinkage=0.05


Tree=63
num_leaves=7
num_cat=0
split_feature=19 13 13 4 19 7
split_gain=2.86012 2.13068 1.40362 0.661221 0.282905 0.0931034
threshold=10.500000000000002 4.5406060642293591 4.8055452244742556 5.3581239208339628 49.500000000000007 5.3716785934967941
decision_type=2 2 2 2 2 2
left_child=1 -1 -3 4 5 -2
right_child=3 2 -4 -5 -6 -7
leaf_value=-9.7342056009976026e-05 -0.0038639558822222957 8.6553603046995433e-05 0.00058449611469339106 0.00014795758524362555 -8.892951251798251e-05 -3.4667174963678043e-07
leaf_weight=14.999999999999998 135 19 13.999999999999998 10.999999999999998 11.999999999999998 9.9999999999999982
leaf_count=15 135 19 14 11 12 10
internal_value=-0.00013889 0.010625 0.0177273 -0.00321429 -0.00404459 -0.00465517
internal_weight=216 48 33 168 157 145
internal_count=216 48 33 168 157 145
is_linear=0
shrinkage=0.05


Tree=64
num_leaves=7
num_cat=0
split_feature=19 16 14 7 7 19
split_gain=3.49289 1.20717 0.936937 1.21905 0.620777 0.306306
threshold=12.500000000000002 98.885377508293473 4.9802098273073216 4.4970992660663498 5.3840083387864253 49.500000000000007
decision_type=2 2 2 2 2 2
left_child=1 -1 3 -3 5 -2
right_child=4 2 -4 -5 -6 -7
leaf_value=0.00054464699294518341 -0.0036815578204559408 -0.00027854721206697794 -0.00039537314906181749 7.4370004624463309e-05 5.4850518665818267e-05 -8.4483036892063688e-05
leaf_weight=19 136 14.000000000000002 12.999999999999998 9.9999999999999982 11.999999999999998 11.999999999999998
leaf_count=19 136 14 13 10 12 12
internal_value=0.000324073 0.0110714 0.00581081 0.0116667 -0.0034375 -0.00432433
internal_weight=216 56 37 24 160 148
internal_count=216 56 37 24 160 148
is_linear=0
shrinkage=0.05


Tree=65
num_leaves=7
num_cat=0
split_feature=19 13 13 13 12 19
split_gain=2.68601 1.11746 0.701197 0.967151 0.620777 0.306306
threshold=12.500000000000002 4.5139567313763136 4.8055452244742556 4.6822913581008097 5.3520881225036225 49.500000000000007
decision_type=2 2 2 2 2 2
left_child=1 -1 3 -3 5 -2
right_child=4 2 -4 -5 -6 -7
leaf_value=-0.0011195375408498372 -0.0036879511102347164 6.7042310908955265e-05 0.00052378923290605575 9.0513281939032619e-05 5.2107992732532431e-05 -8.0258885047440815e-05
leaf_weight=10.999999999999998 136 19.000000000000004 15.999999999999998 9.9999999999999982 11.999999999999998 11.999999999999998
leaf_count=11 136 19 16 10 12 12
internal_value=-0.00013889 0.00928571 0.0127778 0.0174138 -0.0034375 -0.00432433
internal_weight=216 56 45 29 160 148
internal_count=216 56 45 29 160 148
is_linear=0
shrinkage=0.05


Tree=66
num_leaves=8
num_cat=0
split_feature=19 9 16 7 8 13 19
split_gain=3.07622 0.934098 0.931994 0.620777 0.329381 0.83612 0.306306
threshold=12.500000000000002 4.9400772878867363 98.258089632869797 5.3840083387864253 4.4668244673220352 4.5139567313763136 49.500000000000007
decision_type=2 2 2 2 2 2 2
left_child=1 2 -1 6 5 -4 -2
right_child=3 -3 4 -5 -6 -7 -8
leaf_value=9.7933348361859486e-05 -0.0033720411778639945 0.0005039743608688846 -0.0014883892070761077 4.9502593095919776e-05 -0.00035404147440111858 5.0368768956037242e-05 -7.6245940795077936e-05
leaf_weight=9.9999999999999982 136 12.999999999999998 10.000000000000002 11.999999999999998 9.9999999999999982 12.999999999999998 11.999999999999998
leaf_count=10 136 13 10 12 10 13 12
internal_value=9.25914e-05 0.0101786 0.00662791 -0.0034375 0.00257576 0.00586956 -0.00432433
internal_weight=216 56 43 160 33 23 148
internal_count=216 56 43 160 33 23 148
is_linear=0
shrinkage=0.05


Tree=67
num_leaves=9
num_cat=0
split_feature=2 9 14 14 0 5 0 0
split_gain=2.87756 0.651186 1.16328 1.06667 0.307692 1.18974 2.22045e-16 5.55112e-17
threshold=5.2405703080832522 4.4980680574322713 4.9802098273073216 5.018437225614325 4.9658271776291949 4.9703779869215294 4.918809255665626 5.0894744047869755
decision_type=2 2 2 2 2 2 2 2
left_child=4 -2 -3 -4 6 -6 -1 -7
right_child=1 2 3 -5 5 7 -8 -9
leaf_value=-0.0081056606366047591 -0.00013952822629542319 0.00014201262606476625 -0.00036922782490884015 0.00047452591642003768 0.0002735989829899317 -0.0043961552068029581 -0.0031190316383079928 -0.00030371227013491453
leaf_weight=105 17 15.999999999999998 12.000000000000002 14.999999999999998 9.9999999999999982 17.000000000000004 11.999999999999998 11.999999999999998
leaf_count=105 17 16 12 15 10 17 12 12
internal_value=-0.00013889 0.00916667 0.0124419 0.00611111 -0.00371795 0.000128204 -0.005 -0.005
internal_weight=216 60 43 27 156 39 117 29
internal_count=216 60 43 27 156 39 117 29
is_linear=0
shrinkage=0.05


Tree=68
num_leaves=8
num_cat=0
split_feature=15 16 0 1 0 12 19
split_gain=2.98765 1.11207 0.956277 0.623377 0.876623 0.291361 0.306843
threshold=0.16720073478275874 98.885377508293473 5.3416740788466042 5.1989324127274958 5.1281815342486059 5.3520881225036225 49.500000000000007
decision_type=2 2 2 2 2 2 2
left_child=5 2 -2 4 -3 6 -1
right_child=1 3 -4 -5 -6 -7 -8
leaf_value=-0.0031682612873190305 3.5168970717830241e-05 -1.6895134266883556e-06 0.00049542124672936742 -0.00037828629365113588 5.7680319096736769e-05 2.8156382161657781e-05 -4.4217184929463257e-05
leaf_weight=139 11.000000000000002 11.000000000000002 9.9999999999999982 11.999999999999998 9.9999999999999982 10.999999999999998 11.999999999999998
leaf_count=139 11 11 10 12 10 11 12
internal_value=-0.000370372 0.00981481 0.0188095 0.00409091 0.00928571 -0.00376543 -0.00433775
internal_weight=216 54 21 33 21 162 151
internal_count=216 54 21 33 21 162 151
is_linear=0
shrinkage=0.05


Tree=69
num_leaves=8
num_cat=0
split_feature=20 7 2 15 17 12 19
split_gain=2.58904 0.885507 0.679816 0.983806 0.615385 0.289123 0.305936
threshold=3.5000000000000004 4.4137352225724911 5.269282457499231 0.26508435492678062 259.05973678083654 5.3520881225036225 49.500000000000007
decision_type=2 2 2 2 2 2 2
left_child=1 -1 -3 4 -4 6 -2
right_child=5 2 3 -5 -6 -7 -8
leaf_value=-0.00090262360409703246 -0.0034615637727969332 9.4362830780359507e-05 8.5753038905480715e-05 0.00043240314787070281 -0.00054417398139179585 2.6748563053567602e-05 -4.2006325682986795e-05
leaf_weight=9.9999999999999982 134 10.999999999999998 13.000000000000002 11.999999999999998 12.999999999999998 10.999999999999998 11.999999999999998
leaf_count=10 134 11 13 12 13 11 12
internal_value=-0.000370372 0.00855932 0.0113265 0.00815789 0.00269231 -0.00372612 -0.00431507
internal_weight=216 59 49 38 26 157 146
internal_count=216 59 49 38 26 157 146
is_linear=0
shrinkage=0.05


Tree=70
num_leaves=10
num_cat=0
split_feature=0 5 15 5 3 9 0 0 0
split_gain=1.77273 1.12615 1.32589 0.460303 0.429099 0.246154 2.22045e-16 5.55112e-17 2.77556e-17
threshold=4.9658271776291949 4.9631465860635151 0.26508435492678062 5.1686303736909336 7.5000000000000009 4.5700415306477149 4.918809255665626 5.1281815342486059 5.0264982234204885
decision_type=2 2 2 2 2 2 2 2 2
left_child=6 -2 3 7 5 -5 -1 8 -3
right_child=1 2 -4 4 -6 -7 -8 -9 -10
leaf_value=-0.0075765270818287855 0.00030763357422847193 -0.0038442274510838616 0.00040653326407175312 9.4693553242509093e-05 6.7891916079608266e-05 -0.00040173018588953759 -0.0028892367657246689 -2.5700801468522042e-07 -0.0026875302659457286
leaf_weight=105 9.9999999999999982 10.000000000000005 13.999999999999998 10.000000000000002 18 15.999999999999998 11.999999999999998 10.999999999999998 9.9999999999999982
leaf_count=105 10 10 14 10 18 16 12 11 10
internal_value=-0.000833335 0.00409091 0.00230337 -0.000333335 0.00295454 -0.00115385 -0.005 -0.005 -0.005
internal_weight=216 99 89 75 44 26 117 31 20
internal_count=216 99 89 75 44 26 117 31 20
is_linear=0
shrinkage=0.05


Tree=71
num_leaves=8
num_cat=0
split_feature=4 16 0 6 4 4 0
split_gain=1.56353 1.35758 0.623077 1.13077 0.238695 0.848485 2.22045e-16
threshold=5.3581239208339628 101.76225753125114 4.9658271776291949 4.8559611074819324 5.1635658833696256 5.2130561376944753 4.918809255665626
decision_type=2 2 2 2 2 2 2
left_child=2 -2 6 -4 -5 -6 -1
right_child=1 -3 3 4 5 -7 -8
leaf_value=-0.0071977007277373301 0.00042870336379579167 -2.7875720633182251e-05 9.5552713198929177e-05 -0.00010206688550698745 8.3142558437723226e-05 -2.1207983010650471e-05 -0.0027447749274384214
leaf_weight=105 10.000000000000002 10.999999999999998 12.999999999999998 32 11.999999999999998 21 11.999999999999998
leaf_count=105 10 11 13 32 12 21 12
internal_value=-0.0012963 0.0116667 -0.00269231 0.00076923 -0.00192308 0.0010606 -0.005
internal_weight=216 21 195 78 65 33 117
internal_count=216 21 195 78 65 33 117
is_linear=0
shrinkage=0.05


Tree=72
num_leaves=10
num_cat=0
split_feature=2 15 14 1 2 2 19 15 0
split_gain=1.71723 0.80594 0.909845 0.465785 0.903403 0.740741 0.0833333 0.06 2.22045e-16
threshold=5.1239445614969856 0.11265844439501309 5.0400622161995132 5.330958946825759 5.3414071942406638 5.269282457499231 49.500000000000007 0.078035117449391664 4.9795747647525639
decision_type=2 2 2 2 2 2 2 2 2
left_child=6 7 3 4 5 -3 8 -2 -1
right_child=1 2 -4 -5 -6 -7 -8 -9 -10
leaf_value=-0.0057935208374092989 -7.7064130226211721e-06 7.6220369712494125e-05 0.000369021159083777 -0.00047667462481125103 9.5216363922681179e-05 -8.3295731131998414e-06 -0.00031152921939764112 -0.00036013965441773977 -0.00097776533670530233
leaf_weight=110 10.000000000000002 12.000000000000002 11.999999999999998 9.9999999999999982 9.9999999999999982 14.999999999999998 10.999999999999998 14.999999999999998 10.999999999999998
leaf_count=110 10 12 12 10 10 15 11 15 11
internal_value=-0.00106482 0.00452381 0.00771186 0.00457447 0.00716216 0.00240741 -0.00462121 -0.003 -0.005
internal_weight=216 84 59 47 37 27 132 25 121
internal_count=216 84 59 47 37 27 132 25 121
is_linear=0
shrinkage=0.05


Tree=73
num_leaves=8
num_cat=0
split_feature=4 16 0 6 1 4 0
split_gain=1.56353 1.35758 0.623077 1.86923 0.194872 0.566667 2.22045e-16
threshold=5.3581239208339628 101.76225753125114 4.9658271776291949 4.8559611074819324 5.0940801259407058 5.2243979270871046 4.918809255665626
decision_type=2 2 2 2 2 2 2
left_child=2 -2 6 -4 -5 -6 -1
right_child=1 -3 3 4 5 -7 -8
leaf_value=-0.0065697031718967014 0.00038881713765182138 -2.6096608359870041e-05 8.4353647478792665e-05 -9.6564536338297443e-05 8.0924245273378715e-05 -3.1618603917199602e-05 -0.0023178601391960272
leaf_weight=105 10.000000000000002 10.999999999999998 12.999999999999998 38 10.000000000000002 17 11.999999999999998
leaf_count=105 10 11 13 38 10 17 12
internal_value=-0.0012963 0.0116667 -0.00269231 0.00076923 -0.00269231 0.000555554 -0.005
internal_weight=216 21 195 78 65 27 117
internal_count=216 21 195 78 65 27 117
is_linear=0
shrinkage=0.05


Tree=74
num_leaves=7
num_cat=0
split_feature=15 2 5 6 0 8
split_gain=1.61642 0.783582 2.5186 0.52427 0.544662 0.0830508
threshold=0.26508435492678062 5.0117269929809298 4.9346090099105302 5.2494536302364745 5.3795457716172521 4.5736025557963247
decision_type=2 2 2 2 2 2
left_child=1 -1 -3 5 -5 -4
right_child=-2 2 3 4 -6 -7
leaf_value=-0.0053736844779480493 0.00032475465463888684 0.00028138430278302242 2.1398068908223475e-06 5.2691826076935861e-05 -0.00022493386881554077 -0.00022638394038771673
leaf_weight=105 14.999999999999998 9.9999999999999982 9.9999999999999982 17.000000000000004 9.9999999999999982 49
leaf_count=105 15 10 10 17 10 49
internal_value=-0.000833335 -0.00201493 0.00125 -0.00151163 0.00425926 -0.00415254
internal_weight=216 201 96 86 27 59
internal_count=216 201 96 86 27 59
is_linear=0
shrinkage=0.05


Tree=75
num_leaves=6
num_cat=0
split_feature=5 19 19 13 12
split_gain=1.27315 0.629314 0.55162 0.357116 0.338159
threshold=5.3716785934967941 2.5000000000000004 49.500000000000007 4.6003314120216849 5.30669518734988
decision_type=2 2 2 2 2
left_child=1 -1 3 -3 -5
right_child=-2 2 -4 4 -6
leaf_value=8.5045140848330459e-05 0.00030214233229879881 1.5841029296988338e-05 1.8163083605637589e-05 -0.00057721531067352386 1.6019949648491857e-06
leaf_weight=9.9999999999999982 18 19 11.999999999999998 146 10.999999999999998
leaf_count=10 18 19 12 146 11
internal_value=-0.00106482 -0.00222222 -0.00287234 -0.00357955 -0.00436306
internal_weight=216 198 188 176 157
internal_count=216 198 188 176 157
is_linear=0
shrinkage=0.05


Tree=76
num_leaves=9
num_cat=0
split_feature=20 13 16 6 14 14 5 7
split_gain=2.67853 1.12253 1.42917 0.622222 0.60791 0.67184 0.45 0.0615385
threshold=3.5000000000000004 4.5139567313763136 100.99612036046769 4.9754488699832642 4.9598920279229022 5.0614323357854198 5.2407066905297448 4.9106615557142108
decision_type=2 2 2 2 2 2 2 2
left_child=1 -1 3 -3 -2 -6 -4 -7
right_child=4 2 6 -5 5 7 -8 -9
leaf_value=-0.00094795550843109117 -0.0035685251110780455 8.0792883805894092e-05 2.8957522105990034e-05 0.00028703521568387798 5.0768461048309704e-05 -0.00084501148204523804 -0.00023576603941139536 -0.0031724317857345372
leaf_weight=10.999999999999998 114 10.000000000000002 10.000000000000002 18 17 10.000000000000002 9.9999999999999982 15.999999999999998
leaf_count=11 114 10 10 18 17 10 10 16
internal_value=0.000324073 0.00940678 0.0127083 0.02 -0.00308917 0.00197674 0.0025 -0.00307692
internal_weight=216 59 48 28 157 43 20 26
internal_count=216 59 48 28 157 43 20 26
is_linear=0
shrinkage=0.05


Tree=77
num_leaves=8
num_cat=0
split_feature=20 16 13 19 2 12 1
split_gain=2.8168 1.21322 1.42912 0.618351 0.523094 0.280106 0.209524
threshold=3.5000000000000004 100.78634668152849 4.5629374691998956 49.500000000000007 5.3043383370368096 5.320070970407567 5.1989324127274958
decision_type=2 2 2 2 2 2 2
left_child=1 2 -1 5 -4 -2 -3
right_child=3 6 4 -5 -6 -7 -8
leaf_value=-0.00029044729092782398 -0.0029432643432250293 2.7509646000669547e-05 7.6753239615581759e-05 5.2620630897577393e-05 0.00027480831810239455 1.8410451568765967e-05 -0.00030306787020848781
leaf_weight=10.999999999999998 132 10.000000000000002 10.000000000000002 11.999999999999998 17 12.999999999999998 10.999999999999998
leaf_count=11 132 10 10 12 17 13 11
internal_value=9.25914e-05 0.00940678 0.0147368 -0.00340764 0.0209259 -0.00431035 -0.000238096
internal_weight=216 59 38 157 27 145 21
internal_count=216 59 38 157 27 145 21
is_linear=0
shrinkage=0.05


Tree=78
num_leaves=7
num_cat=0
split_feature=1 11 5 10 19 19
split_gain=2.2567 1.66988 0.990991 0.890646 0.649482 0.687931
threshold=5.0437568323994535 5.2155334239918476 5.3840083387864253 5.0968479168046077 3.5000000000000004 49.500000000000007
decision_type=2 2 2 2 2 2
left_child=4 3 -3 -2 -1 -6
right_child=1 2 -4 -5 5 -7
leaf_value=6.6192787405463686e-05 5.9858169354396536e-05 -2.7260584685410419e-05 0.00026531762860269588 2.0059578711896501e-05 -0.0022934272747766999 4.998959935267998e-05
leaf_weight=10.999999999999998 12.000000000000002 22 14.999999999999998 10.999999999999998 133 11.999999999999998
leaf_count=11 12 22 15 11 133 12
internal_value=9.25914e-05 0.00833333 0.00175676 0.018913 -0.00307692 -0.00396552
internal_weight=216 60 37 23 156 145
internal_count=216 60 37 23 156 145
is_linear=0
shrinkage=0.05


Tree=79
num_leaves=9
num_cat=0
split_feature=0 6 14 16 1 9 0 0
split_gain=2.25641 1.76611 1.38959 0.699592 0.219298 1.1 0.188034 5.55112e-17
threshold=4.9658271776291949 5.0082927177957126 5.0400622161995132 99.619210784340183 5.0940801259407058 4.565094606554001 4.8820297365906606 5.1053530350480516
decision_type=2 2 2 2 2 2 2 2
left_child=6 3 4 -2 7 -6 -1 -3
right_child=1 2 -4 -5 5 -7 -8 -9
leaf_value=-0.0061997149906506174 4.8330665178122266e-06 -0.003130953839292207 0.00024567715756445516 0.00010997334335964092 5.4087726780292523e-05 -5.2769036736690793e-05 -0.00037241931748094721 -0.00025727949965532576
leaf_weight=99 11.000000000000002 15.000000000000002 18 12.999999999999998 9.9999999999999982 22 18 9.9999999999999982
leaf_count=99 11 15 18 13 10 22 18 10
internal_value=0.000555554 0.00611111 0.00233333 0.0179167 -0.00149123 0.00125 -0.0041453 -0.005
internal_weight=216 99 75 24 57 32 117 25
internal_count=216 99 75 24 57 32 117 25
is_linear=0
shrinkage=0.05


Tree=80
num_leaves=8
num_cat=0
split_feature=0 7 14 9 15 1 9
split_gain=2.07229 2.15641 1.22077 2.56667 0.816667 0.252964 1.11515
threshold=4.8820297365906606 4.6946862182847431 5.0400622161995132 5.0771121254584939 0.23430528738347642 5.0940801259407058 4.565094606554001
decision_type=2 2 2 2 2 2 2
left_child=-1 4 5 -4 -2 -3 -7
right_child=1 2 3 -5 -6 6 -8
leaf_value=-0.0058897292411181018 0.00013196977270463382 -0.0015316721166265667 0.00028438951542471123 -0.00082437433505590002 7.1220235773857631e-05 5.138334044128947e-05 -2.6164711717322134e-05
leaf_weight=99 15.000000000000002 36 10.000000000000002 10.999999999999998 11.999999999999998 9.9999999999999982 23
leaf_count=99 15 36 10 11 12 10 23
internal_value=0.000324073 0.00482906 0.00111111 0.0116667 0.0172222 -0.00210145 0.0010606
internal_weight=216 117 90 21 27 69 33
internal_count=216 117 90 21 27 69 33
is_linear=0
shrinkage=0.05


Tree=81
num_leaves=10
num_cat=0
split_feature=2 9 9 13 19 9 1 8 1
split_gain=1.88366 0.905357 1.8 1.0016 0.303719 0.279837 0.872727 0.0917355 0.0666667
threshold=5.1239445614969856 4.9400772878867363 5.0495917267185773 4.604938285981218 49.500000000000007 4.565094606554001 5.0825483535955147 4.5289776256112484 5.1876938917853108
decision_type=2 2 2 2 2 2 2 2 2
left_child=4 3 -3 -2 7 6 -5 -1 -7
right_child=1 2 -4 5 -6 8 -8 -9 -10
leaf_value=9.5018512362848218e-06 8.9430304601341155e-05 0.00027017003965346245 -0.00050185659634590317 -0.0016353781593138447 2.1908794676268831e-05 6.8167123618266505e-06 3.0842458464120963e-05 -0.0049321051985729766 -4.5195725925133837e-05
leaf_weight=9.9999999999999982 11.999999999999998 10.000000000000002 9.9999999999999982 12.000000000000002 10.999999999999998 10.000000000000002 9.9999999999999982 111 20
leaf_count=10 12 10 10 12 11 10 10 111 20
internal_value=-0.00013889 0.00571428 0.015 0.0028125 -0.00386364 -0.000192309 0.00409091 -0.00458678 -0.00333333
internal_weight=216 84 20 64 132 52 22 121 30
internal_count=216 84 20 64 132 52 22 121 30
is_linear=0
shrinkage=0.05


Tree=82
num_leaves=9
num_cat=0
split_feature=2 9 13 19 9 1 8 1
split_gain=1.65681 0.934414 1.04534 0.303719 0.30303 0.872727 0.0917355 0.069697
threshold=5.1239445614969856 4.9596064167249656 4.604938285981218 49.500000000000007 4.565094606554001 5.0825483535955147 4.5289776256112484 5.1816938998639879
decision_type=2 2 2 2 2 2 2 2
left_child=3 2 -2 6 5 -4 -1 -6
right_child=1 -3 4 -5 7 -7 -8 -9
leaf_value=9.0267586744601688e-06 8.4958789371254446e-05 0.00020779018513500543 -0.001553609251348149 2.0813354942457399e-05 6.4758767437421391e-06 2.930033554089499e-05 -0.004685499938644342 -2.2596689835194456e-05
leaf_weight=9.9999999999999982 11.999999999999998 17 12.000000000000002 10.999999999999998 9.9999999999999982 9.9999999999999982 111 23
leaf_count=10 12 17 12 11 10 10 111 23
internal_value=-0.000370372 0.00511905 0.00246269 -0.00386364 -0.000454547 0.00409091 -0.00458678 -0.00348485
internal_weight=216 84 67 132 55 22 121 33
internal_count=216 84 67 132 55 22 121 33
is_linear=0
shrinkage=0.05


Tree=83
num_leaves=9
num_cat=0
split_feature=2 3 9 19 13 13 7 16
split_gain=1.73761 0.83118 0.658989 0.487335 0.430057 0.221001 0.091453 0.069697
threshold=5.1239445614969856 11.500000000000002 4.9596064167249656 48.500000000000007 4.6282517422152845 5.1349607786467857 4.4137352225724911 96.603962191766044
decision_type=2 2 2 2 2 2 2 2
left_child=3 2 4 6 -2 7 -1 -6
right_child=1 -3 -4 -5 5 -7 -8 -9
leaf_value=-0.00045853099932944235 8.3659360493098893e-05 4.3521603583487043e-05 0.00015079616613050719 3.8920453944767586e-05 -9.8924040506358444e-06 6.5443157363934834e-05 -0.0046692849511602132 -6.8043262211330366e-05
leaf_weight=9.9999999999999982 9.9999999999999982 17 13.999999999999998 14.999999999999998 9.9999999999999982 9.9999999999999982 107 23
leaf_count=10 10 17 14 15 10 10 107 23
internal_value=9.25914e-05 0.00571428 0.00320895 -0.00348485 0.000660376 -0.00151163 -0.00457265 -0.00348485
internal_weight=216 84 67 132 53 43 117 33
internal_count=216 84 67 132 53 43 117 33
is_linear=0
shrinkage=0.05


Tree=84
num_leaves=8
num_cat=0
split_feature=0 6 4 3 14 9 19
split_gain=1.53859 1.4934 1.25784 1.37303 0.646471 0.305357 0.0808081
threshold=4.8820297365906606 4.8559611074819324 5.1562040976401331 11.500000000000002 5.0400622161995132 4.565094606554001 48.500000000000007
decision_type=2 2 2 2 2 2 2
left_child=6 -2 -3 4 5 -4 -1
right_child=1 2 3 -5 -6 -7 -8
leaf_value=-0.0077967250371362429 0.00018308439098757548 -0.0013337192539439294 1.8261984962670185e-05 5.9847322247941023e-05 0.00018136140127355535 -3.6833195254982516e-05 -0.0013488090278878692
leaf_weight=88 18 42 15.999999999999998 10.999999999999998 10.999999999999998 19 10.999999999999998
leaf_count=88 18 42 16 11 11 19 11
internal_value=9.25914e-05 0.00397436 0.00156566 0.00640351 0.00260869 -0.000714287 -0.00449495
internal_weight=216 117 99 57 46 35 99
internal_count=216 117 99 57 46 35 99
is_linear=0
shrinkage=0.05


Tree=85
num_leaves=8
num_cat=0
split_feature=20 3 17 9 19 16 2
split_gain=2.07996 1.19112 0.92569 1.12821 2.05967 0.524845 0.441176
threshold=3.5000000000000004 12.500000000000002 255.38477493800303 5.1589540584738449 23.500000000000004 98.541672350456807 5.3043383370368096
decision_type=2 2 2 2 2 2 2
left_child=1 5 -2 4 -4 -1 -7
right_child=2 -3 3 -5 -6 6 -8
leaf_value=0.00013996512570864643 -0.002715103524765939 0.00019498100484075466 -3.1592667257470582e-05 -0.0021442939327482712 0.0001171797853786645 3.3896378289549569e-05 -0.00020829976954920743
leaf_weight=13.999999999999998 109 12.999999999999998 15.000000000000002 22 10.999999999999998 17 14.999999999999998
leaf_count=14 109 13 15 22 11 17 15
internal_value=0.000555554 0.00855932 -0.00245223 0.00333333 0.0103846 0.00478261 0.00125
internal_weight=216 59 157 48 26 46 32
internal_count=216 59 157 48 26 46 32
is_linear=0
shrinkage=0.05


Tree=86
num_leaves=8
num_cat=0
split_feature=8 0 15 8 15 12 6
split_gain=2.29507 2.05698 1.48754 0.392391 0.368652 1.00862 0.0916667
threshold=4.7429060090122661 4.8820297365906606 0.17171905661889589 5.3504190403339607 0.26508435492678062 4.9374521840033134 4.602841074716685
decision_type=2 2 2 2 2 2 2
left_child=1 -1 -3 6 5 -4 -2
right_child=3 2 4 -5 -6 -7 -8
leaf_value=-0.0024962916160029469 -0.0024371344107490382 0.00038040765839727174 5.1512132476735071e-05 4.5772804412933801e-05 0.0001832574476011104 -4.7533712154387978e-05 -0.001932421110026067
leaf_weight=24 9.9999999999999982 9.9999999999999982 16.000000000000004 18 14.999999999999998 12.999999999999998 110
leaf_count=24 10 10 16 18 15 13 110
internal_value=0.000324073 0.00717949 0.0125926 -0.00355073 0.00863636 0.00534483 -0.00458333
internal_weight=216 78 54 138 44 29 120
internal_count=216 78 54 138 44 29 120
is_linear=0
shrinkage=0.05


Tree=87
num_leaves=9
num_cat=0
split_feature=10 7 5 19 3 19 11 0
split_gain=1.94676 1.00278 1.08651 0.606692 0.419048 0.236364 0.2 2.22045e-16
threshold=4.958101224262907 4.6946862182847431 5.3716785934967941 4.5000000000000009 7.5000000000000009 48.500000000000007 5.2023700695001276 5.0264982234204885
decision_type=2 2 2 2 2 2 2 2
left_child=3 -2 4 -1 -3 7 -6 -5
right_child=1 2 -4 5 6 -7 -8 -9
leaf_value=0.00012097907934908773 5.3754374486871384e-05 -6.6535541327821936e-05 0.00016511339355485455 -0.0041873476942821597 2.4855185734058777e-05 0.00013342383156092158 -2.265380933117974e-06 -0.0013750980786230978
leaf_weight=11.999999999999998 11.999999999999998 22 18 106 10.000000000000002 14.999999999999998 9.9999999999999982 10.999999999999998
leaf_count=12 12 22 18 106 10 15 10 11
internal_value=9.25914e-05 0.00680555 0.00416667 -0.00326389 -0.000238096 -0.00424243 0.005 -0.005
internal_weight=216 72 60 144 42 132 20 117
internal_count=216 72 60 144 42 132 20 117
is_linear=0
shrinkage=0.05


Tree=88
num_leaves=8
num_cat=0
split_feature=10 6 5 19 19 3 1
split_gain=2.08333 1.08621 1.03602 0.568182 0.405502 0.4 0.2
threshold=4.958101224262907 5.0082927177957126 5.3716785934967941 4.5000000000000009 47.500000000000007 7.5000000000000009 5.116299540650469
decision_type=2 2 2 2 2 2 2
left_child=3 -2 5 -1 -5 -3 -7
right_child=1 2 -4 4 -6 6 -8
leaf_value=0.00011493012538163532 4.8657731445544058e-05 -0.00015046061141304855 0.0001568577238771065 -0.0023624160772713889 4.558633002905862e-05 3.8816756775549293e-05 -8.6618466707870257e-06
leaf_weight=11.999999999999998 13.999999999999998 20 18 113 19 10.000000000000002 9.9999999999999982
leaf_count=12 14 20 18 113 19 10 10
internal_value=0.000555554 0.0075 0.00448276 -0.00291667 -0.00386364 -1.19209e-09 0.005
internal_weight=216 72 58 144 132 40 20
internal_count=216 72 58 144 132 40 20
is_linear=0
shrinkage=0.05


Tree=89
num_leaves=9
num_cat=0
split_feature=10 7 5 19 3 19 1 0
split_gain=1.94676 1.00278 1.08651 0.606692 0.419048 0.236364 0.2 2.22045e-16
threshold=4.958101224262907 4.6946862182847431 5.3716785934967941 4.5000000000000009 7.5000000000000009 48.500000000000007 5.116299540650469 5.0264982234204885
decision_type=2 2 2 2 2 2 2 2
left_child=3 -2 4 -1 -3 7 -6 -5
right_child=1 2 -4 5 6 -7 -8 -9
leaf_value=0.00010918361911253553 4.8633769190244552e-05 -5.5685733690785243e-05 0.0001490148376832414 -0.0038598595057044976 3.6875918936750683e-05 0.00012447332348142443 -8.2287543372354266e-06 -0.0011882223708283997
leaf_weight=11.999999999999998 11.999999999999998 22 18 106 10.000000000000002 14.999999999999998 9.9999999999999982 10.999999999999998
leaf_count=12 12 22 18 106 10 15 10 11
internal_value=9.25914e-05 0.00680555 0.00416667 -0.00326389 -0.000238096 -0.00424243 0.005 -0.005
internal_weight=216 72 60 144 42 132 20 117
internal_count=216 72 60 144 42 132 20 117
is_linear=0
shrinkage=0.05


Tree=90
num_leaves=8
num_cat=0
split_feature=10 9 10 2 19 9 19
split_gain=1.81481 0.69948 0.744614 0.89257 0.568182 0.471429 0.405502
threshold=4.958101224262907 4.4668244673220352 5.2230612464906949 5.2872399622648212 4.5000000000000009 4.7902545589663204 47.500000000000007
decision_type=2 2 2 2 2 2 2
left_child=4 -2 3 -3 -1 -4 -6
right_child=1 2 5 -5 6 -7 -8
leaf_value=0.00010372443815688851 -8.4007143385860579e-06 2.1320437230604277e-05 -3.9808790944057858e-05 5.0206657281137781e-05 -0.0020872563762295549 0.00019777349979677712 0.00019645674601546958
leaf_weight=11.999999999999998 17 14.999999999999998 11.000000000000002 19 113 9.9999999999999982 19
leaf_count=12 17 15 11 19 113 10 19
internal_value=0.000324073 0.00680555 0.00954545 0.0141176 -0.00291667 0.00214286 -0.00386364
internal_weight=216 72 55 34 144 21 132
internal_count=216 72 55 34 144 21 132
is_linear=0
shrinkage=0.05


Tree=91
num_leaves=8
num_cat=0
split_feature=5 7 5 13 12 8 8
split_gain=1.67045 0.833492 1.60749 0.729798 0.415584 0.272113 0.091453
threshold=5.3716785934967941 4.7233821603986614 4.6408062721757117 4.5406060642293591 4.7271961650311436 5.3840083387864253 4.5736025557963247
decision_type=2 2 2 2 2 2 2
left_child=1 2 -1 -4 -5 6 -3
right_child=-2 5 3 4 -6 -7 -8
leaf_value=-0.0051945419285592109 0.00013167542080923432 4.7403259751027447e-07 -2.5575016937332239e-08 0.00020818050573930691 3.1360238661230398e-05 2.7264849494537785e-05 -0.0013179661451727619
leaf_weight=33 18 9.9999999999999982 10.999999999999998 11.000000000000002 13.999999999999998 11.999999999999998 107
leaf_count=33 18 10 11 11 14 12 107
internal_value=-0.00013889 -0.00146465 0.00297101 0.0102778 0.015 -0.00383721 -0.00457265
internal_weight=216 198 69 36 25 129 117
internal_count=216 198 69 36 25 129 117
is_linear=0
shrinkage=0.05


Tree=92
num_leaves=9
num_cat=0
split_feature=5 21 0 13 14 19 0 0
split_gain=1.61785 0.825451 0.889499 1.45376 0.639638 0.850984 0.270968 2.77556e-17
threshold=5.3716785934967941 1.5000000000000002 5.2326237074400019 4.5406060642293591 4.9486966065526738 47.500000000000007 5.1317483689065426 4.836388101131841
decision_type=2 2 2 2 2 2 2 2
left_child=1 2 3 -1 -3 6 7 -6
right_child=-2 4 -4 -5 5 -7 -8 -9
leaf_value=-5.6712927310542347e-05 0.00012509164976875396 -0.0019769434378268925 -4.3493264388483217e-06 7.2987150850406288e-05 -0.0056683622214883196 0.00036539974570736107 3.2458427863291204e-05 -0.0015540274753052651
leaf_weight=15.000000000000002 18 110 15.999999999999998 15.999999999999998 11.000000000000005 9.9999999999999982 9.9999999999999982 9.9999999999999982
leaf_count=15 18 110 16 16 11 10 10 10
internal_value=9.25914e-05 -0.00121212 0.00457447 0.00951613 -0.00301325 0.00231707 -0.00177419 -0.005
internal_weight=216 198 47 31 151 41 31 21
internal_count=216 198 47 31 151 41 31 21
is_linear=0
shrinkage=0.05


Tree=93
num_leaves=8
num_cat=0
split_feature=0 3 5 1 19 19 0
split_gain=2.16971 0.692641 0.683194 0.886824 0.575217 0.384783 0.45
threshold=5.1281815342486059 12.500000000000002 5.3504190403339607 5.116299540650469 4.5000000000000009 47.500000000000007 4.7469970318163011
decision_type=2 2 2 2 2 2 2
left_child=4 2 3 -2 -1 -6 -7
right_child=1 -3 -4 -5 5 6 -8
leaf_value=8.6169368645142767e-05 3.3376743654440999e-05 5.8047666142964068e-05 6.3857003689477565e-05 -6.6060248084253572e-06 -0.001900665628812363 -0.0047763807819620205 0.00034712975842200353
leaf_weight=11.999999999999998 15.999999999999998 9.9999999999999982 19 21 118 10.000000000000002 9.9999999999999982
leaf_count=12 16 10 19 21 118 10 10
internal_value=0.000324073 0.00787879 0.00571428 0.00175676 -0.003 -0.00391304 0.0025
internal_weight=216 66 56 37 150 138 20
internal_count=216 66 56 37 150 138 20
is_linear=0
shrinkage=0.05


Tree=94
num_leaves=10
num_cat=0
split_feature=0 5 1 16 19 9 19 0 2
split_gain=1.87805 0.591053 0.952778 0.916017 0.575217 0.530303 0.384783 0.45 0.0583333
threshold=5.1281815342486059 5.3504190403339607 5.116299540650469 102.12252743772315 4.5000000000000009 4.4514448221652723 47.500000000000007 4.7469970318163011 5.3119204852472839
decision_type=2 2 2 2 2 2 2 2 2
left_child=4 2 5 -3 -1 -2 -6 -8 -4
right_child=1 3 8 -5 6 -7 7 -9 -10
leaf_value=8.1860900212896907e-05 1.3542178624277992e-05 0.00017211504134548463 1.530467111496845e-06 2.7573980108705875e-06 -0.0018056323473717368 3.6246316980191293e-05 -0.0045375617428639169 0.00032977327050088721 -1.6237130127347575e-05
leaf_weight=11.999999999999998 11.000000000000002 10.000000000000002 10.000000000000002 10.999999999999998 118 9.9999999999999982 10.000000000000002 9.9999999999999982 13.999999999999998
leaf_count=12 11 10 10 11 118 10 10 10 14
internal_value=9.25914e-05 0.00712121 0.00388889 0.0140476 -0.003 0.0116667 -0.00391304 0.0025 -0.00291667
internal_weight=216 66 45 21 150 21 138 20 24
internal_count=216 66 45 21 150 21 138 20 24
is_linear=0
shrinkage=0.05


Tree=95
num_leaves=10
num_cat=0
split_feature=20 14 1 1 7 14 9 1 9
split_gain=1.74046 0.879187 0.809401 1.45523 0.860215 0.431185 0.495372 0.0615385 0.06
threshold=4.5000000000000009 5.018437225614325 5.1816938998639879 5.0751710478742824 4.526474442296796 4.9486966065526738 5.130180751063393 4.71389972201374 4.6408062721757117
decision_type=2 2 2 2 2 2 2 2 2
left_child=1 2 3 4 -1 -2 -7 -8 -4
right_child=5 -3 8 -5 -6 6 7 -9 -10
leaf_value=6.7347432532693179e-05 -0.0022132019715773842 0.00016350928927821463 3.0442793621561904e-06 2.9159541699184532e-05 -8.3482540193942812e-05 0.00010836557327062522 -0.0026270236122477213 -0.00093877705335182547 -1.8745743775537976e-05
leaf_weight=15.000000000000002 99 9.9999999999999982 10.000000000000002 9.9999999999999982 15.999999999999998 14.999999999999998 10.000000000000002 15.999999999999998 14.999999999999998
leaf_count=15 99 10 10 10 16 15 10 16 15
internal_value=9.25914e-05 0.00618421 0.00409091 0.00841463 0.00306451 -0.00321429 0.00109756 -0.00307692 -0.003
internal_weight=216 76 66 41 31 140 41 26 25
internal_count=216 76 66 41 31 140 41 26 25
is_linear=0
shrinkage=0.05


Tree=96
num_leaves=11
num_cat=0
split_feature=20 3 15 17 13 8 1 0 0 0
split_gain=2.20201 1.19112 0.524845 0.518407 0.694314 0.371011 0.227273 0.256061 5.55112e-17 2.77556e-17
threshold=3.5000000000000004 12.500000000000002 0.25544594735760645 253.44647929860392 4.9341851684789146 5.3504190403339607 5.2756653160839386 5.1671367132770945 5.0495917267185773 4.8576889620982682
decision_type=2 2 2 2 2 2 2 2 2 2
left_child=1 2 6 -2 -5 8 7 -1 9 -6
right_child=3 -3 -4 4 5 -7 -8 -9 -10 -11
leaf_value=-4.8230418749038338e-05 -0.0033924881778083929 0.00011167601526204028 7.5828478877113317e-05 0.00024704754742133203 -0.0061838006128482354 1.3529383455508808e-05 -0.00014469739914371946 1.430702947646351e-05 -0.00056680764738652829 -0.0030382837963051075
leaf_weight=12.000000000000002 98 12.999999999999998 13.999999999999998 11.999999999999998 11.000000000000005 15.999999999999998 9.9999999999999982 9.9999999999999982 9.9999999999999982 9.9999999999999982
leaf_count=12 98 13 14 12 11 16 10 10 10 10
internal_value=0.000324073 0.00855932 0.00478261 -0.0027707 0.000932202 -0.00180851 0.00125 0.00409091 -0.005 -0.005
internal_weight=216 59 46 157 59 47 32 22 31 21
internal_count=216 59 46 157 59 47 32 22 31 21
is_linear=0
shrinkage=0.05


Tree=97
num_leaves=8
num_cat=0
split_feature=20 3 14 15 15 9 9
split_gain=1.59247 0.838501 0.753115 0.784783 0.67566 0.3125 0.21875
threshold=3.5000000000000004 12.500000000000002 4.9486966065526738 0.072923297456106498 0.25544594735760645 5.130180751063393 4.7302808833498711
decision_type=2 2 2 2 2 2 2
left_child=1 4 -2 -4 6 -5 -1
right_child=2 -3 3 5 -6 -7 -8
leaf_value=1.939155215260473e-05 -0.0015111540645849225 0.00010609221449894211 0.00013975339290441517 3.2404101271525329e-05 7.2037054933246972e-05 -0.0011093346330275705 -4.6489442100519823e-05
leaf_weight=18 111 12.999999999999998 9.9999999999999982 15.999999999999998 13.999999999999998 20 13.999999999999998
leaf_count=18 111 13 10 16 14 20 14
internal_value=-0.00013889 0.00686441 -0.0027707 0.00260869 0.00369565 -0.000833335 -0.000312501
internal_weight=216 59 157 46 46 36 32
internal_count=216 59 157 46 46 36 32
is_linear=0
shrinkage=0.05


Tree=98
num_leaves=9
num_cat=0
split_feature=20 11 6 13 19 0 4 3
split_gain=2.11362 0.741228 0.907981 0.962758 0.57619 0.8 0.366667 0.262069
threshold=4.5000000000000009 5.3440764288227527 5.0082927177957126 4.5139567313763136 47.500000000000007 4.7469970318163011 5.1562040976401331 10.500000000000002
decision_type=2 2 2 2 2 2 2 2
left_child=1 2 3 -1 6 -6 -2 -4
right_child=4 -3 7 -5 5 -7 -8 -9
leaf_value=-7.4825656627274195e-06 -0.002012484347850283 8.7835064443339271e-05 -0.00018762193492951381 5.3203369300806636e-05 -0.0039741670321074172 0.00039587255772330788 1.9639400538540384e-05 1.2053842474413704e-05
leaf_weight=11.000000000000002 110 19 19.000000000000004 17 10.000000000000002 9.9999999999999982 9.9999999999999982 9.9999999999999982
leaf_count=11 110 19 19 17 10 10 10 10
internal_value=0.000787036 0.0075 0.00464912 0.0110714 -0.00285714 0.005 -0.00416667 -0.00155173
internal_weight=216 76 57 28 140 20 120 29
internal_count=216 76 57 28 140 20 120 29
is_linear=0
shrinkage=0.05


Tree=99
num_leaves=11
num_cat=0
split_feature=0 6 5 16 4 1 2 5 0 0
split_gain=1.66825 1.4804 0.987072 1.35758 0.284608 1.09127 0.173077 0.65 5.55112e-17 5.55112e-17
threshold=4.9658271776291949 4.9125209055188757 5.3504190403339607 102.12252743772315 5.1562040976401331 5.116299540650469 4.8928266665572471 4.7732624286883851 5.0609924569236284 4.918809255665626
decision_type=2 2 2 2 2 2 2 2 2 2
left_child=6 -2 4 -4 8 -6 -1 -8 -3 -9
right_child=1 2 3 -5 5 -7 7 9 -10 -11
leaf_value=-0.0066159145960677295 7.5810852452421878e-05 -0.00082296923364516984 0.00014040317283389321 -4.1470771097605716e-06 2.7466785500458102e-05 -1.4844638968227503e-05 0.0001129720953730399 -0.0049897863560678882 -0.00091776227218615884 -0.0012231481458906714
leaf_weight=81 17 15.000000000000002 10.000000000000002 10.999999999999998 13.999999999999998 22 9.9999999999999982 15.000000000000002 9.9999999999999982 10.999999999999998
leaf_count=81 17 15 10 11 14 22 10 15 10 11
internal_value=0.000324073 0.00510101 0.00231707 0.0116667 -0.000901641 0.00194444 -0.00371795 -0.000833335 -0.005 -0.005
internal_weight=216 99 82 21 61 36 117 36 25 26
internal_count=216 99 82 21 61 36 117 36 25 26
is_linear=0
shrinkage=0.05


Tree=100
num_leaves=8
num_cat=0
split_feature=19 14 9 3 16 1 8
split_gain=1.91441 0.808454 0.820465 0.562169 0.925926 0.54 0.496732
threshold=15.500000000000002 4.9486966065526738 5.2506875749223321 12.500000000000002 98.541672350456807 5.0940801259407058 4.5736025557963247
decision_type=2 2 2 2 2 2 2
left_child=3 -2 5 4 -1 -3 -6
right_child=1 2 -4 -5 6 -7 -8
leaf_value=5.8172822174203818e-05 -0.0017855751489628429 0.00016666209070999798 -0.0028723075509870292 8.6089864551756258e-05 2.2024953063040913e-05 -2.3845124301726806e-06 -0.00011946242385645214
leaf_weight=18 105 15.000000000000002 18 13.999999999999998 17 9.9999999999999982 19
leaf_count=18 105 15 18 14 17 10 19
internal_value=0.000555554 -0.00263514 0.00313953 0.0075 0.00518518 0.009 0.000555554
internal_weight=216 148 43 68 54 25 36
internal_count=216 148 43 68 54 25 36
is_linear=0
shrinkage=0.05


Tree=101
num_leaves=13
num_cat=0
split_feature=0 6 5 16 16 0 2 5 9 0 0 0
split_gain=1.48265 1.59385 1.12002 1.35758 0.191276 0.38961 0.173077 0.65 0.075 5.55112e-17 5.55112e-17 2.77556e-17
threshold=4.9658271776291949 4.9125209055188757 5.3504190403339607 102.12252743772315 103.656467051584 5.1317483689065426 4.8928266665572471 4.7732624286883851 4.392340889254152 4.918809255665626 5.2525154641931158 5.1722122452408756
decision_type=2 2 2 2 2 2 2 2 2 2 2 2
left_child=6 -2 4 -4 8 -6 -1 -8 -3 -9 11 -10
right_child=1 2 3 -5 5 -7 7 9 10 -11 -12 -13
leaf_value=-0.0061958401088162097 6.9637765168804224e-05 -0.00090640762417661547 0.0001292181058769805 -3.8204976327437076e-06 -0.0010511028611182704 2.6758444247223593e-05 9.8990386068883811e-05 -0.0046510182808163604 -0.00039517746227479486 -0.0010727120026962594 -1.3318886594655285e-05 -3.8041529545591728e-06
leaf_weight=81 17 9.9999999999999982 10.000000000000002 10.999999999999998 10.000000000000002 10.999999999999998 9.9999999999999982 15.000000000000002 10.000000000000005 10.999999999999998 9.9999999999999982 9.9999999999999982
leaf_count=81 17 10 10 11 10 11 10 15 10 11 10 10
internal_value=9.25914e-05 0.00459596 0.00170732 0.0116667 -0.00172131 0.00214286 -0.00371795 -0.000833335 -0.00375 -0.005 -0.005 -0.005
internal_weight=216 99 82 21 61 21 117 36 40 26 30 20
internal_count=216 99 82 21 61 21 117 36 40 26 30 20
is_linear=0
shrinkage=0.05


Tree=102
num_leaves=11
num_cat=0
split_feature=0 7 5 16 0 4 2 5 3 0
split_gain=1.48265 1.54672 0.950192 1.35758 0.245295 0.916316 0.173077 0.65 0.0677419 5.55112e-17
threshold=4.9658271776291949 4.5678045068450848 5.3504190403339607 102.12252743772315 5.2230612464906949 5.1562040976401331 4.8928266665572471 4.7732624286883851 6.5000000000000009 4.918809255665626
decision_type=2 2 2 2 2 2 2 2 2 2
left_child=6 -2 4 -4 5 8 -1 -8 -3 -9
right_child=1 2 3 -5 -6 -7 7 9 -10 -11
leaf_value=-0.0058860481033753973 0.00011598554151731899 -9.5427825676564466e-05 0.00012275720058314358 -3.6294727510975787e-06 -3.7326287115431748e-06 2.9781125166552881e-05 9.4040866765451677e-05 -0.0044184673667755636 -0.0001340760842979197 -0.0010190764025614324
leaf_weight=81 10.999999999999998 10.000000000000002 10.000000000000002 10.999999999999998 21 14.999999999999998 9.9999999999999982 15.000000000000002 21 10.999999999999998
leaf_count=81 11 10 10 11 21 15 10 15 21 11
internal_value=9.25914e-05 0.00459596 0.00238636 0.0116667 -0.000522389 0.00152174 -0.00371795 -0.000833335 -0.0033871 -0.005
internal_weight=216 99 88 21 67 46 117 36 31 26
internal_count=216 99 88 21 67 46 117 36 31 26
is_linear=0
shrinkage=0.05


Tree=103
num_leaves=11
num_cat=0
split_feature=0 6 5 6 3 8 2 5 8 0
split_gain=1.48265 1.08788 0.922063 0.530303 0.365965 0.253444 0.173077 0.65 0.0767442 5.55112e-17
threshold=4.9658271776291949 4.8559611074819324 5.3504190403339607 5.3969798286739215 12.500000000000002 5.3840083387864253 4.8928266665572471 4.7732624286883851 4.5289776256112484 4.918809255665626
decision_type=2 2 2 2 2 2 2 2 2 2
left_child=6 -2 4 -4 5 8 -1 -8 -3 -9
right_child=1 2 3 -5 -6 -7 7 9 -10 -11
leaf_value=-0.0055917456982066084 9.3576376239158508e-05 4.7452866063484787e-06 0.00011661934055397852 1.2104101157830449e-05 5.4129117525418653e-06 6.1240082303793722e-06 8.9338823427162289e-05 -0.0041975439984367757 -0.00041603896909390845 -0.00096812258243337993
leaf_weight=81 12.999999999999998 9.9999999999999982 10.000000000000002 10.999999999999998 11.999999999999998 9.9999999999999982 9.9999999999999982 15.000000000000002 33 10.999999999999998
leaf_count=81 13 10 10 11 12 10 10 15 33 11
internal_value=9.25914e-05 0.00459596 0.00255814 0.0116667 -0.000384617 -0.00216981 -0.00371795 -0.000833335 -0.00383721 -0.005
internal_weight=216 99 86 21 65 53 117 36 43 26
internal_count=216 99 86 21 65 53 117 36 43 26
is_linear=0
shrinkage=0.05


Tree=104
num_leaves=9
num_cat=0
split_feature=19 14 19 6 11 8 4 3
split_gain=1.78891 1.05594 1.28436 0.925556 0.834545 0.741107 0.477273 0.281271
threshold=15.500000000000002 4.9486966065526738 47.500000000000007 5.2418749115647758 5.1571065962725777 4.4264279555283581 5.1562040976401331 9.5000000000000018
decision_type=2 2 2 2 2 2 2 2
left_child=3 -2 6 4 5 7 -3 -1
right_child=1 2 -4 -5 -6 -7 -8 -9
leaf_value=1.7695603264089408e-05 -0.0016470397100922783 -0.0010019797476719732 0.00034818037446849529 6.0997319900736054e-05 -7.1860960521654557e-05 5.4139133696608375e-05 1.0652176494799026e-05 -1.5038117225264661e-05
leaf_weight=10.000000000000002 105 21 9.9999999999999982 18 17 9.9999999999999982 11.999999999999998 12.999999999999998
leaf_count=10 105 21 10 18 17 10 12 13
internal_value=0.000787036 -0.0022973 0.00430232 0.0075 0.004 0.00863636 -0.000454547 0.00369565
internal_weight=216 148 43 68 50 33 33 23
internal_count=216 148 43 68 50 33 33 23
is_linear=0
shrinkage=0.05


Tree=105
num_leaves=11
num_cat=0
split_feature=0 16 5 7 6 0 16 17 0 0
split_gain=1.68056 1.34565 1.24615 0.623077 1.36111 1.25 0.578571 0.156288 0.0004329 5.55112e-17
threshold=5.1671367132770945 100.99612036046769 5.3260538793188239 4.6408062721757117 4.5289776256112484 5.0000621162290981 103.656467051584 261.46030457549801 4.9615505867396914 4.5736025557963247
decision_type=2 2 2 2 2 2 2 2 2 2
left_child=3 2 -2 4 9 -6 -3 -5 -9 -1
right_child=1 6 -4 7 5 -7 -8 8 -10 -11
leaf_value=-0.0098206228358967418 1.1962108363690894e-05 -6.4481929273798992e-05 0.00010773850753122774 -0.0011344228804599284 0.00026644664309167284 1.506744448254998e-06 2.1585894021011014e-05 -0.00081801080919532043 -3.2506284900345296e-05 -0.00082907170908514153
leaf_weight=15.000000000000002 16.000000000000004 18.000000000000004 9.9999999999999982 96 10.000000000000002 9.9999999999999982 9.9999999999999982 10.000000000000002 10.999999999999998 9.9999999999999982
leaf_count=15 16 18 10 96 10 10 10 10 11 10
internal_value=0.000324073 0.00796296 0.0161538 -0.00222222 0.00277778 0.0125 0.000357142 -0.0041453 -0.000238096 -0.005
internal_weight=216 54 26 162 45 20 28 117 21 25
internal_count=216 54 26 162 45 20 28 117 21 25
is_linear=0
shrinkage=0.05


Tree=106
num_leaves=9
num_cat=0
split_feature=0 3 19 7 7 14 1 1
split_gain=1.58025 1.09537 0.808772 1.25 1.16497 0.408333 0.3 0.0923077
threshold=5.1671367132770945 10.500000000000002 47.500000000000007 4.5560926061386997 4.4362053606476959 4.8530260777262937 5.3003934827671353 5.0259549424059085
decision_type=2 2 2 2 2 2 2 2
left_child=2 5 4 -4 -1 -2 -7 -6
right_child=1 -3 3 -5 7 6 -8 -9
leaf_value=2.4012956894473923e-05 -2.4044849099885914e-06 3.7448036338550094e-05 -0.0024368379866301082 0.00036624962057833728 -0.00096281823851352777 2.0664929123281799e-05 -2.9095272926374221e-05 -2.738043949545902e-05
leaf_weight=11.999999999999998 9.9999999999999982 13.999999999999998 10.000000000000002 9.9999999999999982 120 15.000000000000002 14.999999999999998 9.9999999999999982
leaf_count=12 10 14 10 10 120 15 15 10
internal_value=0.000555554 0.00796296 -0.00191358 0.0075 -0.00323944 0.00375 0.00666667 -0.00461539
internal_weight=216 54 162 20 142 40 30 130
internal_count=216 54 162 20 142 40 30 130
is_linear=0
shrinkage=0.05


end of trees

feature_importances:
Column_19=109
Column_0=93
Column_1=47
Column_9=46
Column_14=40
Column_2=35
Column_13=34
Column_5=33
Column_16=31
Column_7=25
Column_15=24
Column_20=23
Column_3=19
Column_6=19
Column_8=18
Column_4=17
Column_10=14
Column_12=9
Column_11=6
Column_17=5
Column_21=1

parameters:
[boosting: gbdt]
[objective: quantile]
[metric: quantile]
[tree_learner: serial]
[device_type: cpu]
[data_sample_strategy: bagging]
[data: ]
[valid: ]
[num_iterations: 800]
[learning_rate: 0.05]
[num_leaves: 31]
[num_threads: 0]
[seed: 42]
[deterministic: 0]
[force_col_wise: 0]
[force_row_wise: 0]
[histogram_pool_size: -1]
[max_depth: -1]
[min_data_in_leaf: 10]
[min_sum_hessian_in_leaf: 0.001]
[bagging_fraction: 0.9]
[pos_bagging_fraction: 1]
[neg_bagging_fraction: 1]
[bagging_freq: 0]
[bagging_seed: 400]
[bagging_by_query: 0]
[feature_fraction: 0.9]
[feature_fraction_bynode: 1]
[feature_fraction_seed: 30056]
[extra_trees: 0]
[extra_seed: 12879]
[early_stopping_round: 0]
[early_stopping_min_delta: 0]
[first_metric_only: 0]
[max_delta_step: 0]
[lambda_l1: 0]
[lambda_l2: 0]
[linear_lambda: 0]
[min_gain_to_split: 0]
[drop_rate: 0.1]
[max_drop: 50]
[skip_drop: 0.5]
[xgboost_dart_mode: 0]
[uniform_drop: 0]
[drop_seed: 17869]
[top_rate: 0.2]
[other_rate: 0.1]
[min_data_per_group: 100]
[max_cat_threshold: 32]
[cat_l2: 10]
[cat_smooth: 10]
[max_cat_to_onehot: 4]
[top_k: 20]
[monotone_constraints: ]
[monotone_constraints_method: basic]
[monotone_penalty: 0]
[feature_contri: ]
[forcedsplits_filename: ]
[refit_decay_rate: 0.9]
[cegb_tradeoff: 1]
[cegb_penalty_split: 0]
[cegb_penalty_feature_lazy: ]
[cegb_penalty_feature_coupled: ]
[path_smooth: 0]
[interaction_constraints: ]
[verbosity: -1]
[saved_feature_importance_type: 0]
[use_quantized_grad: 0]
[num_grad_quant_bins: 4]
[quant_train_renew_leaf: 0]
[stochastic_rounding: 1]
[linear_tree: 0]
[max_bin: 255]
[max_bin_by_feature: ]
[min_data_in_bin: 3]
[bin_construct_sample_cnt: 200000]
[data_random_seed: 175]
[is_enable_sparse: 1]
[enable_bundle: 1]
[use_missing: 1]
[zero_as_missing: 0]
[feature_pre_filter: 1]
[pre_partition: 0]
[two_round: 0]
[header: 0]
[label_column: ]
[weight_column: ]
[group_column: ]
[ignore_column: ]
[categorical_feature: ]
[forcedbins_filename: ]
[precise_float_parser: 0]
[parser_config_file: ]
[objective_seed: 16083]
[num_class: 1]
[is_unbalance: 0]
[scale_pos_weight: 1]
[sigmoid: 1]
[boost_from_average: 1]
[reg_sqrt: 0]
[alpha: 0.9]
[fair_c: 1]
[poisson_max_delta_step: 0.7]
[tweedie_variance_power: 1.5]
[lambdarank_truncation_level: 30]
[lambdarank_norm: 1]
[label_gain: ]
[lambdarank_position_bias_regularization: 0]
[eval_at: ]
[multi_error_top_k: 1]
[auc_mu_weights: ]
[num_machines: 1]
[local_listen_port: 12400]
[time_out: 120]
[machine_list_filename: ]
[machines: ]
[gpu_platform_id: -1]
[gpu_device_id: -1]
[gpu_use_dp: 0]
[num_gpu: 1]

end of parameters

pandas_categorical:null
