tree
version=v4
num_class=1
num_tree_per_iteration=1
label_index=0
max_feature_idx=21
objective=quantile
feature_names=Column_0 Column_1 Column_2 Column_3 Column_4 Column_5 Column_6 Column_7 Column_8 Column_9 Column_10 Column_11 Column_12 Column_13 Column_14 Column_15 Column_16 Column_17 Column_18 Column_19 Column_20 Column_21
feature_infos=[3.8250012595449858:8.0025021664110056] [2.9700000286102295:6.7699999809265137] [5.755000114440918:14.399999618530273] [1370:2822] [3.8250012595449858:8.0025021664110056] [3.8250012595449858:8.0025021664110056] [3.8250012595449858:8.0025021664110056] [3.8250012595449858:8.0025021664110056] [3.8250012595449858:8.0025021664110056] [3.8250012595449858:8.0025021664110056] [3.109719111473856:8.0025021664110056] [3.8915906007990086:7.922449918787394] [3.9951053301251727:7.7630479140870321] [4.1643582574604956:7.313794523562847] [4.3357232480644816:7.1227510993336232] [0.062588336455152577:0.51309032248165554] [112.54759979248047:129.86639404296875] [156.3800048828125:255.30299377441406] [2021:2025] [1:52] [1:12] [1:4]
tree_sizes=798 810 799 799 719 695 676 704 683 694 808 621 716 622 609 712 810 731 690 808 627 490 608 492 738 687 718 778 609 544 728 817 621

Tree=0
num_leaves=7
num_cat=0
split_feature=13 10 3 0 0 0
split_gain=5.20799 8.88526 1.02211 2.22045e-16 2.22045e-16 5.55112e-17
threshold=4.6224148786960164 5.2995305152553369 2484.0000000000005 7.3847545694722188 6.9008361682694064 4.3768171004543248
decision_type=2 2 2 2 2 2
left_child=1 2 5 4 -2 -1
right_child=3 -3 -4 -5 -6 -7
leaf_value=4.2291222715471308 4.2327830219345293 4.2047698319618378 4.219496154792667 4.3427389098184657 4.342385351822025 4.2384892463701442
leaf_weight=15.000000000000002 92 15.999999999999998 10.999999999999998 9.9999999999999982 15.999999999999998 10.999999999999998
leaf_count=15 92 16 11 10 16 11
internal_value=4.22097 4.20795 4.22141 4.22682 4.22682 4.22682
internal_weight=171 53 37 118 108 26
internal_count=171 53 37 118 108 26
is_linear=0
shrinkage=1


Tree=1
num_leaves=7
num_cat=0
split_feature=13 13 7 0 0 0
split_gain=5.20799 7.52898 1.45833 0.0655172 2.22045e-16 2.22045e-16
threshold=4.6224148786960164 4.4562351186457532 4.6641115053588811 4.103237078304109 7.3847545694722188 6.9008361682694064
decision_type=2 2 2 2 2 2
left_child=1 3 -3 -1 5 -2
right_child=4 2 -4 -5 -6 -7
leaf_value=0.0059136585650527802 0.010416799075717666 -0.016786377674077313 -0.0026265827157662585 0.012115488054300539 0.11487489256545724 0.11453901246883845
leaf_weight=10.000000000000002 92 14.000000000000002 9.9999999999999982 19 9.9999999999999982 15.999999999999998
leaf_count=10 92 14 10 19 10 16
internal_value=-0.000847953 -0.0138679 -0.0345833 0.00327586 0.005 0.005
internal_weight=171 53 24 29 118 108
internal_count=171 53 24 29 118 108
is_linear=0
shrinkage=0.05


Tree=2
num_leaves=7
num_cat=0
split_feature=13 13 10 2 1 1
split_gain=5.20799 7.52898 1.45833 0.0655172 2.22045e-16 2.22045e-16
threshold=4.6224148786960164 4.4562351186457532 5.5989183157576674 8.4974999427795428 5.9974999427795419 5.1274998188018808
decision_type=2 2 2 2 2 2
left_child=1 3 -3 -1 5 -2
right_child=4 2 -4 -5 -6 -7
leaf_value=-0.00013648741973587165 0.0098393084886240004 -0.0024517328850281774 -0.015947058790373437 0.013733439042165507 0.10913114793718437 0.11303549901119521
leaf_weight=10.000000000000002 86 10.000000000000002 13.999999999999998 19 9.9999999999999982 22
leaf_count=10 86 10 14 19 10 22
internal_value=-0.000847953 -0.0138679 -0.0345833 0.00327586 0.005 0.005
internal_weight=171 53 24 29 118 108
internal_count=171 53 24 29 118 108
is_linear=0
shrinkage=0.05


Tree=3
num_leaves=7
num_cat=0
split_feature=13 13 10 2 1 1
split_gain=5.20799 7.52898 1.45833 0.0655172 2.22045e-16 2.22045e-16
threshold=4.6224148786960164 4.4562351186457532 5.5989183157576674 8.4974999427795428 5.9974999427795419 5.1274998188018808
decision_type=2 2 2 2 2 2
left_child=1 3 -3 -1 5 -2
right_child=4 2 -4 -5 -6 -7
leaf_value=-0.00012966304874906955 0.0093473430641927823 -0.0023291462407767781 -0.015149705850854778 0.013046767090057233 0.10367459054032518 0.10738372406063545
leaf_weight=10.000000000000002 86 10.000000000000002 13.999999999999998 19 9.9999999999999982 22
leaf_count=10 86 10 14 19 10 22
internal_value=-0.000847953 -0.0138679 -0.0345833 0.00327586 0.005 0.005
internal_weight=171 53 24 29 118 108
internal_count=171 53 24 29 118 108
is_linear=0
shrinkage=0.05


Tree=4
num_leaves=6
num_cat=0
split_feature=13 13 10 3 0
split_gain=4.9767 7.52898 1.45833 0.0824345 0.0655172
threshold=4.6224148786960164 4.4562351186457532 5.5989183157576674 1843.0000000000002 4.103237078304109
decision_type=2 2 2 2 2
left_child=1 4 -3 -2 -1
right_child=3 2 -4 -5 -6
leaf_value=0.0056312831602244188 0.0081350013373676418 -0.002212688928737958 -0.014392220558312019 0.013455722120285474 0.010170703344974365
leaf_weight=10.000000000000002 10.999999999999998 10.000000000000002 13.999999999999998 107 19
leaf_count=10 11 10 14 107 19
internal_value=-0.00114035 -0.0138679 -0.0345833 0.00457627 0.00327586
internal_weight=171 53 24 118 29
internal_count=171 53 24 118 29
is_linear=0
shrinkage=0.05


Tree=5
num_leaves=6
num_cat=0
split_feature=13 13 10 2 0
split_gain=4.70668 6.21 1.38416 0.0830966 2.22045e-16
threshold=4.6224148786960164 4.4195053224922001 5.2995305152553369 6.8662500381469735 7.1621142504892594
decision_type=2 2 2 2 2
left_child=1 -1 -3 -2 -5
right_child=3 2 -4 4 -6
leaf_value=0.0087758027775212688 0.0013673303600252762 -0.0022655997114053388 -0.013672609530396418 0.018799924616582642 0.097462988574719356
leaf_weight=23 10.999999999999998 11.000000000000002 13.999999999999998 99 18
leaf_count=23 11 11 14 99 18
internal_value=-0.000397727 -0.01375 -0.031 0.00460938 0.005
internal_weight=176 48 25 128 117
internal_count=176 48 25 128 117
is_linear=0
shrinkage=0.05


Tree=6
num_leaves=6
num_cat=0
split_feature=13 13 3 7 0
split_gain=3.38556 4.15638 0.61875 0.092 2.22045e-16
threshold=4.6602281160927967 4.5180272148020597 2484.0000000000005 4.7570904113530288 6.9630125202951119
decision_type=2 2 2 2 2
left_child=1 2 -1 -2 -5
right_child=3 -3 -4 4 -6
leaf_value=0.007402339912823486 0.0043442447010195338 -0.011512363364530166 -0.0031507407316732992 0.016971418360488988 0.094238041026996067
leaf_weight=22 9.9999999999999982 19 9.9999999999999982 86 29
leaf_count=22 10 19 10 86 29
internal_value=0.000170455 -0.0106863 0.0003125 0.0046 0.005
internal_weight=176 51 32 125 115
internal_count=176 51 32 125 115
is_linear=0
shrinkage=0.05


Tree=7
num_leaves=6
num_cat=0
split_feature=14 10 8 2 0
split_gain=2.81274 4.69444 1.0101 0.0830966 2.22045e-16
threshold=5.0922822245409289 5.5989183157576674 4.5531892238955827 6.8662500381469735 7.1621142504892594
decision_type=2 2 2 2 2
left_child=1 2 -1 -2 -5
right_child=3 -3 -4 4 -6
leaf_value=0.0053759510307788477 0.00045039292650526089 -0.013004007161388654 -0.0019947826830215205 0.016717100558826432 0.08787793709463361
leaf_weight=25 10.999999999999998 11.999999999999998 10.999999999999998 99 18
leaf_count=25 11 12 11 99 18
internal_value=0.000738637 -0.00958333 -0.000555555 0.00460938 0.005
internal_weight=176 48 36 128 117
internal_count=176 48 36 128 117
is_linear=0
shrinkage=0.05


Tree=8
num_leaves=6
num_cat=0
split_feature=0 20 19 2 0
split_gain=2.88444 1.78755 4.86044 0.0545455 2.22045e-16
threshold=4.7480915883442494 7.5000000000000009 14.500000000000002 6.8662500381469735 7.1621142504892594
decision_type=2 2 2 2 2
left_child=1 2 -1 -3 -2
right_child=4 3 -4 -5 -6
leaf_value=0.0029643846950223049 0.014259344092916263 0.0002986920059037099 -0.010581867976103521 0.012466492553295128 0.083484040239901927
leaf_weight=19 99 10.000000000000002 18 11.999999999999998 18
leaf_count=19 99 10 18 12 18
internal_value=0.000454546 -0.00855932 -0.0152703 0.00272727 0.005
internal_weight=176 59 37 22 117
internal_count=176 59 37 22 117
is_linear=0
shrinkage=0.05


Tree=9
num_leaves=6
num_cat=0
split_feature=13 13 19 7 0
split_gain=2.96522 3.62395 1.75 0.092 2.22045e-16
threshold=4.6602281160927967 4.4195053224922001 17.500000000000004 4.7570904113530288 6.9630125202951119
decision_type=2 2 2 2 2
left_child=1 -1 -3 -2 -5
right_child=3 2 -4 4 -6
leaf_value=0.0076280172198022805 0.0034613488660712221 -0.00051878726799800773 -0.011234067128775484 0.014574025209877429 0.080958040108919521
leaf_weight=23 9.9999999999999982 14.000000000000002 13.999999999999998 86 29
leaf_count=23 10 14 14 86 29
internal_value=0.000454546 -0.00970588 -0.0217857 0.0046 0.005
internal_weight=176 51 28 125 115
internal_count=176 51 28 125 115
is_linear=0
shrinkage=0.05


Tree=10
num_leaves=7
num_cat=0
split_feature=4 20 19 4 2 0
split_gain=3.44941 2.98413 4.60952 0.8 0.0615385 2.22045e-16
threshold=4.7570904113530288 7.5000000000000009 14.500000000000002 4.5215254237146381 6.6575000286102304 6.3681865981686991
decision_type=2 2 2 2 2 2
left_child=1 2 -1 -4 -3 -2
right_child=5 4 3 -5 -6 -7
leaf_value=0.0027897003509787417 0.0095654069567486857 0.0044761317101274503 -0.0024513303253840984 -0.011689941460058063 0.0075362454396818018 0.074182887310356979
leaf_weight=14.999999999999998 58 10.000000000000002 10.000000000000002 9.9999999999999982 15.999999999999998 55
leaf_count=15 58 10 10 10 16 55
internal_value=-0.000172414 -0.0097541 -0.0192857 -0.035 0.00307692 0.005
internal_weight=174 61 35 20 26 113
internal_count=174 61 35 20 26 113
is_linear=0
shrinkage=0.05


Tree=11
num_leaves=5
num_cat=0
split_feature=7 13 7 1
split_gain=3.10016 4.25616 2.42722 2.22045e-16
threshold=4.698516420344796 4.4195053224922001 4.5797048165765508 5.9974999427795419
decision_type=2 2 2 2
left_child=1 -1 -3 -2
right_child=3 2 -4 -5
leaf_value=0.0066964148809522776 0.0099442398119042735 -0.0094972204235952429 -0.0012426560926941603 0.072631840886842089
leaf_weight=27 107 16.000000000000004 12.999999999999998 10.999999999999998
leaf_count=27 107 16 13 11
internal_value=0.000402299 -0.00928571 -0.0225862 0.005
internal_weight=174 56 29 118
internal_count=174 56 29 118
is_linear=0
shrinkage=0.05


Tree=12
num_leaves=6
num_cat=0
split_feature=11 13 19 4 0
split_gain=3.59903 3.86975 3.56833 0.8 0.0917355
threshold=4.6936302462885582 4.4195053224922001 14.500000000000002 4.5215254237146381 4.7480915883442494
decision_type=2 2 2 2 2
left_child=1 -1 -3 -4 -2
right_child=4 2 3 -5 -6
leaf_value=0.0061401455803926771 0.0046703643210328095 0.00097057239835300006 -0.0018539027879351405 -0.010630583365875391 0.013698937727631311
leaf_weight=22 9.9999999999999982 11.000000000000002 10.000000000000002 9.9999999999999982 111
leaf_count=22 10 11 10 10 111
internal_value=-0.000172414 -0.0110377 -0.0224194 -0.035 0.00458678
internal_weight=174 53 31 20 121
internal_count=174 53 31 20 121
is_linear=0
shrinkage=0.05


Tree=13
num_leaves=5
num_cat=0
split_feature=0 14 14 16
split_gain=2.94253 2.65592 3.17659 0.0615385
threshold=4.698516420344796 4.5992908568359727 5.0922822245409289 122.96379852294923
decision_type=2 2 2 2
left_child=1 3 -3 -1
right_child=-2 2 -4 -5
leaf_value=0.0035994777392354214 0.01062525332655377 -0.0081955070962524083 0.00021646842326046925 0.0071228458516268732
leaf_weight=10.000000000000002 116 17 14.999999999999998 15.999999999999998
leaf_count=10 116 17 15 16
internal_value=0.000402299 -0.0087931 -0.0184375 0.00307692
internal_weight=174 58 32 26
internal_count=174 58 32 26
is_linear=0
shrinkage=0.05


Tree=14
num_leaves=5
num_cat=0
split_feature=11 13 19 0
split_gain=3.17753 3.9974 3.76332 0.0917355
threshold=4.6936302462885582 4.4562351186457532 14.500000000000002 4.7480915883442494
decision_type=2 2 2 2
left_child=1 -1 -3 -2
right_child=3 2 -4 -5
leaf_value=0.0041792143849886726 0.0039576273561903186 0.00091122035212667452 -0.0074904086035704866 0.012482728174922065
leaf_weight=24 9.9999999999999982 11.000000000000002 18 111
leaf_count=24 10 11 18 111
internal_value=0.000114943 -0.0100943 -0.0225862 0.00458678
internal_weight=174 53 29 121
internal_count=174 53 29 121
is_linear=0
shrinkage=0.05


Tree=15
num_leaves=6
num_cat=0
split_feature=0 13 19 7 0
split_gain=2.28612 1.84152 3.60195 2.07424 0.05
threshold=4.7480915883442494 4.4562351186457532 15.500000000000002 4.6641115053588811 4.5215254237146381
decision_type=2 2 2 2 2
left_child=1 -1 4 -4 -3
right_child=-2 2 3 -5 -6
leaf_value=0.0038806130470328882 0.01152695351975532 0.00021339200942450173 -0.0058836026918647651 -0.00049140577842614471 0.0021018271784945144
leaf_weight=22 119 10.000000000000002 12.000000000000002 9.9999999999999982 9.9999999999999982
leaf_count=22 119 10 12 10 10
internal_value=0.00090164 -0.00671875 -0.0128571 -0.0268182 0.0025
internal_weight=183 64 42 22 20
internal_count=183 64 42 22 20
is_linear=0
shrinkage=0.05


Tree=16
num_leaves=7
num_cat=0
split_feature=5 13 19 17 0 0
split_gain=2.17958 1.70455 3.10303 1.71905 0.05 2.22045e-16
threshold=4.7923943099318675 4.4195053224922001 15.500000000000002 174.55300140380862 4.5215254237146381 7.2165621449499593
decision_type=2 2 2 2 2 2
left_child=1 -1 4 -4 -3 -2
right_child=5 2 3 -5 -6 -7
leaf_value=0.0052501730428102036 0.0091880086381903505 0.00020272240895327696 -0.0062310618070667186 -0.0015337050737413498 0.0019967358195698004 0.06406577400650218
leaf_weight=22 103 10.000000000000002 10.000000000000002 13.999999999999998 9.9999999999999982 13.999999999999998
leaf_count=22 103 10 10 14 10 14
internal_value=0.00090164 -0.00636364 -0.0120455 -0.0241667 0.0025 0.005
internal_weight=183 66 44 24 20 117
internal_count=183 66 44 24 20 117
is_linear=0
shrinkage=0.05


Tree=17
num_leaves=6
num_cat=0
split_feature=0 1 10 19 0
split_gain=1.57377 1.94523 0.734118 1.32923 5.55112e-17
threshold=4.698516420344796 3.7224999666213994 5.5989183157576674 12.500000000000002 4.3337535894692971
decision_type=2 2 2 2 2
left_child=1 2 4 -4 -1
right_child=-2 -3 3 -5 -6
leaf_value=0.0023904313266159449 0.0087124645202278066 -0.002802663777766945 0.0061921538028464861 -0.0010647548719563587 0.0047295990592526047
leaf_weight=15.000000000000002 122 9.9999999999999982 12.000000000000002 12.999999999999998 10.999999999999998
leaf_count=15 122 10 12 13 11
internal_value=0.00172131 -0.00483607 -0.000882353 -0.007 0.005
internal_weight=183 61 51 25 26
internal_count=183 61 51 25 26
is_linear=0
shrinkage=0.05


Tree=18
num_leaves=6
num_cat=0
split_feature=5 13 19 19 0
split_gain=1.89866 1.75808 3.36111 0.0666667 2.22045e-16
threshold=4.7923943099318675 4.5180272148020597 15.500000000000002 29.500000000000004 7.2165621449499593
decision_type=2 2 2 2 2
left_child=1 3 -3 -1 -2
right_child=4 2 -4 -5 -6
leaf_value=0.00020662581444220028 0.0082929849802694383 0.0002702134773472887 -0.0030859082834514568 0.0031908899589814621 0.060426862080165705
leaf_weight=10.000000000000002 103 18 18 20 13.999999999999998
leaf_count=10 103 18 18 20 14
internal_value=0.00117486 -0.00560606 -0.0130556 0.00333333 0.005
internal_weight=183 66 36 30 117
internal_count=183 66 36 30 117
is_linear=0
shrinkage=0.05


Tree=19
num_leaves=7
num_cat=0
split_feature=5 13 19 19 0 0
split_gain=2.17958 1.70455 3.10303 1.5 0.05 2.22045e-16
threshold=4.7923943099318675 4.4195053224922001 15.500000000000002 25.500000000000004 4.5215254237146381 7.2165621449499593
decision_type=2 2 2 2 2 2
left_child=1 -1 4 -4 -3 -2
right_child=5 2 3 -5 -6 -7
leaf_value=0.0047085983263898028 0.0078783357312559501 0.00023231335823608644 -0.0050616467631943926 -0.00091354056047560886 0.0016845697108956522 0.057405518976157401
leaf_weight=22 103 10.000000000000002 12.000000000000002 11.999999999999998 9.9999999999999982 13.999999999999998
leaf_count=22 103 10 12 12 10 14
internal_value=0.00090164 -0.00636364 -0.0120455 -0.0241667 0.0025 0.005
internal_weight=183 66 44 24 20 117
internal_count=183 66 44 24 20 117
is_linear=0
shrinkage=0.05


Tree=20
num_leaves=5
num_cat=0
split_feature=4 1 10 6
split_gain=1.89869 3.00084 0.555042 1.18577
threshold=4.7570904113530288 3.7224999666213994 5.0799694501654367 4.5215254237146381
decision_type=2 2 2 2
left_child=1 2 -1 -4
right_child=-2 -3 3 -5
leaf_value=0.0044054295386285322 0.0095590038775519495 -0.0015712271870968607 -0.00075763054113592331 0.00033273780942539547
leaf_weight=24 116 11.999999999999998 11.000000000000002 11.999999999999998
leaf_count=24 116 12 11 12
internal_value=0.00128571 -0.00601695 -0.000319149 -0.00586956
internal_weight=175 59 47 23
internal_count=175 59 47 23
is_linear=0
shrinkage=0.05


Tree=21
num_leaves=4
num_cat=0
split_feature=5 13 19
split_gain=1.71683 2.0119 3.82878
threshold=4.7923943099318675 4.4562351186457532 16.500000000000004
decision_type=2 2 2
left_child=1 -1 -3
right_child=-2 2 -4
leaf_value=0.0030166690233694293 0.012812859543871277 0.0001521830390816151 -0.0029712467526995636
leaf_weight=27 112 19 17
leaf_count=27 112 19 17
internal_value=0.00128571 -0.00531746 -0.0130556
internal_weight=175 63 36
internal_count=175 63 36
is_linear=0
shrinkage=0.05


Tree=22
num_leaves=5
num_cat=0
split_feature=5 1 14 7
split_gain=1.46286 1.82682 0.414079 0.838095
threshold=4.7923943099318675 3.7224999666213994 4.5992908568359727 4.5987191523940405
decision_type=2 2 2 2
left_child=1 2 -1 -4
right_child=-2 -3 3 -5
leaf_value=0.0033882229016860333 0.012172216566677727 -0.0011326710072906245 -0.0010117805820315073 0.0023444933672866334
leaf_weight=25 112 17 10.000000000000002 10.999999999999998
leaf_count=25 112 17 10 11
internal_value=0.00157143 -0.00452381 0.000652174 -0.00452381
internal_weight=175 63 46 21
internal_count=175 63 46 21
is_linear=0
shrinkage=0.05


Tree=23
num_leaves=4
num_cat=0
split_feature=5 13 19
split_gain=1.71683 1.76483 3.18421
threshold=4.7923943099318675 4.4195053224922001 16.500000000000004
decision_type=2 2 2
left_child=1 -1 -3
right_child=-2 2 -4
leaf_value=0.0040655214707932636 0.011563605738343828 0.00020120743749207277 -0.0020491125042378286
leaf_weight=25 112 19 19
leaf_count=25 112 19 19
internal_value=0.00128571 -0.00531746 -0.0121053
internal_weight=175 63 38
internal_count=175 63 38
is_linear=0
shrinkage=0.05


Tree=24
num_leaves=6
num_cat=0
split_feature=4 1 10 6 0
split_gain=1.35942 2.37291 0.421479 0.838095 5.55112e-17
threshold=4.7570904113530288 3.7224999666213994 5.5989183157576674 4.5664318774991584 4.3768171004543248
decision_type=2 2 2 2 2
left_child=1 2 4 -4 -1
right_child=-2 -3 3 -5 -6
leaf_value=0.002474143342175343 0.0083211626955567979 -0.0011850143145306223 -0.00085873592771807956 0.00057325326780879437 0.0037252653671552265
leaf_weight=16.000000000000004 116 11.999999999999998 10.000000000000002 10.999999999999998 9.9999999999999982
leaf_count=16 116 12 10 11 10
internal_value=0.00185714 -0.00432203 0.000744681 -0.00452381 0.005
internal_weight=175 59 47 21 26
internal_count=175 59 47 21 26
is_linear=0
shrinkage=0.05


Tree=25
num_leaves=6
num_cat=0
split_feature=5 1 19 8 0
split_gain=1.71383 1.85279 3.34448 0.298643 2.22045e-16
threshold=4.7923943099318675 3.6937500238418584 16.500000000000004 4.5531892238955827 7.1292027493169323
decision_type=2 2 2 2 2
left_child=1 3 -3 -1 -2
right_child=4 2 -4 -5 -6
leaf_value=0.0003838352658566671 0.0043331036167084686 0.00026039251146959505 -0.0070237828545978544 -0.00014337674579676272 0.053612215817068924
leaf_weight=22 86 10.000000000000002 12.999999999999998 17 19
leaf_count=22 86 10 13 17 19
internal_value=0.00110778 -0.00548387 -0.0167391 0.00115385 0.005
internal_weight=167 62 23 39 105
internal_count=167 62 23 39 105
is_linear=0
shrinkage=0.05


Tree=26
num_leaves=6
num_cat=0
split_feature=7 0 19 8 0
split_gain=1.5784 1.52669 2.97527 0.242424 2.22045e-16
threshold=4.8060745912532825 4.5664318774991584 16.500000000000004 4.5531892238955827 7.1621142504892594
decision_type=2 2 2 2 2
left_child=1 3 -3 -1 -2
right_child=4 2 -4 -5 -6
leaf_value=0.00036464350256383083 0.0038955871949298555 0.00093069845338789037 -0.0069529234776946128 -0.00010562168584767685 0.049852555899723774
leaf_weight=22 92 14.000000000000002 11.999999999999998 10.999999999999998 15.999999999999998
leaf_count=22 92 14 12 11 16
internal_value=0.00140719 -0.00516949 -0.0142308 0.0019697 0.005
internal_weight=167 59 26 33 108
internal_count=167 59 26 33 108
is_linear=0
shrinkage=0.05


Tree=27
num_leaves=7
num_cat=0
split_feature=6 0 8 0 2 2
split_gain=1.36166 1.51298 0.369231 2.22045e-16 1.11022e-16 5.55112e-17
threshold=4.7732937181525825 4.5993995847180882 4.5531892238955827 7.3847545694722188 9.0862498283386248 9.9499998092651385
decision_type=2 2 2 2 2 2
left_child=1 2 -1 4 -2 -6
right_child=3 -3 -4 -5 5 -7
leaf_value=0.00024384278752852869 0.00560586621960026 -0.004642968943023333 -6.8360452321989044e-05 0.045921195936081995 0.0084146156370267702 0.0066172233804118593
leaf_weight=24 58 19 14.999999999999998 11.999999999999998 29 9.9999999999999982
leaf_count=24 58 19 15 12 29 10
internal_value=0.00170659 -0.00448276 0.00115385 0.005 0.005 0.005
internal_weight=167 58 39 109 97 39
internal_count=167 58 39 109 97 39
is_linear=0
shrinkage=0.05


Tree=28
num_leaves=5
num_cat=0
split_feature=12 7 2 21
split_gain=1.40484 3.45098 0.0833903 2.77556e-17
threshold=4.5129104365224686 4.3768171004543248 6.6575000286102304 3.5000000000000004
decision_type=2 2 2 2
left_child=1 3 -2 -1
right_child=2 -3 -4 -5
leaf_value=0.00039433861161544231 0.0002165166139579622 -0.0063731288566587123 0.0019706195035311307 0.0078198692870008277
leaf_weight=10 10.999999999999998 11.999999999999998 122 12
leaf_count=10 11 12 122 12
internal_value=0.00230539 -0.00676471 0.00462406 0.005
internal_weight=167 34 133 22
internal_count=167 34 133 22
is_linear=0
shrinkage=0.05


Tree=29
num_leaves=4
num_cat=0
split_feature=15 9 2
split_gain=0.607875 0.885902 0.0565217
threshold=0.11189938310247687 4.7968603239798382 6.773750066757203
decision_type=2 2 2
left_child=1 -1 -3
right_child=-2 2 -4
leaf_value=-0.0065175023878960544 0.0023808558575985983 0.0008266568981614346 0.00011926341654239839
leaf_weight=9.9999999999999982 134 10.000000000000002 12.999999999999998
leaf_count=10 134 10 13
internal_value=0.00350299 -0.00257576 0.00282609
internal_weight=167 33 23
internal_count=167 33 23
is_linear=0
shrinkage=0.05


Tree=30
num_leaves=6
num_cat=0
split_feature=8 0 9 2 0
split_gain=0.583166 0.838095 0.0810901 0.0931034 4.44089e-16
threshold=4.3768171004543248 4.5664318774991584 4.3391620539418607 6.2562499046325692 7.1292027493169323
decision_type=2 2 2 2 2
left_child=1 -1 -2 -4 -5
right_child=2 -3 3 4 -6
leaf_value=0.0076899293139124306 3.8654440897494118e-05 -0.0061916272685012637 7.9119958030882774e-05 0.0022683112950947605 0.046494496517482234
leaf_weight=11.000000000000002 9.9999999999999982 9.9999999999999982 9.9999999999999982 116 19
leaf_count=11 10 10 10 116 19
internal_value=0.00329545 -0.00452381 0.00435484 0.00465517 0.005
internal_weight=176 21 155 145 135
internal_count=176 21 155 145 135
is_linear=0
shrinkage=0.05


Tree=31
num_leaves=7
num_cat=0
split_feature=15 16 19 9 0 0
split_gain=0.838893 0.764878 2.12333 0.0925926 2.22045e-16 2.22045e-16
threshold=0.12610414046981455 122.11304855346681 12.500000000000002 4.103237078304109 7.3847545694722188 6.6075337656948809
decision_type=2 2 2 2 2 2
left_child=1 2 -1 -2 5 -5
right_child=3 -3 -4 4 -6 -7
leaf_value=0.0053053391327370948 3.6721718852599086e-05 0.00034377303842876892 -0.0054190159310059174 0.002492819692807412 0.040358874751430879 0.070418713931519786
leaf_weight=13.000000000000002 9.9999999999999982 15.999999999999998 11.999999999999998 86 9.9999999999999982 29
leaf_count=13 10 16 12 86 10 29
internal_value=0.00272727 -0.00353659 -0.009 0.00462963 0.005 0.005
internal_weight=176 41 25 135 125 115
internal_count=176 41 25 135 125 115
is_linear=0
shrinkage=0.05


Tree=32
num_leaves=5
num_cat=0
split_feature=14 13 0 0
split_gain=0.613636 1.48485 0.069697 2.22045e-16
threshold=4.933334800647212 4.5180272148020597 4.103237078304109 7.3847545694722188
decision_type=2 2 2 2
left_child=1 2 -1 -2
right_child=3 -3 -4 -5
leaf_value=5.2470712213802763e-05 0.00462315171222559 -0.0054283949002822589 0.00096142676819578545 0.038340931013859339
leaf_weight=9.9999999999999982 122 10.999999999999998 23 9.9999999999999982
leaf_count=10 122 11 23 10
internal_value=0.00329545 -0.00181818 0.00348485 0.005
internal_weight=176 44 33 132
internal_count=176 44 33 132
is_linear=0
shrinkage=0.05


end of trees

feature_importances:
Column_0=38
Column_13=25
Column_19=17
Column_2=11
Column_1=10
Column_7=9
Column_10=9
Column_5=7
Column_4=5
Column_8=5
Column_14=5
Column_3=3
Column_6=3
Column_9=3
Column_11=2
Column_15=2
Column_16=2
Column_20=2
Column_12=1
Column_17=1
Column_21=1

parameters:
[boosting: gbdt]
[objective: quantile]
[metric: quantile]
[tree_learner: serial]
[device_type: cpu]
[data_sample_strategy: bagging]
[data: ]
[valid: ]
[num_iterations: 800]
[learning_rate: 0.05]
[num_leaves: 31]
[num_threads: 0]
[seed: 42]
[deterministic: 0]
[force_col_wise: 0]
[force_row_wise: 0]
[histogram_pool_size: -1]
[max_depth: -1]
[min_data_in_leaf: 10]
[min_sum_hessian_in_leaf: 0.001]
[bagging_fraction: 0.9]
[pos_bagging_fraction: 1]
[neg_bagging_fraction: 1]
[bagging_freq: 5]
[bagging_seed: 400]
[bagging_by_query: 0]
[feature_fraction: 0.9]
[feature_fraction_bynode: 1]
[feature_fraction_seed: 30056]
[extra_trees: 0]
[extra_seed: 12879]
[early_stopping_round: 0]
[early_stopping_min_delta: 0]
[first_metric_only: 0]
[max_delta_step: 0]
[lambda_l1: 0]
[lambda_l2: 0]
[linear_lambda: 0]
[min_gain_to_split: 0]
[drop_rate: 0.1]
[max_drop: 50]
[skip_drop: 0.5]
[xgboost_dart_mode: 0]
[uniform_drop: 0]
[drop_seed: 17869]
[top_rate: 0.2]
[other_rate: 0.1]
[min_data_per_group: 100]
[max_cat_threshold: 32]
[cat_l2: 10]
[cat_smooth: 10]
[max_cat_to_onehot: 4]
[top_k: 20]
[monotone_constraints: ]
[monotone_constraints_method: basic]
[monotone_penalty: 0]
[feature_contri: ]
[forcedsplits_filename: ]
[refit_decay_rate: 0.9]
[cegb_tradeoff: 1]
[cegb_penalty_split: 0]
[cegb_penalty_feature_lazy: ]
[cegb_penalty_feature_coupled: ]
[path_smooth: 0]
[interaction_constraints: ]
[verbosity: -1]
[saved_feature_importance_type: 0]
[use_quantized_grad: 0]
[num_grad_quant_bins: 4]
[quant_train_renew_leaf: 0]
[stochastic_rounding: 1]
[linear_tree: 0]
[max_bin: 255]
[max_bin_by_feature: ]
[min_data_in_bin: 3]
[bin_construct_sample_cnt: 200000]
[data_random_seed: 175]
[is_enable_sparse: 1]
[enable_bundle: 1]
[use_missing: 1]
[zero_as_missing: 0]
[feature_pre_filter: 1]
[pre_partition: 0]
[two_round: 0]
[header: 0]
[label_column: ]
[weight_column: ]
[group_column: ]
[ignore_column: ]
[categorical_feature: ]
[forcedbins_filename: ]
[precise_float_parser: 0]
[parser_config_file: ]
[objective_seed: 16083]
[num_class: 1]
[is_unbalance: 0]
[scale_pos_weight: 1]
[sigmoid: 1]
[boost_from_average: 1]
[reg_sqrt: 0]
[alpha: 0.1]
[fair_c: 1]
[poisson_max_delta_step: 0.7]
[tweedie_variance_power: 1.5]
[lambdarank_truncation_level: 30]
[lambdarank_norm: 1]
[label_gain: ]
[lambdarank_position_bias_regularization: 0]
[eval_at: ]
[multi_error_top_k: 1]
[auc_mu_weights: ]
[num_machines: 1]
[local_listen_port: 12400]
[time_out: 120]
[machine_list_filename: ]
[machines: ]
[gpu_platform_id: -1]
[gpu_device_id: -1]
[gpu_use_dp: 0]
[num_gpu: 1]

end of parameters

pandas_categorical:null
