tree
version=v4
num_class=1
num_tree_per_iteration=1
label_index=0
max_feature_idx=21
objective=quantile
feature_names=Column_0 Column_1 Column_2 Column_3 Column_4 Column_5 Column_6 Column_7 Column_8 Column_9 Column_10 Column_11 Column_12 Column_13 Column_14 Column_15 Column_16 Column_17 Column_18 Column_19 Column_20 Column_21
feature_infos=[3.8250012595449858:8.0025021664110056] [2.9700000286102295:6.7699999809265137] [5.755000114440918:14.399999618530273] [1370:2822] [3.8250012595449858:8.0025021664110056] [3.8250012595449858:8.0025021664110056] [3.8250012595449858:8.0025021664110056] [3.8250012595449858:8.0025021664110056] [3.8250012595449858:8.0025021664110056] [3.8250012595449858:8.0025021664110056] [3.109719111473856:8.0025021664110056] [3.8915906007990086:7.922449918787394] [3.9951053301251727:7.7630479140870321] [4.1643582574604956:7.313794523562847] [4.3357232480644816:7.1227510993336232] [0.062588336455152577:0.51309032248165554] [112.54759979248047:129.86639404296875] [156.3800048828125:255.30299377441406] [2021:2025] [1:52] [1:12] [1:4]
tree_sizes=592 833 620 739 735 716 507 603 711 735 620 621 799 718 793 721 734 722 716 723 832 834 636 718 832 833 709 709 815 796 720 713 739 722 626 598 734 824 598 818 718 1110 1123 727 927 1209 984 1085 631 706

Tree=0
num_leaves=5
num_cat=0
split_feature=4 12 12 0
split_gain=9.98414 1.38753 4.0404 2.22045e-16
threshold=4.1869114647363928 4.6053663670327181 4.5268842926176518 7.2311847044911932
decision_type=2 2 2 2
left_child=-1 2 -2 -3
right_child=1 3 -4 -5
leaf_value=4.2266155899143101 4.2522739649218053 4.2584849359470063 4.2354857921769486 4.367118194186423
leaf_weight=13.999999999999998 25 116 10.999999999999998 11.999999999999998
leaf_count=14 25 116 11 12
internal_value=4.24454 4.248 4.23932 4.25044
internal_weight=178 164 36 128
internal_count=178 164 36 128
is_linear=0
shrinkage=1


Tree=1
num_leaves=7
num_cat=0
split_feature=0 3 12 12 0 0
split_gain=8.62633 1.55844 0.674098 1.66667 2.22045e-16 2.77556e-17
threshold=4.2973328768133454 2386.0000000000005 4.6053663670327181 4.5129104365224686 4.6061064683472752 4.4967361392305056
decision_type=2 2 2 2 2 2
left_child=1 -1 3 5 -4 -2
right_child=2 -3 4 -5 -6 -7
leaf_value=-0.0075065930894464119 0.011322139543564091 -0.018896243259422275 0.0022351932535118026 -0.0084303951119657945 0.019645507339064141 0.011250411408489036
leaf_weight=11.000000000000002 10.000000000000005 9.9999999999999982 10.999999999999998 9.9999999999999982 116 9.9999999999999982
leaf_count=11 10 10 11 10 116 10
internal_value=-0.000617977 -0.0307143 0.00340764 -0.00333333 0.005 0.005
internal_weight=178 21 157 30 127 20
internal_count=178 21 157 30 127 20
is_linear=0
shrinkage=0.05


Tree=2
num_leaves=5
num_cat=0
split_feature=4 12 12 1
split_gain=8.42877 1.38753 4.0404 2.22045e-16
threshold=4.1869114647363928 4.6053663670327181 4.5268842926176518 5.9575002193450937
decision_type=2 2 2 2
left_child=-1 2 -2 -3
right_child=1 3 -4 -5
leaf_value=-0.016933853408729816 0.006872120339891952 0.011414937792407721 -0.0090304536665962495 0.11927858663725717
leaf_weight=13.999999999999998 25 116 10.999999999999998 11.999999999999998
leaf_count=14 25 116 11 12
internal_value=-0.000617977 0.00256098 -0.00611111 0.005
internal_weight=178 164 36 128
internal_count=178 164 36 128
is_linear=0
shrinkage=0.05


Tree=3
num_leaves=6
num_cat=0
split_feature=4 2 18 1 1
split_gain=7.00501 1.33683 0.368169 0.471429 2.22045e-16
threshold=4.1869114647363928 6.773750066757203 2024.5000000000002 3.7237499952316289 5.9575002193450937
decision_type=2 2 2 2 2
left_child=-1 -2 4 -4 -3
right_child=1 2 3 -5 -6
leaf_value=-0.016087160738293305 -0.0081248961712029558 0.011785679809942736 -0.00087125822002951314 0.0085441905397977622 0.11331465730539431
leaf_weight=13.999999999999998 14.999999999999998 116 10.000000000000002 10.999999999999998 11.999999999999998
leaf_count=14 15 116 10 11 12
internal_value=-0.000337078 0.00256098 0.00399329 -0.00214286 0.005
internal_weight=178 164 149 21 128
internal_count=178 164 149 21 128
is_linear=0
shrinkage=0.05


Tree=4
num_leaves=6
num_cat=0
split_feature=0 3 2 0 0
split_gain=6.52593 2.77056 0.597341 0.0555556 2.22045e-16
threshold=4.2973328768133454 2386.0000000000005 6.773750066757203 4.4737135345398942 7.2311847044911932
decision_type=2 2 2 2 2
left_child=1 -1 -2 -4 -5
right_child=2 -3 3 4 -6
leaf_value=-0.0054802127276229132 -0.0062373185358412632 -0.016300380389099978 0.0012972507409078806 0.014870411672634655 0.1076489244401246
leaf_weight=11.000000000000002 12.999999999999998 9.9999999999999982 15.999999999999998 116 11.999999999999998
leaf_count=11 13 10 16 116 12
internal_value=0.000224719 -0.0259524 0.00372611 0.00465278 0.005
internal_weight=178 21 157 144 128
internal_count=178 21 157 144 128
is_linear=0
shrinkage=0.05


Tree=5
num_leaves=6
num_cat=0
split_feature=1 15 14 0 0
split_gain=3.81645 0.636741 1.49148 2.22045e-16 2.22045e-16
threshold=3.2474999427795415 0.10573958196636647 5.0463281397236157 7.4818760995139435 6.976175884274773
decision_type=2 2 2 2 2
left_child=-1 2 -2 4 -3
right_child=1 3 -4 -5 -6
leaf_value=-0.012400521753246664 -0.0067257331919582169 0.010065003618055412 0.0039853698438222273 0.10302461114986441 0.12303910458842547
leaf_weight=10.999999999999998 10.999999999999998 116 21 9.9999999999999982 14.999999999999998
leaf_count=11 11 116 21 10 15
internal_value=0.00173913 0.00355491 -0.0028125 0.005 0.005
internal_weight=184 173 32 141 131
internal_count=184 173 32 141 131
is_linear=0
shrinkage=0.05


Tree=6
num_leaves=4
num_cat=0
split_feature=1 4 12
split_gain=3.60166 1.27108 1.7274
threshold=3.2474999427795415 4.6184942331878096 4.5268842926176518
decision_type=2 2 2
left_child=-1 2 -2
right_child=1 -3 -4
leaf_value=-0.011780495665584347 0.0052188031881805763 0.015283758084893923 -0.0031883242007243241
leaf_weight=10.999999999999998 20 134 19
leaf_count=11 20 134 19
internal_value=0.000923913 0.00268786 -0.00525641
internal_weight=184 173 39
internal_count=184 173 39
is_linear=0
shrinkage=0.05


Tree=7
num_leaves=5
num_cat=0
split_feature=1 12 12 1
split_gain=3.67256 1.04109 2.75901 2.22045e-16
threshold=3.2474999427795415 4.624770135186191 4.5268842926176518 5.5387499332427987
decision_type=2 2 2 2
left_child=-1 2 -2 -3
right_child=1 3 -4 -5
leaf_value=-0.011191470882305144 0.0047337614886844293 0.010508953738016894 -0.0058298900308695785 0.11381317786622014
leaf_weight=10.999999999999998 25 116 11.999999999999998 20
leaf_count=11 25 116 12 20
internal_value=0.00119565 0.00297688 -0.00445946 0.005
internal_weight=184 173 37 136
internal_count=184 173 37 136
is_linear=0
shrinkage=0.05


Tree=8
num_leaves=6
num_cat=0
split_feature=2 16 15 1 0
split_gain=4.26531 3.34405 0.04375 0.05 2.22045e-16
threshold=6.773750066757203 122.32360076904298 0.10573958196636647 3.7374999523162846 7.0009163379684383
decision_type=2 2 2 2 2
left_child=1 -1 3 -2 -4
right_child=2 -3 4 -5 -6
leaf_value=-0.00025819074607388322 -7.3358714328714016e-05 -0.011058828713764646 0.0088684075795572373 0.010429796199430564 0.10307788862311103
leaf_weight=14.000000000000002 10.000000000000002 9.9999999999999982 116 9.9999999999999982 24
leaf_count=14 10 10 116 10 24
internal_value=0.00173913 -0.0179167 0.0046875 0.0025 0.005
internal_weight=184 24 160 20 140
internal_count=184 24 160 20 140
is_linear=0
shrinkage=0.05


Tree=9
num_leaves=6
num_cat=0
split_feature=2 16 0 5 0
split_gain=4.0327 3.34405 0.372321 0.471429 2.22045e-16
threshold=6.773750066757203 122.32360076904298 4.4737135345398942 4.4157533214535034 7.4818760995139435
decision_type=2 2 2 2 2
left_child=1 -1 3 -2 -4
right_child=2 -3 4 -5 -6
leaf_value=-0.00024528120877019853 0.0038743717911808861 -0.010505887278076421 0.013064816593665263 -0.00046776178345934565 0.086264639363659967
leaf_weight=14.000000000000002 11.000000000000002 9.9999999999999982 129 9.9999999999999982 9.9999999999999982
leaf_count=14 11 10 129 10 10
internal_value=0.00119565 -0.0179167 0.0040625 -0.00214286 0.005
internal_weight=184 24 160 21 139
internal_count=184 24 160 21 139
is_linear=0
shrinkage=0.05


Tree=10
num_leaves=5
num_cat=0
split_feature=2 16 0 17
split_gain=4.33899 4.40026 0.703841 1.41066
threshold=6.773750066757203 122.32360076904298 4.5182225591009528 164.02300262451175
decision_type=2 2 2 2
left_child=1 -1 3 -2
right_child=2 -3 -4 -5
leaf_value=0.00058068904346858801 -0.00057927521650074688 -0.012211569743013406 0.013892413745307941 0.004856458318932149
leaf_weight=13.000000000000002 11.000000000000002 11.999999999999998 129 18
leaf_count=13 11 12 129 18
internal_value=0.000355191 -0.019 0.00341772 -0.00362069
internal_weight=183 25 158 29
internal_count=183 25 158 29
is_linear=0
shrinkage=0.05


Tree=11
num_leaves=5
num_cat=0
split_feature=2 16 5 17
split_gain=4.33899 4.40026 0.703841 1.63793
threshold=6.773750066757203 122.32360076904298 4.5300625263300311 164.02300262451175
decision_type=2 2 2 2
left_child=1 -1 3 -2
right_child=2 -3 -4 -5
leaf_value=0.00055165459129515038 -0.00062630496465920641 -0.011600991255862737 0.011126309661209042 0.0065687232946296959
leaf_weight=13.000000000000002 10.000000000000002 11.999999999999998 129 19
leaf_count=13 10 12 129 19
internal_value=0.000355191 -0.019 0.00341772 -0.00362069
internal_weight=183 25 158 29
internal_count=183 25 158 29
is_linear=0
shrinkage=0.05


Tree=12
num_leaves=7
num_cat=0
split_feature=0 4 2 3 1 2
split_gain=4.37483 0.840642 1.25738 0.0565217 2.22045e-16 1.11022e-16
threshold=4.2973328768133454 4.5987191523940405 8.8837499618530291 2569.0000000000005 4.6649999618530282 8.4674997329711932
decision_type=2 2 2 2 2 2
left_child=-1 2 -2 -4 -3 -6
right_child=1 4 3 -5 5 -7
leaf_value=-0.0092490028658538843 -0.0036696719952454848 0.006157554916400753 0.0035266824915841607 0.0056928313446597163 0.064615965204961073 0.079997843925575657
leaf_weight=18 10.999999999999998 58 10.000000000000002 12.999999999999998 14.999999999999998 58
leaf_count=18 11 58 10 13 15 58
internal_value=0.000628415 0.00318182 -0.00382353 0.00282609 0.005 0.005
internal_weight=183 165 34 23 131 73
internal_count=183 165 34 23 131 73
is_linear=0
shrinkage=0.05


Tree=13
num_leaves=6
num_cat=0
split_feature=2 16 15 1 0
split_gain=4.71428 2.97377 0.16516 0.209524 2.22045e-16
threshold=6.773750066757203 121.99224853515626 0.10573958196636647 3.7374999523162846 6.976175884274773
decision_type=2 2 2 2 2
left_child=1 -1 3 -2 -4
right_child=2 -3 4 -5 -6
leaf_value=0.0018575374838784226 -0.00073534207339682664 -0.0099678452740383349 0.0068461705836773499 0.0083406349817934378 0.084158353822675974
leaf_weight=11.000000000000002 10.000000000000002 13.999999999999998 110 10.999999999999998 27
leaf_count=11 10 14 110 11 27
internal_value=0.00117486 -0.019 0.00436709 0.000238095 0.005
internal_weight=183 25 158 21 137
internal_count=183 25 158 21 137
is_linear=0
shrinkage=0.05


Tree=14
num_leaves=7
num_cat=0
split_feature=0 4 2 3 1 2
split_gain=3.29884 0.93845 1.58127 0.062963 2.22045e-16 1.11022e-16
threshold=4.1869114647363928 4.5987191523940405 8.6737499237060565 2484.0000000000005 4.6649999618530282 8.4674997329711932
decision_type=2 2 2 2 2 2
left_child=-1 2 -2 -4 -3 -6
right_child=1 4 3 -5 5 -7
leaf_value=-0.010060099286075009 -0.0026019730322965943 0.0055073686413968474 0.0068805020020642734 0.0038001661741073863 0.061042858415529144 0.072303128171878409
leaf_weight=11.999999999999998 12.999999999999998 58 10.000000000000002 17 14.999999999999998 58
leaf_count=12 13 58 10 17 15 58
internal_value=0.00117486 0.00295322 -0.00375 0.00314815 0.005 0.005
internal_weight=183 171 40 27 131 73
internal_count=183 171 40 27 131 73
is_linear=0
shrinkage=0.05


Tree=15
num_leaves=6
num_cat=0
split_feature=0 4 2 3 0
split_gain=3.74011 0.794286 1.53846 0.0615385 2.22045e-16
threshold=4.1869114647363928 4.5798718542904666 8.6737499237060565 2363.0000000000005 6.9166979178563137
decision_type=2 2 2 2 2
left_child=-1 2 -2 -4 -3
right_child=1 4 3 -5 -6
leaf_value=-0.0088951405990889566 -0.0011214935371556855 0.0083726155692328396 0.0065364769019610443 0.0035406029059060345 0.078789615664270604
leaf_weight=13.999999999999998 9.9999999999999982 110 10.000000000000002 15.999999999999998 29
leaf_count=14 10 110 10 16 29
internal_value=0.0012963 0.00328571 -0.00333333 0.00307692 0.005
internal_weight=189 175 36 26 139
internal_count=189 175 36 26 139
is_linear=0
shrinkage=0.05


Tree=16
num_leaves=6
num_cat=0
split_feature=2 16 15 5 0
split_gain=4.6244 2.40667 0.336426 0.508696 2.22045e-16
threshold=6.773750066757203 121.3129005432129 0.11026717682269332 4.5300625263300311 7.2311847044911932
decision_type=2 2 2 2 2
left_child=1 -1 3 -2 -4
right_child=2 -3 4 -5 -6
leaf_value=0.0013046783327866841 -0.00091819781385295935 -0.0081312912834646135 0.0078696587056579555 0.0033009015311051427 0.064179891214185145
leaf_weight=10.000000000000002 10.000000000000002 14.999999999999998 129 12.999999999999998 11.999999999999998
leaf_count=10 10 15 129 13 12
internal_value=0.00103175 -0.019 0.00408537 -0.00152174 0.005
internal_weight=189 25 164 23 141
internal_count=189 25 164 23 141
is_linear=0
shrinkage=0.05


Tree=17
num_leaves=6
num_cat=0
split_feature=0 4 2 3 0
split_gain=2.81153 0.794286 1.53846 0.0615385 2.22045e-16
threshold=4.1869114647363928 4.5798718542904666 8.6737499237060565 2363.0000000000005 6.9166979178563137
decision_type=2 2 2 2 2
left_child=-1 2 -2 -4 -3
right_child=1 4 3 -5 -6
leaf_value=-0.0080438190049612942 -0.00098344350709396585 0.0075605018554882946 0.005860109398284909 0.0031897862284944144 0.071641140320347824
leaf_weight=13.999999999999998 9.9999999999999982 110 10.000000000000002 15.999999999999998 29
leaf_count=14 10 110 10 16 29
internal_value=0.00156085 0.00328571 -0.00333333 0.00307692 0.005
internal_weight=189 175 36 26 139
internal_count=189 175 36 26 139
is_linear=0
shrinkage=0.05


Tree=18
num_leaves=6
num_cat=0
split_feature=2 8 18 19 0
split_gain=3.74708 2.16 0.569106 0.933333 2.22045e-16
threshold=6.773750066757203 4.5981589119276753 2024.5000000000002 16.500000000000004 7.1489666121273991
decision_type=2 2 2 2 2
left_child=1 -1 4 -4 -2
right_child=2 -3 3 -5 -6
leaf_value=-0.0087305131893783191 0.0077606067635232166 -0.0004093012260582208 0.0045794577364705715 -0.00085733350774355927 0.05795743934685902
leaf_weight=10.000000000000002 122 14.999999999999998 14.000000000000002 9.9999999999999982 18
leaf_count=10 122 15 14 10 18
internal_value=0.00103175 -0.017 0.00378049 -0.00333333 0.005
internal_weight=189 25 164 24 140
internal_count=189 25 164 24 140
is_linear=0
shrinkage=0.05


Tree=19
num_leaves=6
num_cat=0
split_feature=0 4 2 3 0
split_gain=2.81153 0.794286 1.53846 0.0615385 2.22045e-16
threshold=4.1869114647363928 4.5798718542904666 8.6737499237060565 2363.0000000000005 6.9166979178563137
decision_type=2 2 2 2 2
left_child=-1 2 -2 -4 -3
right_child=1 4 3 -5 -6
leaf_value=-0.0072051023952443213 -0.00085203876322328053 0.0070636779993586739 0.0052221632857720416 0.0028577150838554012 0.065161211336987462
leaf_weight=13.999999999999998 9.9999999999999982 110 10.000000000000002 15.999999999999998 29
leaf_count=14 10 110 10 16 29
internal_value=0.00156085 0.00328571 -0.00333333 0.00307692 0.005
internal_weight=189 175 36 26 139
internal_count=189 175 36 26 139
is_linear=0
shrinkage=0.05


Tree=20
num_leaves=7
num_cat=0
split_feature=2 8 18 0 0 0
split_gain=4.46963 1.8544 0.164332 0.209524 2.22045e-16 5.55112e-17
threshold=6.773750066757203 4.5981589119276753 2024.5000000000002 4.6349011483560529 7.0009163379684383 7.4818760995139435
decision_type=2 2 2 2 2 2
left_child=1 -1 4 -4 -2 -6
right_child=2 -3 3 -5 5 -7
leaf_value=-0.0074830318468219297 0.0069843064077291838 -0.0001735051061373242 -0.0002826717047322474 0.0036097178122259754 0.078228970388204505 0.051138140485032714
leaf_weight=12.000000000000002 106 13.999999999999998 10.000000000000002 10.999999999999998 15.000000000000002 10.999999999999998
leaf_count=12 106 14 10 11 15 11
internal_value=0.00108939 -0.0180769 0.00434641 0.000238095 0.005 0.005
internal_weight=179 26 153 21 132 26
internal_count=179 26 153 21 132 26
is_linear=0
shrinkage=0.05


Tree=21
num_leaves=7
num_cat=0
split_feature=2 13 18 0 0 0
split_gain=3.06783 1.64476 0.164332 0.209524 2.22045e-16 5.55112e-17
threshold=6.773750066757203 4.5350565755639076 2024.5000000000002 4.6349011483560529 7.0009163379684383 7.4818760995139435
decision_type=2 2 2 2 2 2
left_child=1 -1 4 -4 -2 -6
right_child=2 -3 3 -5 5 -7
leaf_value=-0.0061516033974711162 0.0066350910873427087 0.00021912445873135904 -0.00026853811949563872 0.0034292319216146939 0.07431752186879427 0.048581233460781095
leaf_weight=15.000000000000002 106 10.999999999999998 10.000000000000002 10.999999999999998 15.000000000000002 10.999999999999998
leaf_count=15 106 11 10 11 15 11
internal_value=0.00164804 -0.0142308 0.00434641 0.000238095 0.005 0.005
internal_weight=179 26 153 21 132 26
internal_count=179 26 153 21 132 26
is_linear=0
shrinkage=0.05


Tree=22
num_leaves=5
num_cat=0
split_feature=2 16 1 3
split_gain=1.84438 1.38846 0.316176 0.525
threshold=6.773750066757203 122.43024826049806 3.620000004768372 2499.0000000000005
decision_type=2 2 2 2
left_child=1 -1 3 -2
right_child=2 -3 -4 -5
leaf_value=-2.9033433314115957e-05 0.0022973218304842623 -0.0072520006479325667 0.0091035999484917248 -0.00025511121352084936
leaf_weight=16.000000000000004 14.000000000000002 9.9999999999999982 129 9.9999999999999982
leaf_count=16 14 10 129 10
internal_value=0.00192737 -0.0103846 0.00401961 -0.00125
internal_weight=179 26 153 24
internal_count=179 26 153 24
is_linear=0
shrinkage=0.05


Tree=23
num_leaves=6
num_cat=0
split_feature=5 17 7 0 0
split_gain=2.12859 2.2 0.899465 0.282353 2.22045e-16
threshold=4.6268441699822001 171.89050292968753 4.5993995847180882 4.103237078304109 7.2311847044911932
decision_type=2 2 2 2 2
left_child=1 2 3 -1 -2
right_child=4 -3 -4 -5 -6
leaf_value=-0.0029948911510747122 0.0085248630646079949 -0.0035668695716342042 -0.00030996452389894162 0.0032439247121082999 0.045981291645017741
leaf_weight=9.9999999999999982 110 10.999999999999998 9.9999999999999982 24 13.999999999999998
leaf_count=10 110 11 10 24 14
internal_value=0.00136872 -0.00681818 -0.00181818 0.00205882 0.005
internal_weight=179 55 44 34 124
internal_count=179 55 44 34 124
is_linear=0
shrinkage=0.05


Tree=24
num_leaves=7
num_cat=0
split_feature=2 19 18 7 0 0
split_gain=2.27583 1.53938 0.65733 0.838095 2.22045e-16 5.55112e-17
threshold=6.773750066757203 31.500000000000004 2024.5000000000002 4.6268441699822001 7.0009163379684383 7.4818760995139435
decision_type=2 2 2 2 2 2
left_child=1 -1 4 -4 -2 -6
right_child=2 -3 3 -5 5 -7
leaf_value=-0.0056221720022891376 0.0061789322150758467 0.0002916630248684626 0.002417786511846644 -0.00029446629770400951 0.068596529806357401 0.043397927208066595
leaf_weight=14.000000000000002 106 11.999999999999998 11.000000000000002 9.9999999999999982 15.000000000000002 10.999999999999998
leaf_count=14 106 12 11 10 15 11
internal_value=0.00136872 -0.0123077 0.00369281 -0.00452381 0.005 0.005
internal_weight=179 26 153 21 132 26
internal_count=179 26 153 21 132 26
is_linear=0
shrinkage=0.05


Tree=25
num_leaves=7
num_cat=0
split_feature=5 2 13 4 0 0
split_gain=1.71733 1.44887 1.77289 0.270968 2.22045e-16 2.77556e-17
threshold=4.6268441699822001 8.6737499237060565 4.4195053224922001 4.547495028044346 4.653414608081774 4.4399859354652547
decision_type=2 2 2 2 2 2
left_child=1 2 -1 5 -2 -3
right_child=4 3 -4 -5 -6 -7
leaf_value=-0.00053454355421948233 0.00052078822778086936 0.0040808268263283973 -0.0060030171248570026 -0.00024738331267672457 0.011389916233895927 0.0020183929956044603
leaf_weight=14.000000000000002 10.999999999999998 11.000000000000005 11.999999999999998 9.9999999999999982 110 9.9999999999999982
leaf_count=14 11 11 12 10 110 10
internal_value=0.00162921 -0.00552632 -0.0142308 0.00177419 0.005 0.005
internal_weight=178 57 26 31 121 21
internal_count=178 57 26 31 121 21
is_linear=0
shrinkage=0.05


Tree=26
num_leaves=6
num_cat=0
split_feature=0 5 6 15 0
split_gain=1.47647 0.484776 0.993457 0.0655172 2.22045e-16
threshold=4.2454352421312516 4.6268441699822001 4.5798718542904666 0.10869490678724453 4.653414608081774
decision_type=2 2 2 2 2
left_child=-1 2 3 -2 -3
right_child=1 4 -4 -5 -6
leaf_value=-0.0039309274413984463 0.0024757414199972675 0.00049474881639183547 -0.00050646774262621977 0.0028357732328009779 0.010820420422201119
leaf_weight=18 10.000000000000002 10.999999999999998 9.9999999999999982 19 110
leaf_count=18 10 11 10 19 110
internal_value=0.00191011 0.0034375 -0.00141026 0.00327586 0.005
internal_weight=178 160 39 29 121
internal_count=178 160 39 29 121
is_linear=0
shrinkage=0.05


Tree=27
num_leaves=6
num_cat=0
split_feature=0 5 6 15 0
split_gain=1.47647 0.484776 0.993457 0.0655172 2.22045e-16
threshold=4.2454352421312516 4.6268441699822001 4.5798718542904666 0.10869490678724453 4.653414608081774
decision_type=2 2 2 2 2
left_child=-1 2 3 -2 -3
right_child=1 4 -4 -5 -6
leaf_value=-0.0037343810693285296 0.0023519543489974194 0.00047001137557224664 -0.00048114435549489348 0.0026939845711609479 0.010279399401091073
leaf_weight=18 10.000000000000002 10.999999999999998 9.9999999999999982 19 110
leaf_count=18 10 11 10 19 110
internal_value=0.00191011 0.0034375 -0.00141026 0.00327586 0.005
internal_weight=178 160 39 29 121
internal_count=178 160 39 29 121
is_linear=0
shrinkage=0.05


Tree=28
num_leaves=7
num_cat=0
split_feature=2 16 15 0 9 0
split_gain=1.75781 1.38846 0.352313 0.45 0.0833333 2.22045e-16
threshold=6.773750066757203 122.48120117187501 0.10573958196636647 4.6349011483560529 4.103237078304109 4.8003695990552844
decision_type=2 2 2 2 2 2
left_child=1 -1 3 -2 -4 -6
right_child=2 -3 4 -5 5 -7
leaf_value=0.00033619781097190778 -0.00047953178962165452 -0.0057493921467798425 0.0055681007297014281 0.0046356920625420959 0.0014555707359635813 0.019235554359083952
leaf_weight=16.000000000000004 10.000000000000002 9.9999999999999982 10.999999999999998 9.9999999999999982 29 92
leaf_count=16 10 10 11 10 29 92
internal_value=0.00162921 -0.0103846 0.00368421 -0.0025 0.00462121 0.005
internal_weight=178 26 152 20 132 121
internal_count=178 26 152 20 132 121
is_linear=0
shrinkage=0.05


Tree=29
num_leaves=7
num_cat=0
split_feature=11 16 19 6 1 1
split_gain=1.86723 1.20714 1.44759 2.53144 2.22045e-16 2.22045e-16
threshold=4.6560430794884331 124.13899993896486 20.500000000000004 4.103237078304109 5.9974999427795419 5.2612500190734872
decision_type=2 2 2 2 2 2
left_child=1 2 -1 -4 5 -2
right_child=4 -3 3 -5 -6 -7
leaf_value=0.00068581628551022886 0.00653791707366251 0.0038991752008968312 0.00055420805538131275 -0.0047368080978695383 0.037339183269797481 0.068744077389679234
leaf_weight=19 92 18 10.000000000000002 12.999999999999998 9.9999999999999982 15.999999999999998
leaf_count=19 92 18 10 13 10 16
internal_value=0.00134831 -0.00583333 -0.0104762 -0.018913 0.005 0.005
internal_weight=178 60 42 23 118 108
internal_count=178 60 42 23 118 108
is_linear=0
shrinkage=0.05


Tree=30
num_leaves=6
num_cat=0
split_feature=0 5 12 0 0
split_gain=1.54072 0.41675 1.08387 4.44089e-16 2.77556e-17
threshold=4.2454352421312516 4.5993995847180882 4.5841689529842169 7.1794720770717522 4.4737135345398942
decision_type=2 2 2 2 2
left_child=-1 2 4 -3 -2
right_child=1 3 -4 -5 -6
leaf_value=-0.0030233520036296426 0.00017037752140462064 0.0050927892593831472 -0.00066174128587849078 0.039762518080864874 0.0063850431438185794
leaf_weight=18 11.000000000000005 116 9.9999999999999982 13.999999999999998 9.9999999999999982
leaf_count=18 11 116 10 14 10
internal_value=0.0022067 0.00375776 -0.00145161 0.005 0.005
internal_weight=179 161 31 130 21
internal_count=179 161 31 130 21
is_linear=0
shrinkage=0.05


Tree=31
num_leaves=6
num_cat=0
split_feature=11 14 19 6 0
split_gain=2.12859 1.26061 1.40196 2.93333 2.22045e-16
threshold=4.6560430794884331 4.4096447902665563 20.500000000000004 4.103237078304109 7.1794720770717522
decision_type=2 2 2 2 2
left_child=1 -1 -3 -4 -2
right_child=4 2 3 -5 -6
leaf_value=0.0014912190530029991 0.006787802964127173 0.00010130783983970638 0.00067766525279373715 -0.004660481773896971 0.037774392176821631
leaf_weight=15.999999999999998 110 17 10.000000000000002 11.999999999999998 13.999999999999998
leaf_count=16 110 17 10 12 14
internal_value=0.00136872 -0.00681818 -0.0116667 -0.02 0.005
internal_weight=179 55 39 22 124
internal_count=179 55 39 22 124
is_linear=0
shrinkage=0.05


Tree=32
num_leaves=6
num_cat=0
split_feature=0 7 20 5 0
split_gain=2.08378 0.889418 1.50509 0.0927007 2.22045e-16
threshold=4.5379765508445535 4.2454352421312516 5.5000000000000009 4.5993995847180882 4.6897131776889625
decision_type=2 2 2 2 2
left_child=1 -1 -3 -2 -5
right_child=3 2 -4 4 -6
leaf_value=0.0016356550683889323 0.0012902329391252913 2.114179798541954e-05 -0.004115776004099736 0.00018862307233085009 0.0094105194113283264
leaf_weight=14.999999999999998 9.9999999999999982 14.000000000000002 12.999999999999998 10.999999999999998 116
leaf_count=15 10 14 13 11 116
internal_value=0.00164804 -0.00809524 -0.0135185 0.00463504 0.005
internal_weight=179 42 27 137 127
internal_count=179 42 27 137 127
is_linear=0
shrinkage=0.05


Tree=33
num_leaves=6
num_cat=0
split_feature=0 5 2 0 0
split_gain=1.60339 0.234422 0.609677 4.44089e-16 2.77556e-17
threshold=4.2454352421312516 4.5993995847180882 9.4049997329711932 7.1794720770717522 4.4967361392305056
decision_type=2 2 2 2 2
left_child=-1 2 4 -3 -2
right_child=1 3 -4 -5 -6
leaf_value=-0.0024333715145483216 0.00017006395389567214 0.0040282336776412036 -0.00066807686080241663 0.035415146597414147 0.0033275915221178676
leaf_weight=18 11.000000000000005 116 9.9999999999999982 13.999999999999998 9.9999999999999982
leaf_count=18 11 116 10 14 10
internal_value=0.00248603 0.00406832 0.000161291 0.005 0.005
internal_weight=179 161 31 130 21
internal_count=179 161 31 130 21
is_linear=0
shrinkage=0.05


Tree=34
num_leaves=5
num_cat=0
split_feature=11 17 19 3
split_gain=2.02078 1.64762 1.98294 0.485294
threshold=4.6793354911994234 167.4164962768555 20.500000000000004 2163.0000000000005
decision_type=2 2 2 2
left_child=1 3 -3 -1
right_child=-2 2 -4 -5
leaf_value=-0.00047791604478773173 0.0082860906977699107 6.702232857185566e-05 -0.0037883186281673312 0.00080063966875191855
leaf_weight=11.999999999999998 122 10.000000000000002 12.999999999999998 22
leaf_count=12 122 10 13 22
internal_value=0.00136872 -0.00640351 -0.0167391 0.000588235
internal_weight=179 57 23 34
internal_count=179 57 23 34
is_linear=0
shrinkage=0.05


Tree=35
num_leaves=5
num_cat=0
split_feature=0 9 15 0
split_gain=1.55291 0.439738 0.0766219 2.22045e-16
threshold=4.2454352421312516 4.3768171004543248 0.085620038630531012 7.0009163379684383
decision_type=2 2 2 2
left_child=-1 -2 -3 -4
right_child=1 2 3 -5
leaf_value=-0.0021222870074125268 -0.00021083542483303627 0.0013287334251499805 0.0036149561130638741 0.040905619341581739
leaf_weight=18 17 11.999999999999998 114 23
leaf_count=18 17 12 114 23
internal_value=0.00228261 0.00379518 0.00466443 0.005
internal_weight=184 166 149 137
internal_count=184 166 149 137
is_linear=0
shrinkage=0.05


Tree=36
num_leaves=6
num_cat=0
split_feature=6 6 2 6 0
split_gain=2.09607 1.36634 1.52771 1.39163 5.55112e-17
threshold=4.6949006963190252 4.5987191523940405 8.6737499237060565 4.103237078304109 4.5182225591009528
decision_type=2 2 2 2 2
left_child=1 2 3 -1 -4
right_child=-2 -3 4 -5 -6
leaf_value=0.00086091990096769035 0.010670595435655761 -0.00046137361482423422 0.0030248412502960919 -0.0037881114842576169 0.00083383232452484901
leaf_weight=11.000000000000002 122 10.999999999999998 16.000000000000004 11.999999999999998 11.999999999999998
leaf_count=11 122 11 16 12 12
internal_value=0.00119565 -0.00629032 -0.00284314 -0.0123913 0.005
internal_weight=184 62 51 23 28
internal_count=184 62 51 23 28
is_linear=0
shrinkage=0.05


Tree=37
num_leaves=7
num_cat=0
split_feature=14 10 6 4 1 0
split_gain=2.1311 2.12301 0.726435 0.270968 0.0923664 2.22045e-16
threshold=4.9604025884188765 5.1685241750784741 4.6184942331878096 4.103237078304109 3.497500061988831 4.8003695990552844
decision_type=2 2 2 2 2 2
left_child=1 2 3 -1 -2 -6
right_child=4 -3 -4 -5 5 -7
leaf_value=-0.00025378506108643455 0.00040947964274686818 -0.0038940290479140272 -0.0004383049365001934 0.00031713686309279703 0.0024459010617302601 0.023617982354224545
leaf_weight=10.000000000000002 9.9999999999999982 10.999999999999998 10.999999999999998 21 14.999999999999998 106
leaf_count=10 10 11 11 21 15 106
internal_value=0.00119565 -0.00726415 -0.00214286 0.00177419 0.00461832 0.005
internal_weight=184 53 42 31 131 121
internal_count=184 53 42 31 131 121
is_linear=0
shrinkage=0.05


Tree=38
num_leaves=5
num_cat=0
split_feature=0 9 15 0
split_gain=1.55291 0.439738 0.0766219 2.22045e-16
threshold=4.2454352421312516 4.3768171004543248 0.085620038630531012 7.0009163379684383
decision_type=2 2 2 2
left_child=-1 -2 -3 -4
right_child=1 2 3 -5
leaf_value=-0.0016320656304333215 -0.00039037691123302849 0.0011074105271714299 0.0032657242592689529 0.037145909485008642
leaf_weight=18 17 11.999999999999998 114 23
leaf_count=18 17 12 114 23
internal_value=0.00228261 0.00379518 0.00466443 0.005
internal_weight=184 166 149 137
internal_count=184 166 149 137
is_linear=0
shrinkage=0.05


Tree=39
num_leaves=7
num_cat=0
split_feature=14 10 16 0 1 0
split_gain=2.48292 1.9231 1.45833 0.275 0.0923664 2.22045e-16
threshold=4.9604025884188765 5.1685241750784741 122.32360076904298 4.6061064683472752 3.497500061988831 4.8003695990552844
decision_type=2 2 2 2 2 2
left_child=1 2 -1 -4 -2 -6
right_child=4 -3 3 -5 5 -7
leaf_value=-0.00051559686967615 0.00023651101485927084 -0.0036177243139966508 0.0024641301516163537 -0.00035785167709631875 0.0022682354822851857 0.022253931822008646
leaf_weight=9.9999999999999982 9.9999999999999982 10.999999999999998 22 9.9999999999999982 14.999999999999998 106
leaf_count=10 10 11 22 10 15 106
internal_value=0.000923913 -0.00820755 -0.00333333 0.001875 0.00461832 0.005
internal_weight=184 53 42 32 131 121
internal_count=184 53 42 32 131 121
is_linear=0
shrinkage=0.05


Tree=40
num_leaves=6
num_cat=0
split_feature=14 16 13 3 9
split_gain=2.37958 1.56654 0.953675 0.0924812 0.05
threshold=4.8016934578079686 124.13899993896486 4.4195053224922001 2643.0000000000005 4.2454352421312516
decision_type=2 2 2 2 2
left_child=1 2 -1 -2 -3
right_child=3 4 -4 -5 -6
leaf_value=-0.00010982320365901626 0.0036679533659927221 0.0026904875402247621 -0.0022628480162156061 0.063359000097975515 0.0037117913182074754
leaf_weight=11.000000000000002 123 10.000000000000002 18 9.9999999999999982 9.9999999999999982
leaf_count=11 123 10 18 10 10
internal_value=0.00115385 -0.00826531 -0.0156897 0.00462406 0.0025
internal_weight=182 49 29 133 20
internal_count=182 49 29 133 20
is_linear=0
shrinkage=0.05


Tree=41
num_leaves=10
num_cat=0
split_feature=2 19 9 14 7 1 0 0 1
split_gain=1.99599 1.76471 0.559497 0.229004 0.0913614 0.278788 2.22045e-16 5.55112e-17 2.77556e-17
threshold=6.773750066757203 34.500000000000007 4.436448017068594 4.4054896337264049 5.2481226866716346 3.7000000476837163 6.9166979178563137 7.4818760995139435 5.5387499332427987
decision_type=2 2 2 2 2 2 2 2 2
left_child=1 -1 3 -2 5 -4 -6 8 -8
right_child=2 -3 4 -5 6 -7 7 -9 -10
leaf_value=-0.0035811002147103132 0.00289219768934155 0.0032447921224258471 0.00013686615302269467 -0.00040390896063068749 0.017505457389071478 -6.315862710497999e-06 0.060291312032050431 0.024182173774905683 0.053283515121484153
leaf_weight=17.000000000000004 11.000000000000002 9.9999999999999982 23 9.9999999999999982 71 9.9999999999999982 10.000000000000005 9.9999999999999982 9.9999999999999982
leaf_count=17 11 10 23 10 71 10 10 10 10
internal_value=0.000879121 -0.0116667 0.00306452 -0.00452381 0.00425373 0.0019697 0.005 0.005 0.005
internal_weight=182 27 155 21 134 33 101 30 20
internal_count=182 27 155 21 134 33 101 30 20
is_linear=0
shrinkage=0.05


Tree=42
num_leaves=10
num_cat=0
split_feature=4 7 4 11 11 0 0 0 1
split_gain=1.16887 0.449011 0.482576 0.846225 0.251852 2.22045e-16 5.55112e-17 5.55112e-17 2.77556e-17
threshold=4.1869114647363928 5.2481226866716346 4.5215254237146381 4.6370396289353311 4.7638433006777321 6.9166979178563137 4.4399859354652547 7.4818760995139435 5.5387499332427987
decision_type=2 2 2 2 2 2 2 2 2
left_child=-1 2 6 -4 -5 -3 -2 8 -7
right_child=1 5 3 4 -6 7 -8 -9 -10
leaf_value=-0.0019633481352733908 0.00014212965530750767 0.016630184519617907 -0.001587595658839339 0.00025313870816310831 -7.9106690337393123e-05 0.057276746430447917 8.6305072396042877e-05 0.022973065086160416 0.050619339365409924
leaf_weight=14.999999999999998 15.000000000000002 71 12.999999999999998 17.000000000000004 9.9999999999999982 10.000000000000005 10.999999999999998 9.9999999999999982 9.9999999999999982
leaf_count=15 15 71 13 17 10 10 11 10 10
internal_value=0.0017033 0.00290419 -0.00030303 -0.00375 0.0012963 0.005 0.005 0.005 0.005
internal_weight=182 167 66 40 27 101 26 30 20
internal_count=182 167 66 40 27 101 26 30 20
is_linear=0
shrinkage=0.05


Tree=43
num_leaves=6
num_cat=0
split_feature=2 3 9 15 0
split_gain=0.993393 0.666667 0.399553 0.335268 4.44089e-16
threshold=6.6575000286102304 2437.0000000000005 4.3768171004543248 0.45039905122958396 7.1794720770717522
decision_type=2 2 2 2 2
left_child=1 -1 -2 4 -4
right_child=2 -3 3 -5 -6
leaf_value=7.2373621170841604e-05 -0.00034407738998370666 -0.0036425422738374917 0.0028544022657480063 -1.5634478632362005e-05 0.022903030837156422
leaf_weight=12.000000000000002 17 11.999999999999998 116 10.999999999999998 13.999999999999998
leaf_count=12 17 12 116 11 14
internal_value=0.00197802 -0.0075 0.00341772 0.00429078 0.005
internal_weight=182 24 158 141 130
internal_count=182 24 158 141 130
is_linear=0
shrinkage=0.05


Tree=44
num_leaves=8
num_cat=0
split_feature=11 12 0 15 5 7 0
split_gain=1.55048 1.27732 1.05861 0.302343 0.215488 0.0915254 2.22045e-16
threshold=4.6370396289353311 4.4413548516061452 4.4399859354652547 0.45039905122958396 4.103237078304109 4.6747499050756129 7.0009163379684383
decision_type=2 2 2 2 2 2 2
left_child=1 4 -3 5 -1 -2 -7
right_child=3 2 -4 -5 -6 6 -8
leaf_value=-0.00012868931393324718 -1.1713241740684947e-05 -8.0137408197439644e-05 -0.0014778708015330969 -1.4852754700730998e-05 0.0034093191035221427 0.0065583320774725007 0.025579576244821284
leaf_weight=11.000000000000002 9.9999999999999982 12.000000000000002 13.999999999999998 10.999999999999998 15.999999999999998 86 22
leaf_count=11 10 12 14 11 16 86 22
internal_value=0.000879121 -0.00632075 -0.0142308 0.00383721 0.0012963 0.00457627 0.005
internal_weight=182 53 26 129 27 118 108
internal_count=182 53 26 129 27 118 108
is_linear=0
shrinkage=0.05


Tree=45
num_leaves=11
num_cat=0
split_feature=0 20 7 15 15 10 0 0 0 0
split_gain=0.69039 0.778363 0.828412 0.710071 0.493255 0.2 1.11022e-16 1.11022e-16 5.55112e-17 5.55112e-17
threshold=5.1685241750784741 8.5000000000000018 4.4967361392305056 0.18321009250764789 0.09862390140809793 4.5738341821505388 7.4818760995139435 6.7808200757897943 4.3742090751591247 7.1036856385576561
decision_type=2 2 2 2 2 2 2 2 2 2
left_child=1 2 -1 4 -4 -6 7 -2 -3 -9
right_child=6 8 3 -5 5 -7 -8 9 -10 -11
leaf_value=6.7860259270050108e-05 0.023904944928485473 0.0026239031915735855 -0.0014558944075033623 -0.0029945647022217416 -7.6545443892871292e-05 3.6605466196745202e-05 0.018547381927774033 0.069894199490620076 0.0023974604966191101 0.036508925807457876
leaf_weight=15.999999999999998 58 9.9999999999999982 11.000000000000002 9.9999999999999982 10.000000000000002 9.9999999999999982 10.999999999999998 16.000000000000004 23 9.9999999999999982
leaf_count=16 58 10 11 10 10 10 11 16 23 10
internal_value=0.00202703 -0.00111111 -0.00464912 -0.00841463 -0.00467742 1.86265e-10 0.005 0.005 0.005 0.005
internal_weight=185 90 57 41 31 20 95 84 33 26
internal_count=185 90 57 41 31 20 95 84 33 26
is_linear=0
shrinkage=0.05


Tree=46
num_leaves=9
num_cat=0
split_feature=12 7 4 0 16 0 0 0
split_gain=0.713947 1.20839 0.590567 0.0316667 0.06 1.11022e-16 1.11022e-16 5.55112e-17
threshold=4.7405450073207493 4.4967361392305056 4.5215254237146381 5.1685241750784741 120.75984954833986 7.4818760995139435 6.7808200757897943 7.1036856385576561
decision_type=2 2 2 2 2 2 2 2
left_child=1 -1 -3 4 -2 6 -5 -8
right_child=3 2 -4 5 -6 -7 7 -9
leaf_value=0.00023788441522582492 8.3664786056319824e-05 -0.000610248704684821 -0.0013311825410812419 0.022709697682061193 0.0025112730106881384 0.017620012831385347 0.066399489516089066 0.034683479517084989
leaf_weight=32 10.000000000000002 19 13.999999999999998 58 14.999999999999998 10.999999999999998 16.000000000000004 9.9999999999999982
leaf_count=32 10 19 14 58 15 11 16 10
internal_value=0.0022973 -0.00192308 -0.00863636 0.00458333 0.003 0.005 0.005 0.005
internal_weight=185 65 33 120 25 95 84 26
internal_count=185 65 33 120 25 95 84 26
is_linear=0
shrinkage=0.05


Tree=47
num_leaves=10
num_cat=0
split_feature=11 6 3 15 0 4 0 0 0
split_gain=1.07057 2.13737 0.444444 0.8 0.0835165 0.249351 1.11022e-16 1.11022e-16 5.55112e-17
threshold=4.6370396289353311 4.5987191523940405 2484.0000000000005 0.10869490678724453 5.1685241750784741 4.8438949171446151 7.4818760995139435 6.7808200757897943 7.1036856385576561
decision_type=2 2 2 2 2 2 2 2 2
left_child=1 2 -1 -4 5 -2 7 -6 -9
right_child=4 -3 3 -5 6 -7 -8 8 -10
leaf_value=0.00039079230770255793 0.00077422161260772232 -0.0015162262464094244 0.00263346345521046 -0.0028143240318764199 0.021574212797958126 -0.00037672565645173272 0.01673901218981606 0.063079515040284626 0.032949305541230739
leaf_weight=25 24 9.9999999999999982 10.000000000000002 9.9999999999999982 58 10.999999999999998 10.999999999999998 16.000000000000004 9.9999999999999982
leaf_count=25 24 10 10 10 58 11 11 16 10
internal_value=0.00175676 -0.00409091 0.000555556 -0.005 0.00423077 0.00214286 0.005 0.005 0.005
internal_weight=185 55 45 20 130 35 95 84 26
internal_count=185 55 45 20 130 35 95 84 26
is_linear=0
shrinkage=0.05


Tree=48
num_leaves=5
num_cat=0
split_feature=12 7 0 15
split_gain=0.654844 1.28562 1.15236 0.0753968
threshold=4.7139665165140592 4.4967361392305056 4.4496188867746413 0.43380937877409981
decision_type=2 2 2 2
left_child=1 -1 -3 -2
right_child=3 2 -4 -5
leaf_value=0.00018727911383413195 0.0034859757404433374 -0.0012453380103686022 -0.0012407292477536317 0.00068723335434604175
leaf_weight=32 114 16.000000000000004 10.999999999999998 11.999999999999998
leaf_count=32 114 16 11 12
internal_value=0.00256757 -0.00177966 -0.00981481 0.00460317
internal_weight=185 59 27 126
internal_count=185 59 27 126
is_linear=0
shrinkage=0.05


Tree=49
num_leaves=6
num_cat=0
split_feature=12 7 0 15 0
split_gain=0.713947 1.20839 0.677807 0.075 2.22045e-16
threshold=4.7405450073207493 4.4967361392305056 4.4496188867746413 0.43380937877409981 7.1036856385576561
decision_type=2 2 2 2 2
left_child=1 -1 -3 4 -2
right_child=3 2 -4 -5 -6
leaf_value=0.00017791515814244394 0.0055009541138195247 -0.0011830711098501758 -0.0010748584932720572 0.00065287168662875534 0.016201595884470212
leaf_weight=32 92 15.999999999999998 17 11.999999999999998 15.999999999999998
leaf_count=32 92 16 17 12 16
internal_value=0.0022973 -0.00192308 -0.00863636 0.00458333 0.005
internal_weight=185 65 33 120 108
internal_count=185 65 33 120 108
is_linear=0
shrinkage=0.05


end of trees

feature_importances:
Column_0=83
Column_2=26
Column_1=19
Column_15=16
Column_4=15
Column_12=14
Column_3=12
Column_16=12
Column_5=11
Column_7=10
Column_6=9
Column_11=7
Column_9=6
Column_14=6
Column_19=6
Column_18=5
Column_17=4
Column_10=3
Column_13=3
Column_8=2
Column_20=2

parameters:
[boosting: gbdt]
[objective: quantile]
[metric: quantile]
[tree_learner: serial]
[device_type: cpu]
[data_sample_strategy: bagging]
[data: ]
[valid: ]
[num_iterations: 800]
[learning_rate: 0.05]
[num_leaves: 31]
[num_threads: 0]
[seed: 42]
[deterministic: 0]
[force_col_wise: 0]
[force_row_wise: 0]
[histogram_pool_size: -1]
[max_depth: -1]
[min_data_in_leaf: 10]
[min_sum_hessian_in_leaf: 0.001]
[bagging_fraction: 0.9]
[pos_bagging_fraction: 1]
[neg_bagging_fraction: 1]
[bagging_freq: 5]
[bagging_seed: 400]
[bagging_by_query: 0]
[feature_fraction: 0.9]
[feature_fraction_bynode: 1]
[feature_fraction_seed: 30056]
[extra_trees: 0]
[extra_seed: 12879]
[early_stopping_round: 0]
[early_stopping_min_delta: 0]
[first_metric_only: 0]
[max_delta_step: 0]
[lambda_l1: 0]
[lambda_l2: 0]
[linear_lambda: 0]
[min_gain_to_split: 0]
[drop_rate: 0.1]
[max_drop: 50]
[skip_drop: 0.5]
[xgboost_dart_mode: 0]
[uniform_drop: 0]
[drop_seed: 17869]
[top_rate: 0.2]
[other_rate: 0.1]
[min_data_per_group: 100]
[max_cat_threshold: 32]
[cat_l2: 10]
[cat_smooth: 10]
[max_cat_to_onehot: 4]
[top_k: 20]
[monotone_constraints: ]
[monotone_constraints_method: basic]
[monotone_penalty: 0]
[feature_contri: ]
[forcedsplits_filename: ]
[refit_decay_rate: 0.9]
[cegb_tradeoff: 1]
[cegb_penalty_split: 0]
[cegb_penalty_feature_lazy: ]
[cegb_penalty_feature_coupled: ]
[path_smooth: 0]
[interaction_constraints: ]
[verbosity: -1]
[saved_feature_importance_type: 0]
[use_quantized_grad: 0]
[num_grad_quant_bins: 4]
[quant_train_renew_leaf: 0]
[stochastic_rounding: 1]
[linear_tree: 0]
[max_bin: 255]
[max_bin_by_feature: ]
[min_data_in_bin: 3]
[bin_construct_sample_cnt: 200000]
[data_random_seed: 175]
[is_enable_sparse: 1]
[enable_bundle: 1]
[use_missing: 1]
[zero_as_missing: 0]
[feature_pre_filter: 1]
[pre_partition: 0]
[two_round: 0]
[header: 0]
[label_column: ]
[weight_column: ]
[group_column: ]
[ignore_column: ]
[categorical_feature: ]
[forcedbins_filename: ]
[precise_float_parser: 0]
[parser_config_file: ]
[objective_seed: 16083]
[num_class: 1]
[is_unbalance: 0]
[scale_pos_weight: 1]
[sigmoid: 1]
[boost_from_average: 1]
[reg_sqrt: 0]
[alpha: 0.1]
[fair_c: 1]
[poisson_max_delta_step: 0.7]
[tweedie_variance_power: 1.5]
[lambdarank_truncation_level: 30]
[lambdarank_norm: 1]
[label_gain: ]
[lambdarank_position_bias_regularization: 0]
[eval_at: ]
[multi_error_top_k: 1]
[auc_mu_weights: ]
[num_machines: 1]
[local_listen_port: 12400]
[time_out: 120]
[machine_list_filename: ]
[machines: ]
[gpu_platform_id: -1]
[gpu_device_id: -1]
[gpu_use_dp: 0]
[num_gpu: 1]

end of parameters

pandas_categorical:null
