tree
version=v4
num_class=1
num_tree_per_iteration=1
label_index=0
max_feature_idx=21
objective=quantile
feature_names=Column_0 Column_1 Column_2 Column_3 Column_4 Column_5 Column_6 Column_7 Column_8 Column_9 Column_10 Column_11 Column_12 Column_13 Column_14 Column_15 Column_16 Column_17 Column_18 Column_19 Column_20 Column_21
feature_infos=[3.8250012595449858:8.0025021664110056] [2.9700000286102295:6.7699999809265137] [5.755000114440918:14.399999618530273] [1370:2822] [3.8250012595449858:8.0025021664110056] [3.8250012595449858:8.0025021664110056] [3.8250012595449858:8.0025021664110056] [3.8250012595449858:8.0025021664110056] [3.8250012595449858:8.0025021664110056] [3.8250012595449858:8.0025021664110056] [3.109719111473856:8.0025021664110056] [3.8915906007990086:7.922449918787394] [3.9951053301251727:7.7630479140870321] [4.1643582574604956:7.313794523562847] [4.3357232480644816:7.1227510993336232] [0.062588336455152577:0.51309032248165554] [112.54759979248047:129.86639404296875] [156.3800048828125:255.30299377441406] [2021:2025] [1:52] [1:12] [1:4]
tree_sizes=482 712 615 639 638 729 730 721 796 615 721 799 813 794 722 821 626 626 707 723 823 738 608 699 724 747 815 704 821 742 736 617 817 723 615 507 626 724 706 629 595 818 794 615 879 1018 982 982 1097 899 810 925 1116 994 880

Tree=0
num_leaves=4
num_cat=0
split_feature=14 14 8
split_gain=5.40659 8.62795 0.635294
threshold=4.9604025884188765 4.4921203372812171 4.5529892376980987
decision_type=2 2 2
left_child=1 2 -1
right_child=-2 -3 -4
leaf_value=4.2348230863214376 4.2398364926936551 4.2083425462994057 4.2228200293305989
leaf_weight=24 123 18 9.9999999999999982
leaf_count=24 123 18 10
internal_value=4.22424 4.21073 4.22555
internal_weight=175 52 34
internal_count=175 52 34
is_linear=0
shrinkage=1


Tree=1
num_leaves=6
num_cat=0
split_feature=12 7 19 8 0
split_gain=4.62857 3.92 3.22667 0.24 2.22045e-16
threshold=4.624770135186191 4.4157533214535034 20.500000000000004 4.2454352421312516 7.1794720770717522
decision_type=2 2 2 2 2
left_child=1 3 -3 -1 -2
right_child=4 2 -4 -5 -6
leaf_value=0.010319263889506837 0.010048282632101113 -0.0033584615088964043 -0.016669690253086424 -0.0016888757846796666 0.12102855253927772
leaf_weight=15.000000000000002 110 10.000000000000002 14.999999999999998 9.9999999999999982 14.999999999999998
leaf_count=15 110 10 15 10 15
internal_value=-0.000142857 -0.013 -0.027 0.001 0.005
internal_weight=175 50 25 25 125
internal_count=175 50 25 25 125
is_linear=0
shrinkage=0.05


Tree=2
num_leaves=5
num_cat=0
split_feature=12 17 8 19
split_gain=4.74846 4.07815 1.16053 1.25
threshold=4.6599609834147548 171.11700439453128 4.4967361392305056 21.500000000000004
decision_type=2 2 2 2
left_child=1 2 -1 -4
right_child=-2 -3 3 -5
leaf_value=0.0099737443531173475 0.011532665145859666 -0.015836205740432121 0.011642387079509649 -0.0062973956530980495
leaf_weight=18 122 14.999999999999998 10.000000000000002 9.9999999999999982
leaf_count=18 122 15 10 10
internal_value=-0.000428571 -0.0129245 -0.00421053 -0.0125
internal_weight=175 53 38 20
internal_count=175 53 38 20
is_linear=0
shrinkage=0.05


Tree=3
num_leaves=5
num_cat=0
split_feature=2 16 15 14
split_gain=4.43965 3.39415 1.14137 2.21538
threshold=6.773750066757203 122.43024826049806 0.11189938310247687 5.0463281397236157
decision_type=2 2 2 2
left_child=1 -1 3 -2
right_child=2 -3 -4 -5
leaf_value=-0.0011964712962252257 -0.0060469433208271556 -0.016225688004887662 0.01447617231312014 0.011027139051250049
leaf_weight=16.000000000000004 10.000000000000002 10.999999999999998 122 15.999999999999998
leaf_count=16 10 11 122 16
internal_value=-0.000428571 -0.0190741 0.00297297 -0.00653846
internal_weight=175 27 148 26
internal_count=175 27 148 26
is_linear=0
shrinkage=0.05


Tree=4
num_leaves=5
num_cat=0
split_feature=2 16 15 14
split_gain=3.72515 2.5928 1.14137 2.21538
threshold=6.773750066757203 122.43024826049806 0.11189938310247687 5.0463281397236157
decision_type=2 2 2 2
left_child=1 -1 3 -2
right_child=2 -3 -4 -5
leaf_value=-0.001136647731413958 -0.0057445961547857938 -0.015414403604643301 0.013752363697464121 0.010475782098687551
leaf_weight=16.000000000000004 10.000000000000002 10.999999999999998 122 15.999999999999998
leaf_count=16 10 11 122 16
internal_value=-0.000142857 -0.0172222 0.00297297 -0.00653846
internal_weight=175 27 148 26
internal_count=175 27 148 26
is_linear=0
shrinkage=0.05


Tree=5
num_leaves=6
num_cat=0
split_feature=14 10 8 0 0
split_gain=4.30127 6.77772 1.59705 2.22045e-16 5.55112e-17
threshold=4.9604025884188765 5.1685241750784741 4.5529892376980987 7.1794720770717522 4.5619028876570331
decision_type=2 2 2 2 2
left_child=1 2 4 -2 -1
right_child=3 -3 -4 -5 -6
leaf_value=0.0072688346942325404 0.012692424606597738 -0.014348360286541873 -0.0051153504671082239 0.1109060733200086 0.010161786998444859
leaf_weight=15.000000000000002 116 11.999999999999998 10.999999999999998 15.999999999999998 10.999999999999998
leaf_count=15 116 12 11 16 11
internal_value=0.000303868 -0.0123469 -0.00175676 0.005 0.005
internal_weight=181 49 37 132 26
internal_count=181 49 37 132 26
is_linear=0
shrinkage=0.05


Tree=6
num_leaves=6
num_cat=0
split_feature=14 10 8 0 0
split_gain=3.81012 7.20794 1.02211 2.22045e-16 5.55112e-17
threshold=4.9604025884188765 5.1685241750784741 4.5529892376980987 7.1794720770717522 4.5619028876570331
decision_type=2 2 2 2 2
left_child=1 2 4 -2 -1
right_child=3 -3 -4 -5 -6
leaf_value=0.006905392959520907 0.01205780337626787 -0.013630942272214775 -0.0048595829437527915 0.10536076965400816 0.0096536976485225995
leaf_weight=15.000000000000002 116 11.999999999999998 10.999999999999998 15.999999999999998 10.999999999999998
leaf_count=15 116 12 11 16 11
internal_value=0.000580111 -0.0113265 -0.000405405 0.005 0.005
internal_weight=181 49 37 132 26
internal_count=181 49 37 132 26
is_linear=0
shrinkage=0.05


Tree=7
num_leaves=6
num_cat=0
split_feature=2 16 15 14 0
split_gain=3.45959 2.30455 0.624017 1.30208 2.22045e-16
threshold=6.773750066757203 121.99224853515626 0.13236681764425398 4.9604025884188765 7.4818760995139435
decision_type=2 2 2 2 2
left_child=1 -1 3 -2 -4
right_child=2 -3 4 -5 -6
leaf_value=0.00031311892050118274 -0.0044692414137645275 -0.012949395158604028 0.013995945146234187 0.0072038491296739157 0.098294315960488279
leaf_weight=10.000000000000002 11.999999999999998 11.999999999999998 116 20 10.999999999999998
leaf_count=10 12 12 116 20 11
internal_value=0.000856354 -0.0177273 0.00342767 -0.0028125 0.005
internal_weight=181 22 159 32 127
internal_count=181 22 159 32 127
is_linear=0
shrinkage=0.05


Tree=8
num_leaves=7
num_cat=0
split_feature=2 16 14 16 0 18
split_gain=3.45959 2.30455 0.557053 1.20879 2.22045e-16 2.77556e-17
threshold=6.773750066757203 121.99224853515626 4.9604025884188765 123.88545227050783 7.2311847044911932 2024.5000000000002
decision_type=2 2 2 2 2 2
left_child=1 -1 3 -2 -4 -5
right_child=2 -3 4 5 -6 -7
leaf_value=0.00029746297447612118 -0.0042340465147520327 -0.012301925400673808 0.01470847360817 0.010920315046693219 0.09445864928895556 0.0085515917836701486
leaf_weight=10.000000000000002 12.999999999999998 11.999999999999998 110 10 13.999999999999998 12
leaf_count=10 13 12 110 10 14 12
internal_value=0.000856354 -0.0177273 0.00342767 -0.00214286 0.005 0.005
internal_weight=181 22 159 35 124 22
internal_count=181 22 159 35 124 22
is_linear=0
shrinkage=0.05


Tree=9
num_leaves=5
num_cat=0
split_feature=14 17 13 0
split_gain=2.91713 4.9 0.642857 2.22045e-16
threshold=4.9604025884188765 167.4164962768555 4.5180272148020597 7.1794720770717522
decision_type=2 2 2 2
left_child=1 2 -1 -2
right_child=3 -3 -4 -5
leaf_value=0.0071292538448072644 0.010189494611952427 -0.011096182854901528 -0.003953777346323766 0.090455082908835582
leaf_weight=25 116 13.999999999999998 9.9999999999999982 15.999999999999998
leaf_count=25 116 14 10 16
internal_value=0.0011326 -0.00928571 0.000714286 0.005
internal_weight=181 49 35 132
internal_count=181 49 35 132
is_linear=0
shrinkage=0.05


Tree=10
num_leaves=6
num_cat=0
split_feature=2 16 15 9 0
split_gain=3.17669 3.2775 0.466165 1.02857 2.22045e-16
threshold=6.773750066757203 122.43024826049806 0.13236681764425398 4.7646409343334168 7.4818760995139435
decision_type=2 2 2 2 2
left_child=1 -1 3 -2 -4
right_child=2 -3 4 -5 -6
leaf_value=-0.0004479740347160366 -0.0037560884790075952 -0.011427343125764322 0.011878603026209612 0.0054007896525261924 0.083769633800821808
leaf_weight=17.000000000000004 10.000000000000002 10.999999999999998 114 18 9.9999999999999982
leaf_count=17 10 11 114 18 10
internal_value=0.000833334 -0.0146429 0.00368421 -0.00214286 0.005
internal_weight=180 28 152 28 124
internal_count=180 28 152 28 124
is_linear=0
shrinkage=0.05


Tree=11
num_leaves=7
num_cat=0
split_feature=2 16 14 13 1 1
split_gain=3.06368 3.2775 0.57082 1.34804 2.22045e-16 2.22045e-16
threshold=6.773750066757203 122.43024826049806 4.9604025884188765 4.5454312399023911 5.9974999427795419 4.8724999427795419
decision_type=2 2 2 2 2 2
left_child=1 -1 3 -2 5 -4
right_child=2 -3 4 -5 -6 -7
leaf_value=-0.00042557533298022144 0.008074404551174438 -0.010855975969476095 0.0092417782568111062 -0.0035190090713265302 0.07958115211078072 0.059849452872777945
leaf_weight=17.000000000000004 22 10.999999999999998 55 11.999999999999998 9.9999999999999982 53
leaf_count=17 22 11 55 12 10 53
internal_value=0.000555556 -0.0146429 0.00335526 -0.00235294 0.005 0.005
internal_weight=180 28 152 34 118 108
internal_count=180 28 152 34 118 108
is_linear=0
shrinkage=0.05


Tree=12
num_leaves=7
num_cat=0
split_feature=2 16 14 13 0 0
split_gain=3.06368 3.2775 0.57082 1.34804 2.22045e-16 2.22045e-16
threshold=6.773750066757203 122.43024826049806 4.9604025884188765 4.5454312399023911 7.4818760995139435 6.976175884274773
decision_type=2 2 2 2 2 2
left_child=1 -1 3 -2 5 -4
right_child=2 -3 4 -5 -6 -7
leaf_value=-0.00040429656633120817 0.0076706843236157137 -0.010313177171002287 0.01280999104204855 -0.0033430586177601988 0.075602094505241677 0.10692963798599966
leaf_weight=17.000000000000004 22 10.999999999999998 92 11.999999999999998 9.9999999999999982 15.999999999999998
leaf_count=17 22 11 92 12 10 16
internal_value=0.000555556 -0.0146429 0.00335526 -0.00235294 0.005 0.005
internal_weight=180 28 152 34 118 108
internal_count=180 28 152 34 118 108
is_linear=0
shrinkage=0.05


Tree=13
num_leaves=7
num_cat=0
split_feature=9 17 8 2 3 0
split_gain=2.67669 5.59774 0.550298 0.092 0.06875 2.22045e-16
threshold=4.8003695990552844 171.11700439453128 4.6800499442743648 6.773750066757203 2476.0000000000005 6.9166979178563137
decision_type=2 2 2 2 2 2
left_child=1 2 4 -2 -1 -5
right_child=3 -3 -4 5 -6 -7
leaf_value=0.0031176784225384413 0.00027268036225804872 -0.0092068720367135988 -0.0033789016223070602 0.01223010106806597 7.6905371182549916e-05 0.080148296301867206
leaf_weight=22 9.9999999999999982 12.999999999999998 9.9999999999999982 86 9.9999999999999982 29
leaf_count=22 10 13 10 86 10 29
internal_value=0.000555556 -0.00863636 0.000238095 0.0046 0.0034375 0.005
internal_weight=180 55 42 125 32 115
internal_count=180 55 42 125 32 115
is_linear=0
shrinkage=0.05


Tree=14
num_leaves=6
num_cat=0
split_feature=2 16 15 9 0
split_gain=2.5878 2.48205 0.466165 1.02857 2.22045e-16
threshold=6.773750066757203 122.43024826049806 0.13236681764425398 4.7646409343334168 7.4818760995139435
decision_type=2 2 2 2 2
left_child=1 -1 3 -2 -4
right_child=2 -3 4 -5 -6
leaf_value=-0.00039771575612754798 -0.0030735146221376633 -0.0093371747106164808 0.010312463972250371 0.0034166566515536159 0.067814574964886229
leaf_weight=17.000000000000004 10.000000000000002 10.999999999999998 114 18 9.9999999999999982
leaf_count=17 10 11 114 18 10
internal_value=0.00111111 -0.0128571 0.00368421 -0.00214286 0.005
internal_weight=180 28 152 28 124
internal_count=180 28 152 28 124
is_linear=0
shrinkage=0.05


Tree=15
num_leaves=7
num_cat=0
split_feature=14 10 13 2 0 18
split_gain=1.60576 4.24696 0.680488 0.0925926 2.22045e-16 5.55112e-17
threshold=4.9604025884188765 5.6245772129341196 4.5180272148020597 6.773750066757203 7.1794720770717522 2024.5000000000002
decision_type=2 2 2 2 2 2
left_child=1 2 5 -2 -5 -1
right_child=3 -3 -4 4 -6 -7
leaf_value=0.0025099096619002796 0.00027893213195153701 -0.0062124077782686809 -0.0029198388910307905 0.011508372766978506 0.070699438138778575 0.0056493245434861899
leaf_weight=21 9.9999999999999982 9.9999999999999982 9.9999999999999982 110 14.999999999999998 10.000000000000002
leaf_count=21 10 10 10 110 15 10
internal_value=0.00177419 -0.00578431 0.00134146 0.00462963 0.005 0.005
internal_weight=186 51 41 135 125 31
internal_count=186 51 41 135 125 31
is_linear=0
shrinkage=0.05


Tree=16
num_leaves=5
num_cat=0
split_feature=9 17 13 2
split_gain=1.76564 4.29762 0.685714 0.0924242
threshold=4.8003695990552844 171.11700439453128 4.5688994786382784 6.773750066757203
decision_type=2 2 2 2
left_child=1 2 -1 -2
right_child=3 -3 -4 -5
leaf_value=0.0042329613089300633 0.00026498552535394462 -0.0052601481395600398 -0.0027738469464792526 0.011662468703121221
leaf_weight=32 9.9999999999999982 11.999999999999998 9.9999999999999982 122
leaf_count=32 10 12 10 122
internal_value=0.00150538 -0.00611111 0.00142857 0.00462121
internal_weight=186 54 42 132
internal_count=186 54 42 132
is_linear=0
shrinkage=0.05


Tree=17
num_leaves=5
num_cat=0
split_feature=9 17 13 2
split_gain=1.47412 3.30688 0.685714 0.0924242
threshold=4.8003695990552844 171.11700439453128 4.5688994786382784 6.773750066757203
decision_type=2 2 2 2
left_child=1 2 -1 -2
right_child=3 -3 -4 -5
leaf_value=0.0040213132434835505 0.00025173624908623186 -0.0049971407325820399 -0.0026351545991552764 0.011079345267965168
leaf_weight=32 9.9999999999999982 11.999999999999998 9.9999999999999982 122
leaf_count=32 10 12 10 122
internal_value=0.00177419 -0.00518518 0.00142857 0.00462121
internal_weight=186 54 42 132
internal_count=186 54 42 132
is_linear=0
shrinkage=0.05


Tree=18
num_leaves=6
num_cat=0
split_feature=15 8 8 18 0
split_gain=1.1736 2.05865 0.257143 0.208267 2.22045e-16
threshold=0.11189938310247687 4.4443978012853522 4.7570904113530288 2024.5000000000002 7.1794720770717522
decision_type=2 2 2 2 2
left_child=1 -1 -3 4 -2
right_child=3 2 -4 -5 -6
leaf_value=-0.0053889229457481317 0.0083143221968580618 -0.0018466802747313311 0.0024313352502390636 0.0013410660042785683 0.066027375533285332
leaf_weight=9.9999999999999982 116 10.000000000000002 18 17 14.999999999999998
leaf_count=10 116 10 18 17 15
internal_value=0.00231183 -0.00552632 0.00142857 0.00432432 0.005
internal_weight=186 38 28 148 131
internal_count=186 38 28 148 131
is_linear=0
shrinkage=0.05


Tree=19
num_leaves=6
num_cat=0
split_feature=14 10 13 2 0
split_gain=1.92233 4.15724 0.669231 0.0925926 2.22045e-16
threshold=4.9604025884188765 5.1685241750784741 4.5180272148020597 6.773750066757203 7.1794720770717522
decision_type=2 2 2 2 2
left_child=1 2 -1 -2 -5
right_child=3 -3 -4 4 -6
leaf_value=0.0047284365905705386 0.00013897274887620398 -0.004477837548665509 -0.002554511440153933 0.0098881974438118567 0.062726006756621058
leaf_weight=29 9.9999999999999982 11.999999999999998 9.9999999999999982 110 14.999999999999998
leaf_count=29 10 12 10 110 15
internal_value=0.00150538 -0.00676471 0.00115385 0.00462963 0.005
internal_weight=186 51 39 135 125
internal_count=186 51 39 135 125
is_linear=0
shrinkage=0.05


Tree=20
num_leaves=7
num_cat=0
split_feature=15 9 3 0 3 0
split_gain=1.77461 2.11468 2.00173 0.370149 0.0583333 2.22045e-16
threshold=0.13236681764425398 4.8003695990552844 2514.0000000000005 4.3337535894692971 2406.0000000000005 7.1489666121273991
decision_type=2 2 2 2 2 2
left_child=1 2 -1 -2 -3 -5
right_child=3 4 -4 5 -6 -7
leaf_value=-0.0046002617153777254 -0.00073622312123102591 0.00013202411143241072 -0.0031552088429017823 0.0091413482730043818 0.0038975802793670086 0.05619617554355312
leaf_weight=11.000000000000002 9.9999999999999982 10.000000000000002 9.9999999999999982 106 13.999999999999998 18
leaf_count=11 10 10 10 106 14 18
internal_value=0.00136872 -0.00722222 -0.0188095 0.00425373 0.00291667 0.005
internal_weight=179 45 21 134 24 124
internal_count=179 45 21 134 24 124
is_linear=0
shrinkage=0.05


Tree=21
num_leaves=6
num_cat=0
split_feature=9 17 8 3 0
split_gain=1.98582 3.53899 0.619048 0.0919355 5.55112e-17
threshold=4.8003695990552844 171.11700439453128 4.5529892376980987 1807.0000000000002 4.5619028876570331
decision_type=2 2 2 2 2
left_child=1 2 4 -2 -1
right_child=3 -3 -4 -5 -6
leaf_value=0.0055653173062325369 0.010770531287446677 -0.0067906358699440427 -0.0023755697731059427 0.0084397314543546362 0.0043307976669515495
leaf_weight=15.000000000000002 9.9999999999999982 12.999999999999998 15.999999999999998 114 10.999999999999998
leaf_count=15 10 13 16 114 11
internal_value=0.00108939 -0.00681818 0.000238095 0.00459677 0.005
internal_weight=179 55 42 124 26
internal_count=179 55 42 124 26
is_linear=0
shrinkage=0.05


Tree=22
num_leaves=5
num_cat=0
split_feature=15 14 5 9
split_gain=1.77461 1.21434 2.4652 0.192371
threshold=0.13236681764425398 5.7453210943930317 4.4865725751075516 4.3337535894692971
decision_type=2 2 2 2
left_child=1 2 -1 -2
right_child=3 -3 -4 -5
leaf_value=0.004667926385277724 0.00083035748290775132 0.0049363583164518388 -0.0046358136624108622 0.0085799120712692911
leaf_weight=12.000000000000002 18 13.999999999999998 19 116
leaf_count=12 18 14 19 116
internal_value=0.00136872 -0.00722222 -0.0127419 0.00425373
internal_weight=179 45 31 134
internal_count=179 45 31 134
is_linear=0
shrinkage=0.05


Tree=23
num_leaves=6
num_cat=0
split_feature=7 19 7 16 0
split_gain=1.69649 1.58437 2.81667 0.699592 2.22045e-16
threshold=4.7968603239798382 17.500000000000004 4.2454352421312516 122.48120117187501 6.3981023104411738
decision_type=2 2 2 2 2
left_child=1 -1 -3 -4 -2
right_child=4 2 3 -5 -6
leaf_value=0.0037069816619197992 0.0079863288696724998 0.0028746217130264477 -0.0021183625662696058 -0.006824410198004973 0.059969237727472938
leaf_weight=24 58 15.999999999999998 13.000000000000002 10.999999999999998 57
leaf_count=24 58 16 13 11 57
internal_value=0.00136872 -0.00515625 -0.01125 -0.0220833 0.005
internal_weight=179 64 40 24 115
internal_count=179 64 40 24 115
is_linear=0
shrinkage=0.05


Tree=24
num_leaves=6
num_cat=0
split_feature=15 6 14 0 0
split_gain=1.55371 1.00358 2.65655 0.0925373 2.22045e-16
threshold=0.13236681764425398 4.4443978012853522 5.7453210943930317 4.3337535894692971 7.1489666121273991
decision_type=2 2 2 2 2
left_child=1 -1 -3 -2 -5
right_child=3 2 -4 4 -6
leaf_value=0.0014225632075266391 -0.00045451306011685716 -0.0046678992740687457 0.0042902239571456112 0.0078205641239862973 0.049536922703720614
leaf_weight=13.999999999999998 9.9999999999999982 17.000000000000004 13.999999999999998 106 18
leaf_count=14 10 17 14 106 18
internal_value=0.00192737 -0.00611111 -0.011129 0.00462687 0.005
internal_weight=179 45 31 134 124
internal_count=179 45 31 134 124
is_linear=0
shrinkage=0.05


Tree=25
num_leaves=6
num_cat=0
split_feature=2 0 18 8 15
split_gain=0.831515 0.500433 0.312771 0.490909 0.0757576
threshold=6.4949998855590829 4.103237078304109 2024.5000000000002 4.5529892376980987 0.091611758074603922
decision_type=2 2 2 2 2
left_child=1 -1 4 -4 -2
right_child=2 -3 3 -5 -6
leaf_value=0.00015899759279616908 0.00027395614186341463 -0.006486305534074391 0.0038513297546174095 -0.0013673710156246286 0.0078371169596663584
leaf_weight=11.000000000000002 11.999999999999998 9.9999999999999982 12.000000000000002 9.9999999999999982 120
leaf_count=11 12 10 12 10 120
internal_value=0.00242857 -0.00690476 0.0037013 -0.00181818 0.00462121
internal_weight=175 21 154 22 132
internal_count=175 21 154 22 132
is_linear=0
shrinkage=0.05


Tree=26
num_leaves=7
num_cat=0
split_feature=0 11 19 3 1 0
split_gain=1.35896 1.40826 2.20308 1.45628 0.06875 2.22045e-16
threshold=4.7114946050068829 4.4413614597249804 17.500000000000004 2531.0000000000005 3.2175000905990605 7.1794720770717522
decision_type=2 2 2 2 2 2
left_child=1 4 -3 -4 -1 -2
right_child=5 2 3 -5 -6 -7
leaf_value=-0.00043973728675081905 0.0098928729511452932 0.0006472020514304719 -0.0028999954905612724 -0.0021679973544962909 0.0038281745922702833 0.043786159673651515
leaf_weight=9.9999999999999982 99 12.999999999999998 11.000000000000002 9.9999999999999982 22 9.9999999999999982
leaf_count=10 99 13 11 10 22 10
internal_value=0.00157143 -0.00409091 -0.0111765 -0.0211905 0.0034375 0.005
internal_weight=175 66 34 21 32 109
internal_count=175 66 34 21 32 109
is_linear=0
shrinkage=0.05


Tree=27
num_leaves=6
num_cat=0
split_feature=0 5 19 15 0
split_gain=1.1419 1.42104 2.03735 0.0714286 2.22045e-16
threshold=4.7114946050068829 4.4865725751075516 17.500000000000004 0.15595032495644404 7.1794720770717522
decision_type=2 2 2 2 2
left_child=1 3 -3 -1 -2
right_child=4 2 -4 -5 -6
leaf_value=0.0034276412687229648 0.0093982293035880463 0.00048100809435599155 -0.0033674124348338215 -0.00041775042241327704 0.041596851689968961
leaf_weight=25 99 12.000000000000002 19 9.9999999999999982 9.9999999999999982
leaf_count=25 99 12 19 10 10
internal_value=0.00185714 -0.00333333 -0.011129 0.00357143 0.005
internal_weight=175 66 31 35 109
internal_count=175 66 31 35 109
is_linear=0
shrinkage=0.05


Tree=28
num_leaves=7
num_cat=0
split_feature=0 11 20 6 1 0
split_gain=0.943723 0.898451 1.13939 0.770569 0.06875 2.22045e-16
threshold=4.7114946050068829 4.4413614597249804 3.5000000000000004 4.6184942331878096 3.2175000905990605 7.1794720770717522
decision_type=2 2 2 2 2 2
left_child=1 4 -3 -4 -1 -2
right_child=5 2 3 -5 -6 -7
leaf_value=-0.00039686290129259432 0.0089283178384086618 0.00032312383513523682 -0.0058815597777146919 -0.00098008505720895947 0.0034653837992206444 0.039517009105470541
leaf_weight=9.9999999999999982 99 10.999999999999998 10.000000000000002 12.999999999999998 22 9.9999999999999982
leaf_count=10 99 11 10 13 22 10
internal_value=0.00214286 -0.00257576 -0.00823529 -0.0145652 0.0034375 0.005
internal_weight=175 66 34 23 32 109
internal_count=175 66 34 23 32 109
is_linear=0
shrinkage=0.05


Tree=29
num_leaves=6
num_cat=0
split_feature=2 5 18 7 1
split_gain=1.37455 0.876623 0.155844 0.218182 2.22045e-16
threshold=6.4949998855590829 4.2454352421312516 2024.5000000000002 4.5993995847180882 5.9575002193450937
decision_type=2 2 2 2 2
left_child=1 -1 4 -4 -2
right_child=2 -3 3 -5 -6
leaf_value=0.00021376524367924983 0.0043314044582755925 -0.0055874817888289484 0.0031991031598310907 -0.00094872035220065418 0.037541158650197026
leaf_weight=11.000000000000002 122 9.9999999999999982 12.000000000000002 9.9999999999999982 9.9999999999999982
leaf_count=11 122 10 12 10 10
internal_value=0.00271429 -0.00928571 0.00435065 0.000454546 0.005
internal_weight=175 21 154 22 132
internal_count=175 21 154 22 132
is_linear=0
shrinkage=0.05


Tree=30
num_leaves=6
num_cat=0
split_feature=2 12 3 0 0
split_gain=1.10285 0.436623 0.140177 0.233333 2.22045e-16
threshold=6.773750066757203 4.5268842926176518 2571.0000000000005 4.7114946050068829 4.4443978012853522
decision_type=2 2 2 2 2
left_child=1 -1 4 -4 -2
right_child=2 -3 3 -5 -6
leaf_value=0.00020307697977245631 0.0034982047573499306 -0.0042301538256909422 -0.00012623486760561116 0.012959561961017768 0.0065949087347308925
leaf_weight=11.000000000000002 10.999999999999998 13.999999999999998 10.000000000000002 13.999999999999998 116
leaf_count=11 11 14 10 14 116
internal_value=0.00272727 -0.007 0.00433775 0.000833334 0.005
internal_weight=176 25 151 24 127
internal_count=176 25 151 24 127
is_linear=0
shrinkage=0.05


Tree=31
num_leaves=5
num_cat=0
split_feature=11 12 19 8
split_gain=1.04472 1.0552 0.806667 0.225225
threshold=4.7357023366938638 4.5268842926176518 17.500000000000004 4.5529892376980987
decision_type=2 2 2 2
left_child=1 3 -3 -1
right_child=-2 2 -4 -5
leaf_value=0.001565607142224702 0.01186270669583258 0.0013658751441288628 -0.0037369451152999139 -3.3723380432996999e-07
leaf_weight=25 114 10.000000000000002 14.999999999999998 11.999999999999998
leaf_count=25 114 10 15 12
internal_value=0.00215909 -0.00306452 -0.011 0.0022973
internal_weight=176 62 25 37
internal_count=176 62 25 37
is_linear=0
shrinkage=0.05


Tree=32
num_leaves=7
num_cat=0
split_feature=0 11 0 6 0 0
split_gain=0.912654 0.794935 0.816667 0.45 0.0655172 2.22045e-16
threshold=4.7114946050068829 4.4413614597249804 4.5379765508445535 4.6800499442743648 4.103237078304109 7.4818760995139435
decision_type=2 2 2 2 2 2
left_child=1 4 -3 -4 -1 -2
right_child=5 2 3 -5 -6 -7
leaf_value=-0.00046831250368170157 0.0080335543627073399 -0.0049097527523379557 -6.7804267564047785e-05 0.0026554329474020762 0.0028641559195708623 0.034741219946159023
leaf_weight=10.000000000000002 107 10.000000000000002 10.000000000000002 9.9999999999999982 19 9.9999999999999982
leaf_count=10 107 10 10 10 19 10
internal_value=0.00244318 -0.00262712 -0.00833333 -0.0025 0.00327586 0.005
internal_weight=176 59 30 20 29 117
internal_count=176 59 30 20 29 117
is_linear=0
shrinkage=0.05


Tree=33
num_leaves=6
num_cat=0
split_feature=2 4 15 18 0
split_gain=0.892337 0.45 0.324833 0.194825 2.22045e-16
threshold=6.4949998855590829 4.2454352421312516 0.090583994506263171 2024.5000000000002 4.436448017068594
decision_type=2 2 2 2 2
left_child=1 -1 -2 4 -4
right_child=2 -3 3 -5 -6
leaf_value=-0.00044489687849763707 -6.5738285909611294e-05 -0.0046642651147210624 0.0022992360157228302 0.0014096424332443915 0.010893430065781737
leaf_weight=10.000000000000002 9.9999999999999982 9.9999999999999982 11.999999999999998 18 116
leaf_count=10 10 10 12 18 116
internal_value=0.00244318 -0.0075 0.00371795 0.00431507 0.005
internal_weight=176 20 156 146 128
internal_count=176 20 156 146 128
is_linear=0
shrinkage=0.05


Tree=34
num_leaves=5
num_cat=0
split_feature=11 12 19 8
split_gain=1.26411 1.3965 1.12667 0.225225
threshold=4.7357023366938638 4.5268842926176518 17.500000000000004 4.5529892376980987
decision_type=2 2 2 2
left_child=1 3 -3 -1
right_child=-2 2 -4 -5
leaf_value=0.0013587806605300406 0.010640670233512575 0.0015345310689125196 -0.0030713969661819917 1.0255090342106872e-05
leaf_weight=25 114 10.000000000000002 14.999999999999998 11.999999999999998
leaf_count=25 114 10 15 12
internal_value=0.001875 -0.00387097 -0.013 0.0022973
internal_weight=176 62 25 37
internal_count=176 62 25 37
is_linear=0
shrinkage=0.05


Tree=35
num_leaves=4
num_cat=0
split_feature=5 17 9
split_gain=1.57954 2.55569 0.304412
threshold=4.6513951549685304 171.11700439453128 4.4157533214535034
decision_type=2 2 2
left_child=1 2 -1
right_child=-2 -3 -4
leaf_value=-0.00059094968832277617 0.0044428702317286716 -0.0029856274287779231 0.0024500343967947661
leaf_weight=17 129 13.999999999999998 23
leaf_count=17 129 14 23
internal_value=0.00199454 -0.00518518 0.00125
internal_weight=183 54 40
internal_count=183 54 40
is_linear=0
shrinkage=0.05


Tree=36
num_leaves=5
num_cat=0
split_feature=11 5 19 2
split_gain=0.823002 0.962371 0.960474 0.302439
threshold=4.7357023366938638 4.5725024981226552 19.500000000000004 6.1475000381469735
decision_type=2 2 2 2
left_child=1 3 -3 -1
right_child=-2 2 -4 -5
leaf_value=-0.0056985798065109427 0.009669358215997504 5.783210648668269e-05 -0.00086182494497491057 0.0002596515475579931
leaf_weight=9.9999999999999982 119 11.000000000000002 11.999999999999998 31
leaf_count=10 119 11 12 31
internal_value=0.00254098 -0.00203125 -0.0102174 0.00256098
internal_weight=183 64 23 41
internal_count=183 64 23 41
is_linear=0
shrinkage=0.05


Tree=37
num_leaves=6
num_cat=0
split_feature=11 5 19 2 0
split_gain=0.968703 0.957783 0.97963 0.297436 2.22045e-16
threshold=4.7483348668398895 4.5564086780032804 17.500000000000004 6.1475000381469735 7.4818760995139435
decision_type=2 2 2 2 2
left_child=1 3 -3 -1 -2
right_child=4 2 -4 -5 -6
leaf_value=-0.0054136508161853926 0.0094102675018149159 0.00022615469205351687 -0.00065323784429329899 0.0002430677770232865 0.031586122263252525
leaf_weight=9.9999999999999982 106 12.000000000000002 14.999999999999998 29 10.999999999999998
leaf_count=10 106 12 15 29 11
internal_value=0.00226776 -0.00257576 -0.00981481 0.0024359 0.005
internal_weight=183 66 27 39 117
internal_count=183 66 27 39 117
is_linear=0
shrinkage=0.05


Tree=38
num_leaves=6
num_cat=0
split_feature=0 5 10 1 21
split_gain=0.843091 0.810052 1.06465 0.06875 2.77556e-17
threshold=4.7114946050068829 4.4865725751075516 6.018900693010985 3.2175000905990605 3.5000000000000004
decision_type=2 2 2 2 2
left_child=1 3 -3 -1 -5
right_child=-2 2 -4 4 -6
leaf_value=-0.00031360168059128574 0.0076918568854880583 -0.0023304168452197636 3.2535952494660347e-05 0.00023614186892669626 0.0054962374248607379
leaf_weight=9.9999999999999982 120 16.000000000000004 14.999999999999998 12 10
leaf_count=10 120 16 15 12 10
internal_value=0.00254098 -0.00214286 -0.00790323 0.0034375 0.005
internal_weight=183 63 31 32 22
internal_count=183 63 31 32 22
is_linear=0
shrinkage=0.05


Tree=39
num_leaves=5
num_cat=0
split_feature=11 5 19 2
split_gain=0.823002 0.962371 0.960474 0.302439
threshold=4.7357023366938638 4.5725024981226552 19.500000000000004 6.1475000381469735
decision_type=2 2 2 2
left_child=1 3 -3 -1
right_child=-2 2 -4 -5
leaf_value=-0.0051172041168757974 0.0084310067350268341 4.2005971350662924e-05 -0.00068832766817416235 0.00023218969902927939
leaf_weight=9.9999999999999982 119 11.000000000000002 11.999999999999998 31
leaf_count=10 119 11 12 31
internal_value=0.00254098 -0.00203125 -0.0102174 0.00256098
internal_weight=183 64 23 41
internal_count=183 64 23 41
is_linear=0
shrinkage=0.05


Tree=40
num_leaves=5
num_cat=0
split_feature=11 11 19 0
split_gain=1.12619 1.16551 1.05882 0.069697
threshold=4.7483348668398895 4.5099079471933052 17.500000000000004 4.103237078304109
decision_type=2 2 2 2
left_child=1 3 -3 -1
right_child=-2 2 -4 -5
leaf_value=-0.00029131720656135014 0.008151716498608845 -0.00013590714829698545 -0.00086086469917891835 0.0017752418650681938
leaf_weight=9.9999999999999982 111 17 17 23
leaf_count=10 111 17 17 23
internal_value=0.00191011 -0.00320895 -0.00970588 0.00348485
internal_weight=178 67 34 33
internal_count=178 67 34 33
is_linear=0
shrinkage=0.05


Tree=41
num_leaves=7
num_cat=0
split_feature=5 11 9 14 0 0
split_gain=1.55167 1.34173 1.17857 1.45628 0.0642857 2.22045e-16
threshold=4.698516420344796 4.4413614597249804 4.3768171004543248 5.3826826765680762 4.103237078304109 7.2311847044911932
decision_type=2 2 2 2 2 2
left_child=1 4 -3 -4 -1 -2
right_child=5 2 3 -5 -6 -7
leaf_value=-0.00027675134623328607 0.0044157958129225246 0.002975363975544423 -0.0010736687232408768 -0.00037849315609953861 0.0025701472151059435 0.028428807392381208
leaf_weight=10.000000000000002 107 11.999999999999998 11.000000000000002 9.9999999999999982 18 9.9999999999999982
leaf_count=10 107 12 11 10 18 10
internal_value=0.00162921 -0.00483607 -0.0116667 -0.0188095 0.00321429 0.005
internal_weight=178 61 33 21 28 117
internal_count=178 61 33 21 28 117
is_linear=0
shrinkage=0.05


Tree=42
num_leaves=7
num_cat=0
split_feature=5 5 10 9 0 0
split_gain=1.69888 1.56559 0.900433 1.28571 0.0677419 2.22045e-16
threshold=4.7968603239798382 4.4865725751075516 6.7808200757897943 4.3768171004543248 4.103237078304109 5.361886418209564
decision_type=2 2 2 2 2 2
left_child=1 4 3 -3 -1 -2
right_child=5 2 -4 -5 -6 -7
leaf_value=-0.0002629137789216052 0.002699598959029981 -0.00019722310532514455 6.5625665182462208e-05 -0.0011569643430226967 0.0019581949625304541 0.031739760506797367
leaf_weight=10.000000000000002 22 14.000000000000002 10.999999999999998 13.999999999999998 21 86
leaf_count=10 22 14 11 14 21 86
internal_value=0.00106742 -0.005 -0.0116667 -0.0164286 0.0033871 0.005
internal_weight=178 70 39 28 31 108
internal_count=178 70 39 28 31 108
is_linear=0
shrinkage=0.05


Tree=43
num_leaves=5
num_cat=0
split_feature=8 12 15 0
split_gain=1.30866 1.12045 0.677694 0.0714286
threshold=4.8953004914808762 4.7139665165140592 0.11189938310247687 4.1869114647363928
decision_type=2 2 2 2
left_child=1 2 -1 -4
right_child=-2 -3 3 -5
leaf_value=-0.00062100739123316026 0.0072870768835338398 -0.00043419601035168888 -0.00024976808997554615 0.001563883998040339
leaf_weight=19 110 13.999999999999998 9.9999999999999982 25
leaf_count=19 110 14 10 25
internal_value=0.00162921 -0.00382353 -0.000555555 0.00357143
internal_weight=178 68 54 35
internal_count=178 68 54 35
is_linear=0
shrinkage=0.05


Tree=44
num_leaves=8
num_cat=0
split_feature=5 11 19 0 0 0 1
split_gain=1.54521 1.25952 0.859524 0.657014 0.0642857 0.0433723 1.11022e-16
threshold=4.7968603239798382 4.4413614597249804 7.5000000000000009 4.653414608081774 4.103237078304109 5.2851415982907186 5.0487499237060556
decision_type=2 2 2 2 2 2 2
left_child=1 4 -3 -4 -1 -2 -7
right_child=5 2 3 -5 -6 6 -8
leaf_value=-0.00023727968547675675 0.0018457838759579391 0.00026365804398667466 -0.00067845162087452773 -0.00017553093948846681 0.0023747804757857528 0.024234385228239487 0.034992872850469016
leaf_weight=10.000000000000002 19 11.999999999999998 17.000000000000004 12.999999999999998 18 46 43
leaf_count=10 19 12 17 13 18 46 43
internal_value=0.000786517 -0.005 -0.0104762 -0.015 0.00321429 0.00453704 0.005
internal_weight=178 70 42 30 28 108 89
internal_count=178 70 42 30 28 108 89
is_linear=0
shrinkage=0.05


Tree=45
num_leaves=9
num_cat=0
split_feature=2 0 18 3 3 19 0 0
split_gain=1.50315 1.03939 0.861218 0.500433 0.128109 0.408511 1.11022e-16 1.11022e-16
threshold=6.4949998855590829 4.103237078304109 2024.5000000000002 2542.0000000000005 2423.0000000000005 20.500000000000004 7.1489666121273991 6.9166979178563137
decision_type=2 2 2 2 2 2 2 2
left_child=1 -1 4 -4 6 -6 7 -2
right_child=2 -3 3 -5 5 -7 -8 -9
leaf_value=-0.00022541570120291569 0.0038722066464360154 -0.0034491116265560535 0.00085469263423534935 -0.00029376915708880002 0.0012240260895325719 -0.00035884817215442303 0.032789928678457425 0.088319405838551343
leaf_weight=10.000000000000002 71 10.999999999999998 11.000000000000002 9.9999999999999982 32 14.999999999999998 12.999999999999998 10.999999999999998
leaf_count=10 71 11 11 10 32 15 13 11
internal_value=0.000923913 -0.0116667 0.00254601 -0.00690476 0.00394366 0.00180851 0.005 0.005
internal_weight=184 21 163 21 142 47 95 82
internal_count=184 21 163 21 142 47 95 82
is_linear=0
shrinkage=0.05


Tree=46
num_leaves=9
num_cat=0
split_feature=5 13 8 11 17 0 2 0
split_gain=1.85186 1.32741 1.55099 0.804762 0.0533257 0.0523809 2.22045e-16 5.55112e-17
threshold=4.7968603239798382 4.3406586168248156 4.5797048165765508 4.6560430794884331 190.58950042724612 4.436448017068594 8.6412501335144061 6.102036521481172
decision_type=2 2 2 2 2 2 2 2
left_child=1 -1 -3 5 -2 -4 7 -6
right_child=4 2 3 -5 6 -7 -8 -9
leaf_value=0.0033731355376514396 0.0037602742219744554 -0.0012350979829299025 0.00051809616479620154 -0.00022862551768516035 0.0038823201064944997 0.001711395248399764 0.037647893650005253 0.052831745763618758
leaf_weight=21 15.999999999999998 19 10.000000000000002 13.999999999999998 23 10.999999999999998 58 11.999999999999998
leaf_count=21 16 19 10 14 23 11 58 12
internal_value=0.000380435 -0.00566667 -0.00981481 -0.00357143 0.00454128 0.00261905 0.005 0.005
internal_weight=184 75 54 35 109 21 93 35
internal_count=184 75 54 35 109 21 93 35
is_linear=0
shrinkage=0.05


Tree=47
num_leaves=9
num_cat=0
split_feature=5 5 1 14 2 17 2 0
split_gain=1.39968 1.64024 1.01059 0.956277 0.0714286 0.0533257 2.22045e-16 5.55112e-17
threshold=4.7968603239798382 4.4865725751075516 3.7237499952316289 4.8016934578079686 6.2562499046325692 190.58950042724612 8.6412501335144061 6.102036521481172
decision_type=2 2 2 2 2 2 2 2
left_child=1 4 3 -3 -1 -2 7 -7
right_child=5 2 -4 -5 -6 6 -8 -9
leaf_value=-0.00044005127565622951 0.0035722605108757218 -0.0033926584700575742 -0.00012900609926836857 -6.6559223703325515e-05 0.0012959108127248427 0.0036882041011697926 0.035765498967504986 0.050190158475437799
leaf_weight=9.9999999999999982 15.999999999999998 10.000000000000002 19 10.999999999999998 25 23 58 11.999999999999998
leaf_count=10 16 10 19 11 25 23 58 12
internal_value=0.000923913 -0.00433333 -0.01125 -0.0188095 0.00357143 0.00454128 0.005 0.005
internal_weight=184 75 40 21 35 109 93 35
internal_count=184 75 40 21 35 109 93 35
is_linear=0
shrinkage=0.05


Tree=48
num_leaves=10
num_cat=0
split_feature=5 11 0 3 7 2 17 2 0
split_gain=1.39968 1.34815 0.873745 0.477841 0.490909 0.06875 0.0533257 2.22045e-16 5.55112e-17
threshold=4.7968603239798382 4.4413614597249804 4.5379765508445535 2546.0000000000005 4.7114946050068829 6.2562499046325692 190.58950042724612 8.6412501335144061 6.102036521481172
decision_type=2 2 2 2 2 2 2 2 2
left_child=1 5 -3 4 -4 -1 -2 8 -8
right_child=6 2 3 -5 -6 -7 7 -9 -10
leaf_value=-0.00041804871187343256 0.0033936474853319162 -0.0030452682188218286 0.00259238733583579 -0.00024647894008296157 -0.00022246680795507919 0.0016085438991137514 0.0035037938961112874 0.033977224019129726 0.047680650551665905
leaf_weight=9.9999999999999982 15.999999999999998 10.999999999999998 12.000000000000002 9.9999999999999982 9.9999999999999982 22 23 58 11.999999999999998
leaf_count=10 16 11 12 10 10 22 23 58 12
internal_value=0.000923913 -0.00433333 -0.0101163 -0.0059375 -0.00181818 0.0034375 0.00454128 0.005 0.005
internal_weight=184 75 43 32 22 32 109 93 35
internal_count=184 75 43 32 22 32 109 93 35
is_linear=0
shrinkage=0.05


Tree=49
num_leaves=8
num_cat=0
split_feature=8 13 19 0 8 17 0
split_gain=0.906875 1.05072 1.262 0.2 0.0714286 0.0625 1.11022e-16
threshold=4.8953004914808762 4.4887746573806702 17.500000000000004 4.5182225591009528 4.4967361392305056 190.58950042724612 7.2311847044911932
decision_type=2 2 2 2 2 2 2
left_child=1 4 3 -3 -1 -2 -7
right_child=5 2 -4 -5 -6 6 -8
leaf_value=0.0010237444007615538 0.00077036693841504129 0.00084657366998466496 -0.0013865224823615765 -0.00029103052292183264 -0.00039714627627975989 0.0063236447917679245 0.025747930506907268
leaf_weight=25 13.999999999999998 10.000000000000002 17 9.9999999999999982 9.9999999999999982 86 11.999999999999998
leaf_count=25 14 10 17 10 10 86 12
internal_value=0.00173913 -0.00263889 -0.00851351 1.86265e-10 0.00357143 0.00455357 0.005
internal_weight=184 72 37 20 35 112 98
internal_count=184 72 37 20 35 112 98
is_linear=0
shrinkage=0.05


Tree=50
num_leaves=7
num_cat=0
split_feature=1 5 19 15 6 1
split_gain=0.675151 0.769981 0.492501 0.103148 0.262069 0.0666667
threshold=3.7687499523162846 4.4865725751075516 20.500000000000004 0.33893879726708437 6.4976135133179342 3.2474999427795415
decision_type=2 2 2 2 2 2
left_child=1 5 -3 -2 -5 -1
right_child=3 2 -4 4 -6 -7
leaf_value=-0.00037728896246578419 0.006098347808917666 -5.2348754209769075e-05 -0.00031267941296417084 -0.0013760595292045845 0.022152106038031506 0.0013832882892342261
leaf_weight=10.000000000000002 86 19.000000000000004 11.999999999999998 10.000000000000002 19 20
leaf_count=10 86 19 12 10 19 20
internal_value=0.001875 -0.00237705 -0.00790323 0.00413043 0.00155172 0.00333333
internal_weight=176 61 31 115 29 30
internal_count=176 61 31 115 29 30
is_linear=0
shrinkage=0.05


Tree=51
num_leaves=8
num_cat=0
split_feature=11 11 1 3 2 3 1
split_gain=0.90947 0.83396 0.606516 0.47619 0.130303 0.233333 0.0642857
threshold=4.7638433006777321 4.4413614597249804 3.6812499761581425 2458.0000000000005 7.9262502193450937 2203.0000000000005 3.2474999427795415
decision_type=2 2 2 2 2 2 2
left_child=1 6 -3 -4 5 -2 -1
right_child=4 2 3 -5 -6 -7 -8
leaf_value=-0.00035842451434249393 0.0084983128158473645 -0.00028352951696440962 0.0029244113696404676 -0.00016451225358403361 0.014308994236903044 -0.0013072565527443708 0.0020524998032432811
leaf_weight=10.000000000000002 14.000000000000002 13.999999999999998 10.000000000000002 13.999999999999998 86 9.9999999999999982 18
leaf_count=10 14 14 10 14 86 10 18
internal_value=0.00130682 -0.00333333 -0.00815789 -0.00333333 0.00409091 0.000833334 0.00321429
internal_weight=176 66 38 24 110 24 28
internal_count=176 66 38 24 110 24 28
is_linear=0
shrinkage=0.05


Tree=52
num_leaves=10
num_cat=0
split_feature=11 19 19 11 1 9 0 0 0
split_gain=1.04021 0.946659 0.818402 0.43149 0.267857 0.0722222 0.0523809 2.22045e-16 5.55112e-17
threshold=5.542410066984389 34.500000000000007 17.500000000000004 4.6560430794884331 3.7000000476837163 6.1928896889633167 4.4737135345398942 6.9166979178563137 4.6349011483560529
decision_type=2 2 2 2 2 2 2 2 2
left_child=1 2 3 6 -4 8 -1 -2 -3
right_child=7 5 4 -5 -6 -7 -8 -9 -10
leaf_value=0.00063505829699726465 0.023123958230284406 0.0025680784145523977 -0.0045805220974545003 -0.00022528542909161636 -0.00089489960686844764 0.00057950794947534746 0.0025025235911160888 0.027308396844016255 0.0026389745294541512
leaf_weight=10.000000000000005 58 16.000000000000004 10.000000000000002 9.9999999999999982 13.999999999999998 9.9999999999999982 10.999999999999998 27 9.9999999999999982
leaf_count=10 58 16 10 10 14 10 11 27 10
internal_value=0.00102273 -0.00269231 -0.00681818 -0.00145161 -0.01375 0.00361111 0.00261905 0.005 0.005
internal_weight=176 91 55 31 24 36 21 85 26
internal_count=176 91 55 31 24 36 21 85 26
is_linear=0
shrinkage=0.05


Tree=53
num_leaves=9
num_cat=0
split_feature=5 19 19 7 0 10 0 2
split_gain=0.730205 0.639354 0.740801 0.640152 0.275 0.072973 1.11022e-16 1.11022e-16
threshold=5.763883687843439 34.500000000000007 24.500000000000004 4.6897131776889625 4.653414608081774 6.9008361682694064 7.2311847044911932 9.6300001144409197
decision_type=2 2 2 2 2 2 2 2
left_child=1 2 3 4 -1 -3 7 -2
right_child=6 5 -4 -5 -6 -7 -8 -9
leaf_value=0.00020608025461121113 0.023300092553096338 0.0025062000352165663 -0.0041064850746177564 -0.00017602310068244375 -7.9296304685208332e-05 0.00055053255200157353 0.012988450601142738 0.054499562532394658
leaf_weight=22 58 27 11.999999999999998 11.999999999999998 9.9999999999999982 9.9999999999999982 10.999999999999998 13.999999999999998
leaf_count=22 58 27 12 12 10 10 11 14
internal_value=0.00159091 -0.00145161 -0.00482143 -0.00181818 0.001875 0.00364865 0.005 0.005
internal_weight=176 93 56 44 32 37 83 72
internal_count=176 93 56 44 32 37 83 72
is_linear=0
shrinkage=0.05


Tree=54
num_leaves=8
num_cat=0
split_feature=11 6 1 2 6 0 0
split_gain=0.64217 0.486119 0.29803 0.236132 0.358696 2.22045e-16 5.55112e-17
threshold=5.542410066984389 4.8953004914808762 3.3162499666213994 9.3487501144409197 4.6184942331878096 6.9166979178563137 4.6061064683472752
decision_type=2 2 2 2 2 2 2
left_child=1 2 -1 6 -5 -2 -4
right_child=5 -3 3 4 -6 -7 -8
leaf_value=-0.0029325668223766079 0.020802755691115352 -0.00058249193007490682 0.00060977884170440079 -5.6583706189128493e-05 0.0021248714121765728 0.025293554471758302 0.0017142478239499808
leaf_weight=13.999999999999998 58 19 23 12.000000000000002 10.999999999999998 27 11.999999999999998
leaf_count=14 58 19 23 12 11 27 12
internal_value=0.001875 -0.00104396 0.000833334 0.00241379 -0.00152174 0.005 0.005
internal_weight=176 91 72 58 23 85 35
internal_count=176 91 72 58 23 85 35
is_linear=0
shrinkage=0.05


end of trees

feature_importances:
Column_0=64
Column_2=29
Column_11=19
Column_19=19
Column_5=18
Column_14=17
Column_8=16
Column_1=14
Column_15=14
Column_9=12
Column_3=11
Column_17=11
Column_16=10
Column_13=9
Column_10=7
Column_18=7
Column_6=6
Column_7=6
Column_12=6
Column_4=1
Column_20=1
Column_21=1

parameters:
[boosting: gbdt]
[objective: quantile]
[metric: quantile]
[tree_learner: serial]
[device_type: cpu]
[data_sample_strategy: bagging]
[data: ]
[valid: ]
[num_iterations: 800]
[learning_rate: 0.05]
[num_leaves: 31]
[num_threads: 0]
[seed: 42]
[deterministic: 0]
[force_col_wise: 0]
[force_row_wise: 0]
[histogram_pool_size: -1]
[max_depth: -1]
[min_data_in_leaf: 10]
[min_sum_hessian_in_leaf: 0.001]
[bagging_fraction: 0.9]
[pos_bagging_fraction: 1]
[neg_bagging_fraction: 1]
[bagging_freq: 5]
[bagging_seed: 400]
[bagging_by_query: 0]
[feature_fraction: 0.9]
[feature_fraction_bynode: 1]
[feature_fraction_seed: 30056]
[extra_trees: 0]
[extra_seed: 12879]
[early_stopping_round: 0]
[early_stopping_min_delta: 0]
[first_metric_only: 0]
[max_delta_step: 0]
[lambda_l1: 0]
[lambda_l2: 0]
[linear_lambda: 0]
[min_gain_to_split: 0]
[drop_rate: 0.1]
[max_drop: 50]
[skip_drop: 0.5]
[xgboost_dart_mode: 0]
[uniform_drop: 0]
[drop_seed: 17869]
[top_rate: 0.2]
[other_rate: 0.1]
[min_data_per_group: 100]
[max_cat_threshold: 32]
[cat_l2: 10]
[cat_smooth: 10]
[max_cat_to_onehot: 4]
[top_k: 20]
[monotone_constraints: ]
[monotone_constraints_method: basic]
[monotone_penalty: 0]
[feature_contri: ]
[forcedsplits_filename: ]
[refit_decay_rate: 0.9]
[cegb_tradeoff: 1]
[cegb_penalty_split: 0]
[cegb_penalty_feature_lazy: ]
[cegb_penalty_feature_coupled: ]
[path_smooth: 0]
[interaction_constraints: ]
[verbosity: -1]
[saved_feature_importance_type: 0]
[use_quantized_grad: 0]
[num_grad_quant_bins: 4]
[quant_train_renew_leaf: 0]
[stochastic_rounding: 1]
[linear_tree: 0]
[max_bin: 255]
[max_bin_by_feature: ]
[min_data_in_bin: 3]
[bin_construct_sample_cnt: 200000]
[data_random_seed: 175]
[is_enable_sparse: 1]
[enable_bundle: 1]
[use_missing: 1]
[zero_as_missing: 0]
[feature_pre_filter: 1]
[pre_partition: 0]
[two_round: 0]
[header: 0]
[label_column: ]
[weight_column: ]
[group_column: ]
[ignore_column: ]
[categorical_feature: ]
[forcedbins_filename: ]
[precise_float_parser: 0]
[parser_config_file: ]
[objective_seed: 16083]
[num_class: 1]
[is_unbalance: 0]
[scale_pos_weight: 1]
[sigmoid: 1]
[boost_from_average: 1]
[reg_sqrt: 0]
[alpha: 0.1]
[fair_c: 1]
[poisson_max_delta_step: 0.7]
[tweedie_variance_power: 1.5]
[lambdarank_truncation_level: 30]
[lambdarank_norm: 1]
[label_gain: ]
[lambdarank_position_bias_regularization: 0]
[eval_at: ]
[multi_error_top_k: 1]
[auc_mu_weights: ]
[num_machines: 1]
[local_listen_port: 12400]
[time_out: 120]
[machine_list_filename: ]
[machines: ]
[gpu_platform_id: -1]
[gpu_device_id: -1]
[gpu_use_dp: 0]
[num_gpu: 1]

end of parameters

pandas_categorical:null
