tree
version=v4
num_class=1
num_tree_per_iteration=1
label_index=0
max_feature_idx=21
objective=quantile
feature_names=Column_0 Column_1 Column_2 Column_3 Column_4 Column_5 Column_6 Column_7 Column_8 Column_9 Column_10 Column_11 Column_12 Column_13 Column_14 Column_15 Column_16 Column_17 Column_18 Column_19 Column_20 Column_21
feature_infos=[3.8250012595449858:8.0025021664110056] [2.9600000381469727:6.7699999809265137] [5.755000114440918:14.399999618530273] [1370:2822] [3.8250012595449858:8.0025021664110056] [3.8250012595449858:8.0025021664110056] [3.8250012595449858:8.0025021664110056] [3.8250012595449858:8.0025021664110056] [3.8250012595449858:8.0025021664110056] [3.8250012595449858:8.0025021664110056] [3.109719111473856:8.0025021664110056] [3.8915906007990086:7.922449918787394] [3.9951053301251727:7.7630479140870321] [4.1643582574604956:7.313794523562847] [4.3357232480644816:7.1227510993336232] [0.062588336455152577:0.51309032248165554] [112.54759979248047:129.86639404296875] [156.3800048828125:255.30299377441406] [2021:2025] [1:52] [1:12] [1:4]
tree_sizes=707 617 442 825 621 718 638 719 621 719 738 619 834 739 738 719 525 705 721 703 710 710 710 710 615 739 802 694 620 734 724 728 924 613 933 805 741 804 727 743 549 627 805 726 741 821 708 726 727 705 918 917 805 804

Tree=0
num_leaves=6
num_cat=0
split_feature=4 1 0 0 0
split_gain=14.9612 0.508696 0.0770042 2.22045e-16 5.55112e-17
threshold=4.3406482394490427 3.2275000810623173 4.4399859354652547 6.8424930952703837 7.1794720770717522
decision_type=2 2 2 2 2
left_child=1 -1 -2 -4 -5
right_child=2 -3 3 4 -6
leaf_value=4.2342830181649909 4.2541584181887142 4.2432088435017663 4.2659630418027872 4.3777694130628513 4.3984807205445264
leaf_weight=13.000000000000002 11.999999999999998 9.9999999999999982 116 15.000000000000002 14.999999999999998
leaf_count=13 12 10 116 15 15
internal_value=4.25302 4.21534 4.2585 4.25882 4.25882
internal_weight=181 23 158 146 30
internal_count=181 23 158 146 30
is_linear=0
shrinkage=1


Tree=1
num_leaves=5
num_cat=0
split_feature=4 1 2 0
split_gain=14.9612 0.508696 0.08458 4.44089e-16
threshold=4.3406482394490427 3.2275000810623173 6.6575000286102304 6.345169906853716
decision_type=2 2 2 2
left_child=1 -1 -2 -4
right_child=2 -3 3 -5
leaf_value=-0.018557360122104249 0.0012757082303603174 -0.010077826052167494 0.0080594155748194424 0.10929034437830674
leaf_weight=13.000000000000002 10.999999999999998 9.9999999999999982 92 55
leaf_count=13 11 10 92 55
internal_value=-0.000801105 -0.0384783 0.00468354 0.005
internal_weight=181 23 158 147
internal_count=181 23 158 147
is_linear=0
shrinkage=0.05


Tree=2
num_leaves=3
num_cat=0
split_feature=4 1
split_gain=11.2228 1.77247
threshold=4.1804221323819748 3.3937500715255742
decision_type=2 2
left_child=-1 -2
right_child=1 -3
leaf_value=-0.017038845840260476 -0.0073284716494839896 0.010588628213325802
leaf_weight=14.999999999999998 12.999999999999998 153
leaf_count=15 13 153
internal_value=-0.000248619 0.00349398
internal_weight=181 166
internal_count=181 166
is_linear=0
shrinkage=0.05


Tree=3
num_leaves=7
num_cat=0
split_feature=4 1 4 1 1 1
split_gain=11.2228 1.0867 0.0703871 2.22045e-16 5.55112e-17 2.77556e-17
threshold=4.1804221323819748 3.3937500715255742 4.4565028638970832 5.1562500000000009 5.9974999427795419 5.4974999427795419
decision_type=2 2 2 2 2 2
left_child=-1 -2 -3 -4 5 -5
right_child=1 2 3 4 -6 -7
leaf_value=-0.016186903548247457 -0.0069620480670097825 0.0048975156395580921 0.012055251889073099 0.10483535099048567 0.13602478107554031 0.11354088793710992
leaf_weight=14.999999999999998 12.999999999999998 12.999999999999998 110 10.000000000000005 9.9999999999999982 9.9999999999999982
leaf_count=15 13 13 110 10 10 10
internal_value=-0.000248619 0.00349398 0.0046732 0.005 0.005 0.005
internal_weight=181 166 153 140 30 20
internal_count=181 166 153 140 30 20
is_linear=0
shrinkage=0.05


Tree=4
num_leaves=5
num_cat=0
split_feature=0 2 0 0
split_gain=9.33178 2.28938 0.0768817 2.22045e-16
threshold=4.3742090751591247 8.4974999427795428 4.4496188867746413 6.8809031426194922
decision_type=2 2 2 2
left_child=1 -1 -2 -4
right_child=2 -3 3 -5
leaf_value=-0.015672881508704384 0.00093534975096891892 -0.0020278592354493305 0.011412544976503939 0.11272391282188428
leaf_weight=14.000000000000002 11.999999999999998 11.999999999999998 116 27
leaf_count=14 12 12 116 27
internal_value=2.76245e-05 -0.0276923 0.00467742 0.005
internal_weight=181 26 155 143
internal_count=181 26 155 143
is_linear=0
shrinkage=0.05


Tree=5
num_leaves=6
num_cat=0
split_feature=4 0 2 0 0
split_gain=7.27298 1.00621 0.0937888 2.22045e-16 5.55112e-17
threshold=4.1804221323819748 4.4223819197321799 6.6575000286102304 4.7570904113530288 4.6061064683472752
decision_type=2 2 2 2 2
left_child=-1 -2 -3 4 -4
right_child=1 2 3 -5 -6
leaf_value=-0.015479883709007726 -0.0032917757920290763 0.009753573592333975 0.0054663511174157858 0.029361075491793009 0.012687102722132693
leaf_weight=11.999999999999998 13.999999999999998 9.9999999999999982 23 116 11.999999999999998
leaf_count=12 14 10 23 116 12
internal_value=0.000989305 0.00357143 0.00468944 0.005 0.005
internal_weight=187 175 161 151 35
internal_count=187 175 161 151 35
is_linear=0
shrinkage=0.05


Tree=6
num_leaves=5
num_cat=0
split_feature=5 0 1 0
split_gain=6.45755 0.930832 0.0771222 2.22045e-16
threshold=4.1869114647363928 4.4223819197321799 3.6087499856948857 7.1794720770717522
decision_type=2 2 2 2
left_child=-1 -2 -3 -4
right_child=1 2 3 -5
leaf_value=-0.015001212661426644 -0.0029528688678321468 0.0031584191332758613 0.013352970180788648 0.11877268830037929
leaf_weight=10.999999999999998 14.999999999999998 11.999999999999998 133 15.999999999999998
leaf_count=11 15 12 133 16
internal_value=0.00125668 0.00357955 0.00468944 0.005
internal_weight=187 176 161 149
internal_count=187 176 161 149
is_linear=0
shrinkage=0.05


Tree=7
num_leaves=6
num_cat=0
split_feature=5 0 2 0 0
split_gain=6.45755 0.930832 0.0937888 2.22045e-16 5.55112e-17
threshold=4.1869114647363928 4.4223819197321799 6.6575000286102304 4.7570904113530288 4.6061064683472752
decision_type=2 2 2 2 2
left_child=-1 -2 -3 4 -4
right_child=1 2 3 -5 -6
leaf_value=-0.014251152028355297 -0.0028052254244405259 0.0086492191520794182 0.0046273305796908524 0.027225373208163942 0.011385099076986639
leaf_weight=10.999999999999998 14.999999999999998 9.9999999999999982 23 116 11.999999999999998
leaf_count=11 15 10 23 116 12
internal_value=0.00125668 0.00357955 0.00468944 0.005 0.005
internal_weight=187 176 161 151 35
internal_count=187 176 161 151 35
is_linear=0
shrinkage=0.05


Tree=8
num_leaves=5
num_cat=0
split_feature=5 0 2 0
split_gain=6.5508 0.733333 0.0939394 2.22045e-16
threshold=4.1869114647363928 4.3742090751591247 6.6575000286102304 7.1036856385576561
decision_type=2 2 2 2
left_child=-1 -2 -3 -4
right_child=1 2 3 -5
leaf_value=-0.013538594426937545 -0.003362236691600469 0.0082167581944754316 0.0076188072004221069 0.10964372111438413
leaf_weight=10.999999999999998 10.999999999999998 9.9999999999999982 133 22
leaf_count=11 11 10 133 22
internal_value=0.00152406 0.00386364 0.00469697 0.005
internal_weight=187 176 165 155
internal_count=187 176 165 155
is_linear=0
shrinkage=0.05


Tree=9
num_leaves=6
num_cat=0
split_feature=5 0 2 0 0
split_gain=6.45755 0.930832 0.0937888 2.22045e-16 5.55112e-17
threshold=4.1869114647363928 4.4223819197321799 6.6575000286102304 4.7570904113530288 4.6061064683472752
decision_type=2 2 2 2 2
left_child=-1 -2 -3 4 -4
right_child=1 2 3 -5 -6
leaf_value=-0.012861664705590671 -0.0024968523186384749 0.0078059202847516719 0.0040150236906852099 0.025483164187734664 0.010434903763116222
leaf_weight=10.999999999999998 14.999999999999998 9.9999999999999982 23 116 11.999999999999998
leaf_count=11 15 10 23 116 12
internal_value=0.00125668 0.00357955 0.00468944 0.005 0.005
internal_weight=187 176 161 151 35
internal_count=187 176 161 151 35
is_linear=0
shrinkage=0.05


Tree=10
num_leaves=6
num_cat=0
split_feature=0 0 2 0 0
split_gain=5.41028 0.513346 0.0845397 2.22045e-16 5.55112e-17
threshold=4.2208102449545644 4.4223819197321799 6.6575000286102304 4.6767236471025244 4.5785401702625839
decision_type=2 2 2 2 2
left_child=-1 -2 -3 4 -4
right_child=1 2 3 -5 -6
leaf_value=-0.010965971034163975 -0.00085396425689489611 0.0078333160999329108 0.0048665947155145974 0.019894962427910792 0.0077383911968325059
leaf_weight=12.999999999999998 14.999999999999998 10.999999999999998 19.000000000000004 116 10.999999999999998
leaf_count=13 15 11 19 116 11
internal_value=0.00148649 0.00383721 0.00468153 0.005 0.005
internal_weight=185 172 157 146 30
internal_count=185 172 157 146 30
is_linear=0
shrinkage=0.05


Tree=11
num_leaves=5
num_cat=0
split_feature=2 1 8 1
split_gain=5.04835 0.613898 0.804924 2.22045e-16
threshold=6.1475000381469735 3.620000004768372 4.6268441699822001 5.9974999427795419
decision_type=2 2 2 2
left_child=-1 2 -2 -3
right_child=1 3 -4 -5
leaf_value=-0.011670282869282757 -0.002894171476184277 0.011379804709770184 0.0019585280244867999 0.10761578953374339
leaf_weight=10.999999999999998 15.999999999999998 129 17 11.999999999999998
leaf_count=11 16 129 17 12
internal_value=0.00148649 0.00356322 -0.00257576 0.005
internal_weight=185 174 33 141
internal_count=185 174 33 141
is_linear=0
shrinkage=0.05


Tree=12
num_leaves=7
num_cat=0
split_feature=0 1 14 0 0 4
split_gain=5.50472 0.293828 0.553846 2.22045e-16 5.55112e-17 2.77556e-17
threshold=4.2208102449545644 3.6087499856948857 5.0463281397236157 4.6897131776889625 4.6061064683472752 4.5215254237146381
decision_type=2 2 2 2 2 2
left_child=-1 2 -2 4 5 -3
right_child=1 3 -4 -5 -6 -7
leaf_value=-0.0098341583389916221 -0.0026435328470503223 0.0028141828062062117 0.0026609806940031712 0.017850667584720349 0.0083963643158553765 0.0051286120867598322
leaf_weight=12.999999999999998 10.000000000000002 10.000000000000005 15.999999999999998 116 9.9999999999999982 9.9999999999999982
leaf_count=13 10 10 16 116 10 10
internal_value=0.00175676 0.00412791 -0.000769231 0.005 0.005 0.005
internal_weight=185 172 26 146 30 20
internal_count=185 172 26 146 30 20
is_linear=0
shrinkage=0.05


Tree=13
num_leaves=6
num_cat=0
split_feature=0 0 2 0 0
split_gain=4.23772 0.513346 0.0845397 2.22045e-16 5.55112e-17
threshold=4.2208102449545644 4.4223819197321799 6.6575000286102304 4.6767236471025244 4.5785401702625839
decision_type=2 2 2 2 2
left_child=-1 -2 -3 4 -4
right_child=1 2 3 -5 -6
leaf_value=-0.0093424504220420545 -0.00064353514664642426 0.0072106748501538772 0.0042105742532636539 0.017438690691790725 0.0066417722611920027
leaf_weight=12.999999999999998 14.999999999999998 10.999999999999998 19.000000000000004 116 10.999999999999998
leaf_count=13 15 11 19 116 11
internal_value=0.00175676 0.00383721 0.00468153 0.005 0.005
internal_weight=185 172 157 146 30
internal_count=185 172 157 146 30
is_linear=0
shrinkage=0.05


Tree=14
num_leaves=6
num_cat=0
split_feature=0 0 2 0 0
split_gain=4.23772 0.513346 0.0845397 2.22045e-16 5.55112e-17
threshold=4.2208102449545644 4.4223819197321799 6.6575000286102304 4.6767236471025244 4.5785401702625839
decision_type=2 2 2 2 2
left_child=-1 -2 -3 4 -4
right_child=1 2 3 -5 -6
leaf_value=-0.0088753279009399499 -0.00061135838931411024 0.0068501411076461703 0.004000045540600493 0.016566756157201167 0.0063096836481324027
leaf_weight=12.999999999999998 14.999999999999998 10.999999999999998 19.000000000000004 116 10.999999999999998
leaf_count=13 15 11 19 116 11
internal_value=0.00175676 0.00383721 0.00468153 0.005 0.005
internal_weight=185 172 157 146 30
internal_count=185 172 157 146 30
is_linear=0
shrinkage=0.05


Tree=15
num_leaves=6
num_cat=0
split_feature=0 0 2 0 0
split_gain=6.64934 0.931597 0.0847363 2.22045e-16 5.55112e-17
threshold=4.1804221323819748 4.4223819197321799 6.6575000286102304 6.8424930952703837 7.1036856385576561
decision_type=2 2 2 2 2
left_child=-1 -2 -3 -4 -5
right_child=1 2 3 4 -6
leaf_value=-0.0090935256663015277 -0.001561682111313592 0.006507634052263846 0.0059917047591841952 0.092167162237597203 0.097941518475118755
leaf_weight=12.999999999999998 14.999999999999998 10.999999999999998 116 11.999999999999998 23
leaf_count=13 15 11 116 12 23
internal_value=0.00105263 0.00358757 0.00469136 0.005 0.005
internal_weight=190 177 162 151 35
internal_count=190 177 162 151 35
is_linear=0
shrinkage=0.05


Tree=16
num_leaves=4
num_cat=0
split_feature=1 1 3
split_gain=6.99168 0.158562 0.218182
threshold=3.338750004768372 3.6087499856948857 2330.0000000000005
decision_type=2 2 2
left_child=-1 2 -2
right_child=1 -3 -4
leaf_value=-0.0071622336936400192 -0.0011304494460686475 0.0093539692859219911 0.0024265183362730466
leaf_weight=18 10.000000000000002 150 11.999999999999998
leaf_count=18 10 150 12
internal_value=0.00131579 0.0044186 0.000454546
internal_weight=190 172 22
internal_count=190 172 22
is_linear=0
shrinkage=0.05


Tree=17
num_leaves=6
num_cat=0
split_feature=1 0 2 0 0
split_gain=5.74297 0.353847 0.0847363 2.22045e-16 5.55112e-17
threshold=3.338750004768372 4.4223819197321799 6.6575000286102304 6.8424930952703837 7.1036856385576561
decision_type=2 2 2 2 2
left_child=-1 -2 -3 -4 -5
right_child=1 2 3 4 -6
leaf_value=-0.0068041220089580358 -0.00046425480808455532 0.0057897184335240189 0.0053626338457756478 0.087091105661421253 0.092576744087066745
leaf_weight=18 9.9999999999999982 10.999999999999998 116 11.999999999999998 23
leaf_count=18 10 11 116 12 23
internal_value=0.00131579 0.00412791 0.00469136 0.005 0.005
internal_weight=190 172 162 151 35
internal_count=190 172 162 151 35
is_linear=0
shrinkage=0.05


Tree=18
num_leaves=6
num_cat=0
split_feature=0 0 2 0 0
split_gain=5.34043 0.931597 0.0847363 2.22045e-16 5.55112e-17
threshold=4.1804221323819748 4.4223819197321799 6.6575000286102304 6.8424930952703837 7.1036856385576561
decision_type=2 2 2 2 2
left_child=-1 -2 -3 -4 -5
right_child=1 2 3 4 -6
leaf_value=-0.0079405315978565479 -0.0010327132624915302 0.0055002325118478053 0.0050945021534868611 0.082736550378350204 0.087947906882713409
leaf_weight=12.999999999999998 14.999999999999998 10.999999999999998 116 11.999999999999998 23
leaf_count=13 15 11 116 12 23
internal_value=0.00131579 0.00358757 0.00469136 0.005 0.005
internal_weight=190 177 162 151 35
internal_count=190 177 162 151 35
is_linear=0
shrinkage=0.05


Tree=19
num_leaves=6
num_cat=0
split_feature=1 0 2 0 0
split_gain=4.71841 0.353847 0.0847363 2.22045e-16 5.55112e-17
threshold=3.338750004768372 4.4223819197321799 6.6575000286102304 6.8424930952703837 7.1036856385576561
decision_type=2 2 2 2 2
left_child=-1 -2 -3 -4 -5
right_child=1 2 3 4 -6
leaf_value=-0.0060668893286172755 -0.00038940640455575095 0.005225220886255425 0.004839777045812536 0.078599722859432675 0.083550511538577732
leaf_weight=18 9.9999999999999982 10.999999999999998 116 11.999999999999998 23
leaf_count=18 10 11 116 12 23
internal_value=0.00157895 0.00412791 0.00469136 0.005 0.005
internal_weight=190 172 162 151 35
internal_count=190 172 162 151 35
is_linear=0
shrinkage=0.05


Tree=20
num_leaves=6
num_cat=0
split_feature=1 0 5 0 0
split_gain=3.03617 0.135904 0.24 2.22045e-16 2.22045e-16
threshold=3.338750004768372 4.5182225591009528 4.4443978012853522 7.2311847044911932 6.976175884274773
decision_type=2 2 2 2 2
left_child=-1 2 -2 4 -3
right_child=1 3 -4 -5 -6
leaf_value=-0.0057635448621863985 0.0031909601577693389 0.0083728896835938305 -0.00072670451387690782 0.079648822448531095 0.082578732384410741
leaf_weight=18 15.000000000000002 116 9.9999999999999982 13.999999999999998 10.999999999999998
leaf_count=18 15 116 10 14 11
internal_value=0.00228261 0.00439759 0.001 0.005 0.005
internal_weight=184 166 25 141 127
internal_count=184 166 25 141 127
is_linear=0
shrinkage=0.05


Tree=21
num_leaves=6
num_cat=0
split_feature=1 0 5 0 0
split_gain=3.03617 0.135904 0.24 2.22045e-16 2.22045e-16
threshold=3.338750004768372 4.5182225591009528 4.4443978012853522 7.2311847044911932 6.976175884274773
decision_type=2 2 2 2 2
left_child=-1 2 -2 4 -3
right_child=1 3 -4 -5 -6
leaf_value=-0.0054753676190770761 0.0030314121498808732 0.0079542451994141332 -0.00069036928818306793 0.075666381326104537 0.078449795765190206
leaf_weight=18 15.000000000000002 116 9.9999999999999982 13.999999999999998 10.999999999999998
leaf_count=18 15 116 10 14 11
internal_value=0.00228261 0.00439759 0.001 0.005 0.005
internal_weight=184 166 25 141 127
internal_count=184 166 25 141 127
is_linear=0
shrinkage=0.05


Tree=22
num_leaves=6
num_cat=0
split_feature=1 0 5 0 0
split_gain=3.03617 0.135904 0.24 2.22045e-16 2.22045e-16
threshold=3.338750004768372 4.5182225591009528 4.4443978012853522 7.2311847044911932 6.976175884274773
decision_type=2 2 2 2 2
left_child=-1 2 -2 4 -3
right_child=1 3 -4 -5 -6
leaf_value=-0.0052015992381232229 0.0028798415423868504 0.0075565329394434158 -0.00065585082377392898 0.071883062259799277 0.074527305976930677
leaf_weight=18 15.000000000000002 116 9.9999999999999982 13.999999999999998 10.999999999999998
leaf_count=18 15 116 10 14 11
internal_value=0.00228261 0.00439759 0.001 0.005 0.005
internal_weight=184 166 25 141 127
internal_count=184 166 25 141 127
is_linear=0
shrinkage=0.05


Tree=23
num_leaves=6
num_cat=0
split_feature=1 0 5 0 0
split_gain=3.03617 0.135904 0.24 2.22045e-16 2.22045e-16
threshold=3.338750004768372 4.5182225591009528 4.4443978012853522 7.2311847044911932 6.976175884274773
decision_type=2 2 2 2 2
left_child=-1 2 -2 4 -3
right_child=1 3 -4 -5 -6
leaf_value=-0.0049415192762170658 0.0027358494652675023 0.0071787062924712252 -0.00062305828258522032 0.068288909146809296 0.070800940678084137
leaf_weight=18 15.000000000000002 116 9.9999999999999982 13.999999999999998 10.999999999999998
leaf_count=18 15 116 10 14 11
internal_value=0.00228261 0.00439759 0.001 0.005 0.005
internal_weight=184 166 25 141 127
internal_count=184 166 25 141 127
is_linear=0
shrinkage=0.05


Tree=24
num_leaves=5
num_cat=0
split_feature=2 16 0 0
split_gain=2.76588 1.8 0.052726 4.44089e-16
threshold=6.4949998855590829 121.99224853515626 4.4223819197321799 7.2311847044911932
decision_type=2 2 2 2
left_child=1 -1 -2 -4
right_child=2 -3 3 -5
leaf_value=0.00063203164758307562 0.0015707987692920831 -0.0044091303484615364 0.0042228320708430191 0.064874463689468836
leaf_weight=10.000000000000002 17 9.9999999999999982 133 13.999999999999998
leaf_count=10 17 10 133 14
internal_value=0.00255435 -0.015 0.00469512 0.005
internal_weight=184 20 164 147
internal_count=184 20 164 147
is_linear=0
shrinkage=0.05


Tree=25
num_leaves=6
num_cat=0
split_feature=2 16 0 4 0
split_gain=3.03847 2.22727 0.112774 0.262069 4.44089e-16
threshold=6.4949998855590829 122.32360076904298 4.4967361392305056 4.4415703234686648 4.6061064683472752
decision_type=2 2 2 2 2
left_child=1 -1 3 -2 -4
right_child=2 -3 4 -5 -6
leaf_value=0.0015681876680340087 0.0020169434498463474 -0.0039272766457080673 0.0031033784156718827 -6.2099878642074438e-05 0.0090791287774932682
leaf_weight=11.000000000000002 19.000000000000004 10.999999999999998 13.999999999999998 9.9999999999999982 116
leaf_count=11 19 11 14 10 116
internal_value=0.00196133 -0.0154545 0.00437107 0.00155172 0.005
internal_weight=181 22 159 29 130
internal_count=181 22 159 29 130
is_linear=0
shrinkage=0.05


Tree=26
num_leaves=7
num_cat=0
split_feature=2 3 3 0 0 0
split_gain=2.29719 1.02424 0.161065 0.0595238 2.22045e-16 2.22045e-16
threshold=6.4949998855590829 2386.0000000000005 2605.0000000000005 4.4223819197321799 7.4818760995139435 6.7114601310038546
decision_type=2 2 2 2 2 2
left_child=1 -1 3 -2 5 -5
right_child=2 -3 -4 4 -6 -7
leaf_value=7.5328033266655091e-05 0.00094343271621506524 -0.0065291763263797811 0.0019813551020879147 0.0035608909917420033 0.077073757709171756 0.063380740003178254
leaf_weight=12.000000000000002 14.999999999999998 9.9999999999999982 19 86 9.9999999999999982 29
leaf_count=12 15 10 19 86 10 29
internal_value=0.00196133 -0.0131818 0.0040566 0.00464286 0.005 0.005
internal_weight=181 22 159 140 125 115
internal_count=181 22 159 140 125 115
is_linear=0
shrinkage=0.05


Tree=27
num_leaves=6
num_cat=0
split_feature=2 8 6 0 0
split_gain=1.07442 0.201622 0.503704 0.2 2.22045e-16
threshold=6.1475000381469735 4.7650296077992049 4.5664318774991584 4.5981589119276753 6.2038254722408022
decision_type=2 2 2 2 2
left_child=-1 2 -2 -4 -3
right_child=1 4 3 -5 -6
leaf_value=-0.0057231029735944411 0.0012233729414987638 0.0040337153215732162 -0.00066094590314414153 0.0021030982012112476 0.062956864259065215
leaf_weight=11.999999999999998 34 58 10.000000000000002 9.9999999999999982 57
leaf_count=12 34 58 10 10 57
internal_value=0.00279006 0.00381657 0.0012963 -0.005 0.005
internal_weight=181 169 54 20 115
internal_count=181 169 54 20 115
is_linear=0
shrinkage=0.05


Tree=28
num_leaves=5
num_cat=0
split_feature=11 8 6 0
split_gain=1.31554 0.223614 0.441905 0.229004
threshold=4.1728997755621409 4.7650296077992049 4.5664318774991584 4.5981589119276753
decision_type=2 2 2 2
left_child=-1 2 -2 -4
right_child=1 -3 3 -5
leaf_value=-0.004550978411306872 0.0019554632711030165 0.0069173919324464457 -0.00062789860798693467 0.002259441424704437
leaf_weight=14.999999999999998 29 116 10.000000000000002 10.999999999999998
leaf_count=15 29 116 10 11
internal_value=0.00251381 0.00379518 0.001 -0.00452381
internal_weight=181 166 50 21
internal_count=181 166 50 21
is_linear=0
shrinkage=0.05


Tree=29
num_leaves=6
num_cat=0
split_feature=9 13 7 15 1
split_gain=0.732443 0.741176 0.8 0.139456 0.233333
threshold=4.4967361392305056 4.3406586168248156 4.5993995847180882 0.09862390140809793 3.6387499570846562
decision_type=2 2 2 2 2
left_child=1 -1 -3 4 -2
right_child=3 2 -4 -5 -6
leaf_value=0.0020752248089088792 -0.00042995667624391487 -0.0056890134408157482 0.0018224209702383321 0.003501291085834557 0.0071964047861817248
leaf_weight=13.999999999999998 10.000000000000002 10.000000000000002 9.9999999999999982 123 13.999999999999998
leaf_count=14 10 10 10 123 14
internal_value=0.00279006 -0.00382353 -0.01 0.00431973 0.000833334
internal_weight=181 34 20 147 24
internal_count=181 34 20 147 24
is_linear=0
shrinkage=0.05


Tree=30
num_leaves=6
num_cat=0
split_feature=0 3 13 13 2
split_gain=1.1206 0.539515 1.62976 0.0928571 4.44089e-16
threshold=4.5182225591009528 2458.0000000000005 4.3406586168248156 4.4887746573806702 6.8662500381469735
decision_type=2 2 2 2 2
left_child=1 2 -1 -2 -5
right_child=3 -3 -4 4 -6
leaf_value=0.00061283197689877475 0.0058359258360118739 0.00021484396309815043 -0.0054045627687749551 0.0032208830712537277 0.010227078954834441
leaf_weight=14.000000000000002 9.9999999999999982 17 9.9999999999999982 13.999999999999998 116
leaf_count=14 10 17 10 14 116
internal_value=0.00251381 -0.0047561 -0.00958333 0.00464286 0.005
internal_weight=181 41 24 140 130
internal_count=181 41 24 140 130
is_linear=0
shrinkage=0.05


Tree=31
num_leaves=6
num_cat=0
split_feature=14 17 13 0 10
split_gain=1.14253 1.23355 0.434166 0.0924812 0.062963
threshold=4.8016934578079686 166.26650238037112 4.6002784876089864 4.5182225591009528 4.5276694149791927
decision_type=2 2 2 2 2
left_child=1 2 4 -2 -1
right_child=3 -3 -4 -5 -6
leaf_value=0.0026591506359642364 0.0017855805122081907 -0.0051343346303362007 -0.00051062290971978753 0.0073013241114097023 0.0020163308533055085
leaf_weight=10.000000000000002 9.9999999999999982 9.9999999999999982 10.999999999999998 123 17
leaf_count=10 10 10 11 123 17
internal_value=0.00223757 -0.004375 -0.000263158 0.00462406 0.00314815
internal_weight=181 48 38 133 27
internal_count=181 48 38 133 27
is_linear=0
shrinkage=0.05


Tree=32
num_leaves=8
num_cat=0
split_feature=11 18 16 0 0 0 0
split_gain=1.25804 0.483351 0.304762 0.154607 0.218182 2.22045e-16 2.22045e-16
threshold=4.1326026077231033 2024.5000000000002 122.58479690551759 4.5182225591009528 4.4223819197321799 7.4818760995139435 6.7568458043521362
decision_type=2 2 2 2 2 2 2
left_child=-1 3 -3 4 -2 6 -5
right_child=1 2 -4 5 -6 -7 -8
leaf_value=-0.0048776178988193851 0.00073985641731942869 -0.00059373823238870432 0.0033720851966828006 0.006027289359137461 -0.00044578346523323296 0.063475919237538744 0.055666505485839859
leaf_weight=9.9999999999999982 12.000000000000002 10.000000000000002 13.999999999999998 86 9.9999999999999982 9.9999999999999982 29
leaf_count=10 12 10 14 86 10 10 29
internal_value=0.00223757 0.00324561 -0.00333333 0.00431973 0.000454546 0.005 0.005
internal_weight=181 171 24 147 22 125 115
internal_count=181 171 24 147 22 125 115
is_linear=0
shrinkage=0.05


Tree=33
num_leaves=5
num_cat=0
split_feature=14 13 3 0
split_gain=0.893338 0.952381 1.53651 0.0924812
threshold=4.8016934578079686 4.3406586168248156 2499.0000000000005 4.5182225591009528
decision_type=2 2 2 2
left_child=1 -1 -3 -2
right_child=3 2 -4 -5
leaf_value=0.0018250742378344174 0.0017185906598594484 -0.0046337370038784234 2.5756614635766632e-05 0.0066348934378823617
leaf_weight=20 9.9999999999999982 10.000000000000002 18 123
leaf_count=20 10 10 18 123
internal_value=0.00251381 -0.00333333 -0.00928571 0.00462406
internal_weight=181 48 28 133
internal_count=181 48 28 133
is_linear=0
shrinkage=0.05


Tree=34
num_leaves=8
num_cat=0
split_feature=1 12 12 7 0 0 0
split_gain=0.692608 0.325499 0.615258 0.450922 2.22045e-16 2.22045e-16 5.55112e-17
threshold=3.2087500095367436 4.727975705247828 4.5326502882606787 4.5893350323986537 7.4818760995139435 6.976175884274773 4.5182225591009528
decision_type=2 2 2 2 2 2 2
left_child=-1 2 6 -4 5 -3 -2
right_child=1 4 3 -5 -6 -7 -8
leaf_value=-0.0044020501536844994 0.00020136290676466573 0.0066571883893395941 -0.0013101827634512935 0.00039046180314446233 0.059970378603767707 0.049316372295147202 0.0024475935497866533
leaf_weight=9.9999999999999982 19.000000000000004 92 11.000000000000002 11.999999999999998 9.9999999999999982 15.999999999999998 10.999999999999998
leaf_count=10 19 92 11 12 10 16 11
internal_value=0.00279006 0.00353801 0.000283019 -0.00586956 0.005 0.005 0.005
internal_weight=181 171 53 23 118 108 30
internal_count=181 171 53 23 118 108 30
is_linear=0
shrinkage=0.05


Tree=35
num_leaves=7
num_cat=0
split_feature=2 9 15 0 0 2
split_gain=0.676801 0.238076 0.0843301 2.22045e-16 2.22045e-16 1.11022e-16
threshold=6.4949998855590829 4.1869114647363928 0.090583994506263171 7.4818760995139435 6.0698255311032421 7.2962501049041757
decision_type=2 2 2 2 2 2
left_child=-1 -2 -3 4 5 -4
right_child=1 2 3 -5 -6 -7
leaf_value=-0.0031609132475746808 0.00043770431102224986 0.0022959293423002528 0.0035163330905245262 0.056971859673579317 0.055636419446418443 0.0020484302230999968
leaf_weight=18 13.999999999999998 10.999999999999998 14.999999999999998 9.9999999999999982 58 58
leaf_count=18 14 11 15 10 58 58
internal_value=0.00309783 0.00409639 0.00467105 0.005 0.005 0.005
internal_weight=184 166 152 141 131 73
internal_count=184 166 152 141 131 73
is_linear=0
shrinkage=0.05


Tree=36
num_leaves=6
num_cat=0
split_feature=6 12 12 3 0
split_gain=0.889149 0.239216 0.592982 0.0736842 5.55112e-17
threshold=4.2454352421312516 4.727975705247828 4.624770135186191 2297.0000000000005 4.5182225591009528
decision_type=2 2 2 2 2
left_child=-1 2 3 -2 -5
right_child=1 -3 -4 4 -6
leaf_value=-0.00295364117141661 -0.00018424567763264917 0.0086793948750967884 -0.00044527023550518892 0.00043463276789412183 0.0022227923609579332
leaf_weight=13.999999999999998 9.9999999999999982 122 9.9999999999999982 17.000000000000004 10.999999999999998
leaf_count=14 10 122 10 17 11
internal_value=0.00282609 0.00382353 0.000833334 0.00368421 0.005
internal_weight=184 170 48 38 28
internal_count=184 170 48 38 28
is_linear=0
shrinkage=0.05


Tree=37
num_leaves=7
num_cat=0
split_feature=2 9 15 0 0 2
split_gain=0.676801 0.238076 0.0843301 2.22045e-16 2.22045e-16 1.11022e-16
threshold=6.4949998855590829 4.1869114647363928 0.090583994506263171 7.4818760995139435 6.0698255311032421 7.2962501049041757
decision_type=2 2 2 2 2 2
left_child=-1 -2 -3 4 5 -4
right_child=1 2 3 -5 -6 -7
leaf_value=-0.002952114372415258 0.00030121262174941587 0.0022033963814072619 0.0029065466922434616 0.053689296946145507 0.052420628730342658 0.0019902381645347266
leaf_weight=18 13.999999999999998 10.999999999999998 14.999999999999998 9.9999999999999982 58 58
leaf_count=18 14 11 15 10 58 58
internal_value=0.00309783 0.00409639 0.00467105 0.005 0.005 0.005
internal_weight=184 166 152 141 131 73
internal_count=184 166 152 141 131 73
is_linear=0
shrinkage=0.05


Tree=38
num_leaves=6
num_cat=0
split_feature=9 16 15 0 0
split_gain=0.963529 1.04584 0.141026 0.233333 2.22045e-16
threshold=4.4967361392305056 123.01830291748048 0.09862390140809793 4.6061064683472752 7.4818760995139435
decision_type=2 2 2 2 2
left_child=1 -1 3 -2 -4
right_child=2 -3 4 -5 -6
leaf_value=-0.0035443228078328782 -0.00063962819679213114 0.0031181287593742106 0.0026584850663779378 0.0037975836069436167 0.051004832098838243
leaf_weight=11.000000000000002 10.000000000000002 17 122 13.999999999999998 9.9999999999999982
leaf_count=11 10 17 122 14 10
internal_value=0.00282609 -0.00571429 0.00435897 0.000833334 0.005
internal_weight=184 28 156 24 132
internal_count=184 28 156 24 132
is_linear=0
shrinkage=0.05


Tree=39
num_leaves=6
num_cat=0
split_feature=6 12 12 3 0
split_gain=0.889149 0.239216 0.592982 0.0736842 5.55112e-17
threshold=4.2454352421312516 4.727975705247828 4.624770135186191 2297.0000000000005 4.5182225591009528
decision_type=2 2 2 2 2
left_child=-1 2 3 -2 -5
right_child=1 -3 -4 4 -6
leaf_value=-0.0024811372538333879 -8.7140873322907137e-05 0.0081871909049296542 -0.00045047910765264303 0.00042758259480128442 0.0018792165836629068
leaf_weight=13.999999999999998 9.9999999999999982 122 9.9999999999999982 17.000000000000004 10.999999999999998
leaf_count=14 10 122 10 17 11
internal_value=0.00282609 0.00382353 0.000833334 0.00368421 0.005
internal_weight=184 170 48 38 28
internal_count=184 170 48 38 28
is_linear=0
shrinkage=0.05


Tree=40
num_leaves=4
num_cat=0
split_feature=9 15 3
split_gain=0.348611 0.0772727 0.0623377
threshold=4.3768171004543248 0.081857505325873256 2542.0000000000005
decision_type=2 2 2
left_child=2 -2 -1
right_child=1 -3 -4
leaf_value=0.0052529320126390548 0.0018465703499656223 0.0025047548497540116 -0.00027163951241161483
leaf_weight=11.000000000000002 11.999999999999998 153 9.9999999999999982
leaf_count=11 12 153 10
internal_value=0.00392473 0.00469697 -0.00214286
internal_weight=186 165 21
internal_count=186 165 21
is_linear=0
shrinkage=0.05


Tree=41
num_leaves=5
num_cat=0
split_feature=9 1 0 3
split_gain=0.318405 0.100758 0.208333 0.0623377
threshold=4.3768171004543248 3.5487499237060551 4.3742090751591247 2542.0000000000005
decision_type=2 2 2 2
left_child=3 2 -2 -1
right_child=1 -3 -4 -5
leaf_value=0.0049902854120070991 0.00065363138926287367 0.0045863901192894855 2.2310375128605996e-05 -0.00025805753679103465
leaf_weight=11.000000000000002 20 133 11.999999999999998 9.9999999999999982
leaf_count=11 20 133 12 10
internal_value=0.00365591 0.00439394 0.001875 -0.00214286
internal_weight=186 165 32 21
internal_count=186 165 32 21
is_linear=0
shrinkage=0.05


Tree=42
num_leaves=7
num_cat=0
split_feature=17 5 2 3 0 0
split_gain=0.490405 0.246154 0.25 0.2 0.05 2.22045e-16
threshold=177.44499969482425 4.5893350323986537 8.8837499618530291 2546.0000000000005 4.2208102449545644 7.1794720770717522
decision_type=2 2 2 2 2 2
left_child=1 2 4 -3 -1 -2
right_child=5 3 -4 -5 -6 -7
leaf_value=-0.00022870813933096904 0.0071569408372783765 0.00066369578854666108 0.001850068259204034 -0.00050940630126161213 -0.00012854892860408298 0.042582503963701494
leaf_weight=10.000000000000002 106 10.000000000000002 25 9.9999999999999982 9.9999999999999982 14.999999999999998
leaf_count=10 106 10 25 10 10 15
internal_value=0.00311828 -0.000384615 0.00166667 -0.005 -0.0025 0.005
internal_weight=186 65 45 20 20 121
internal_count=186 65 45 20 20 121
is_linear=0
shrinkage=0.05


Tree=43
num_leaves=6
num_cat=0
split_feature=12 6 15 3 21
split_gain=0.671787 0.718052 0.302439 0.29697 5.55112e-17
threshold=4.727975705247828 4.547495028044346 0.14597324944298781 2542.0000000000005 3.5000000000000004
decision_type=2 2 2 2 2
left_child=1 2 4 -3 -1
right_child=-2 3 -4 -5 -6
leaf_value=0.0014561687819129475 0.0068072157236732994 -7.9053013602755671e-05 -0.00047972230044171027 -0.00048393598619855349 0.0015943803789516668
leaf_weight=21 123 12.000000000000002 9.9999999999999982 9.9999999999999982 10.000000000000002
leaf_count=21 123 12 10 10 10
internal_value=0.00284946 -0.00134921 0.00256098 -0.00863636 0.005
internal_weight=186 63 41 22 31
internal_count=186 63 41 22 31
is_linear=0
shrinkage=0.05


Tree=44
num_leaves=6
num_cat=0
split_feature=12 12 3 15 0
split_gain=0.671787 0.47685 0.465385 0.255528 5.55112e-17
threshold=4.727975705247828 4.5169445984451704 2546.0000000000005 0.14546841049610573 4.5182225591009528
decision_type=2 2 2 2 2
left_child=1 3 -3 4 -1
right_child=-2 2 -4 -5 -6
leaf_value=0.0013229787926448723 0.0064668549374896529 3.1870693522424593e-05 -0.00045973918688861447 -9.3063651316337506e-05 0.0016768382595968524
leaf_weight=15.000000000000002 123 16.000000000000004 9.9999999999999982 10.999999999999998 10.999999999999998
leaf_count=15 123 16 10 11 11
internal_value=0.00284946 -0.00134921 -0.00653846 0.0022973 0.005
internal_weight=186 63 26 37 26
internal_count=186 63 26 37 26
is_linear=0
shrinkage=0.05


Tree=45
num_leaves=7
num_cat=0
split_feature=14 17 13 0 9 1
split_gain=1.66129 2.08439 0.514662 0.0927536 0.0642857 2.22045e-16
threshold=4.8867679101136057 166.26650238037112 4.6173713971455967 4.5182225591009528 4.103237078304109 5.9974999427795419
decision_type=2 2 2 2 2 2
left_child=1 2 4 -2 -1 -5
right_child=3 -3 -4 5 -6 -7
leaf_value=0.0024011516497790242 0.00094254449800846337 -0.0036233101685211838 -0.00044798893017719029 0.0054176927572734887 0.001823369135714598 0.038722124471114824
leaf_weight=10.000000000000002 9.9999999999999982 11.999999999999998 9.9999999999999982 116 18 11.999999999999998
leaf_count=10 10 12 10 116 18 12
internal_value=0.00180851 -0.006 -0.000263158 0.00463768 0.00321429 0.005
internal_weight=188 50 38 138 28 128
internal_count=188 50 38 138 28 128
is_linear=0
shrinkage=0.05


Tree=46
num_leaves=6
num_cat=0
split_feature=0 2 1 8 1
split_gain=1.40351 0.906669 0.409699 0.0931507 2.22045e-16
threshold=4.5182225591009528 8.6737499237060565 3.2275000810623173 4.3768171004543248 5.5387499332427987
decision_type=2 2 2 2 2
left_child=1 2 -1 -2 -5
right_child=3 -3 -4 4 -6
leaf_value=-0.002872475869072169 0.00083755225821967685 0.00085427543174538601 -0.0018540819415114561 0.0041002447095769539 0.038006858283568645
leaf_weight=13.000000000000002 9.9999999999999982 19 9.9999999999999982 116 20
leaf_count=13 10 19 10 116 20
internal_value=0.00234043 -0.00571429 -0.0123913 0.00465753 0.005
internal_weight=188 42 23 146 136
internal_count=188 42 23 146 136
is_linear=0
shrinkage=0.05


Tree=47
num_leaves=6
num_cat=0
split_feature=1 19 10 8 0
split_gain=1.31235 0.964286 1.20714 0.239269 2.22045e-16
threshold=3.620000004768372 34.500000000000007 5.6245772129341196 4.4443978012853522 4.6897131776889625
decision_type=2 2 2 2 2
left_child=1 2 -1 -2 -5
right_child=3 -3 -4 4 -6
leaf_value=-0.0035746380681448298 0.00028028014321648099 0.00051737062547059455 -0.00017963422685436412 0.0020295171149478249 0.0079712450792446612
leaf_weight=10.000000000000002 14.999999999999998 13.999999999999998 18 14.999999999999998 116
leaf_count=10 15 14 18 15 116
internal_value=0.00207447 -0.00571429 -0.0110714 0.00431507 0.005
internal_weight=188 42 28 146 131
internal_count=188 42 28 146 131
is_linear=0
shrinkage=0.05


Tree=48
num_leaves=6
num_cat=0
split_feature=1 12 15 0 0
split_gain=0.875601 0.504416 0.483422 0.278788 2.22045e-16
threshold=3.7374999523162846 4.5326502882606787 0.10869490678724453 4.103237078304109 7.4818760995139435
decision_type=2 2 2 2 2
left_child=1 3 -3 -1 -2
right_child=4 2 -4 -5 -6
leaf_value=-0.0033959061647375818 0.0057922914991477325 -0.00042611084416173086 -0.00040482270589149786 0.00031894735265490613 0.040662833577258042
leaf_weight=9.9999999999999982 116 13.000000000000002 15.999999999999998 23 9.9999999999999982
leaf_count=10 116 13 16 23 10
internal_value=0.00260638 -0.00225806 -0.00706897 0.0019697 0.005
internal_weight=188 62 29 33 126
internal_count=188 62 29 33 126
is_linear=0
shrinkage=0.05


Tree=49
num_leaves=6
num_cat=0
split_feature=1 6 4 0 0
split_gain=0.875601 0.381431 0.569083 2.22045e-16 5.55112e-17
threshold=3.7374999523162846 4.5987191523940405 4.281636610797233 7.4818760995139435 4.4496188867746413
decision_type=2 2 2 2 2
left_child=1 2 -1 -2 -4
right_child=3 -3 4 -5 -6
leaf_value=-0.0021033953046888632 0.0055026769241903351 -0.00055168926533480812 0.00048719187727886407 0.038629691898395137 0.0016420676195185856
leaf_weight=17 116 19 15.000000000000002 9.9999999999999982 10.999999999999998
leaf_count=17 116 19 15 10 11
internal_value=0.00260638 -0.00225806 0.000348837 0.005 0.005
internal_weight=188 62 43 126 26
internal_count=188 62 43 126 26
is_linear=0
shrinkage=0.05


Tree=50
num_leaves=8
num_cat=0
split_feature=0 4 17 13 3 1 0
split_gain=0.847665 0.65219 0.320158 0.714286 0.069697 0.0523809 2.22045e-16
threshold=4.8287091032144582 4.7308218677719145 166.26650238037112 4.5350565755639076 2542.0000000000005 3.6087499856948857 7.4818760995139435
decision_type=2 2 2 2 2 2 2
left_child=1 2 4 -4 -1 -5 -2
right_child=6 -3 3 5 -6 -7 -8
leaf_value=0.0010575730720712886 0.020842325755726466 -0.0010693918310728291 -0.0027480443819692685 -3.2960642940407792e-05 0.0001978735866904633 0.002786768127987871 0.036698207303475394
leaf_weight=23 92 10.999999999999998 14.999999999999998 10.000000000000002 9.9999999999999982 10.999999999999998 9.9999999999999982
leaf_count=23 92 11 15 10 10 11 10
internal_value=0.00197802 -0.001875 -7.24636e-05 -0.00333333 0.00348485 0.00261905 0.005
internal_weight=182 80 69 36 33 21 102
internal_count=182 80 69 36 33 21 102
is_linear=0
shrinkage=0.05


Tree=51
num_leaves=8
num_cat=0
split_feature=0 4 17 13 3 1 0
split_gain=0.700549 0.726285 0.286538 0.720914 0.072973 0.0523809 2.22045e-16
threshold=4.8287091032144582 4.7308218677719145 167.4164962768555 4.5350565755639076 2542.0000000000005 3.6087499856948857 7.4818760995139435
decision_type=2 2 2 2 2 2 2
left_child=1 2 4 -4 -1 -5 -2
right_child=6 -3 3 5 -6 -7 -8
leaf_value=0.00059914991432802745 0.019800209467940144 -0.0010159222395191949 -0.0027992475105512002 -3.1312610793390876e-05 0.00018797990735595828 0.0026474297215884571 0.03486329693830164
leaf_weight=27 92 10.999999999999998 10.999999999999998 10.000000000000002 9.9999999999999982 10.999999999999998 9.9999999999999982
leaf_count=27 92 11 11 10 10 11 10
internal_value=0.00225275 -0.00125 0.000652174 -0.0028125 0.00364865 0.00261905 0.005
internal_weight=182 80 69 32 37 21 102
internal_count=182 80 69 32 37 21 102
is_linear=0
shrinkage=0.05


Tree=52
num_leaves=7
num_cat=0
split_feature=0 4 0 17 19 0
split_gain=0.567445 0.804364 0.232919 0.508466 0.062963 2.22045e-16
threshold=4.8287091032144582 4.7308218677719145 4.5182225591009528 167.4164962768555 24.500000000000004 7.4818760995139435
decision_type=2 2 2 2 2 2
left_child=1 2 3 4 -1 -2
right_child=5 -3 -4 -5 -6 -7
leaf_value=0.00079050976658588375 0.018810198994543149 -0.00096512612754323559 0.00087668172374299504 -0.0024706797873432426 7.1375603430002743e-05 0.033120132091386534
leaf_weight=10.000000000000002 92 10.999999999999998 27 14.999999999999998 17 9.9999999999999982
leaf_count=10 92 11 27 15 17 10
internal_value=0.00252747 -0.000625 0.00137681 -0.000952381 0.00314815 0.005
internal_weight=182 80 69 42 27 102
internal_count=182 80 69 42 27 102
is_linear=0
shrinkage=0.05


Tree=53
num_leaves=7
num_cat=0
split_feature=0 4 8 3 3 0
split_gain=0.700549 0.726285 0.337235 0.555556 0.074359 2.22045e-16
threshold=4.8287091032144582 4.7308218677719145 4.6268441699822001 2437.0000000000005 2163.0000000000005 7.4818760995139435
decision_type=2 2 2 2 2 2
left_child=1 2 4 -4 -1 -2
right_child=5 -3 3 -5 -6 -7
leaf_value=-0.00017230967910465534 0.017869689044816006 -0.00091686982116608766 0.0021185754866274494 -0.00097480028513173458 0.00014876858783102081 0.031464125486817186
leaf_weight=9.9999999999999982 92 10.999999999999998 12.000000000000002 18 29 9.9999999999999982
leaf_count=10 92 11 12 18 29 10
internal_value=0.00225275 -0.00125 0.000652174 -0.00333333 0.00371795 0.005
internal_weight=182 80 69 30 39 102
internal_count=182 80 69 30 39 102
is_linear=0
shrinkage=0.05


end of trees

feature_importances:
Column_0=109
Column_1=30
Column_2=25
Column_3=16
Column_4=13
Column_12=10
Column_5=9
Column_13=8
Column_15=8
Column_9=7
Column_6=6
Column_8=6
Column_17=6
Column_14=4
Column_16=4
Column_7=2
Column_10=2
Column_11=2
Column_19=2
Column_18=1
Column_21=1

parameters:
[boosting: gbdt]
[objective: quantile]
[metric: quantile]
[tree_learner: serial]
[device_type: cpu]
[data_sample_strategy: bagging]
[data: ]
[valid: ]
[num_iterations: 800]
[learning_rate: 0.05]
[num_leaves: 31]
[num_threads: 0]
[seed: 42]
[deterministic: 0]
[force_col_wise: 0]
[force_row_wise: 0]
[histogram_pool_size: -1]
[max_depth: -1]
[min_data_in_leaf: 10]
[min_sum_hessian_in_leaf: 0.001]
[bagging_fraction: 0.9]
[pos_bagging_fraction: 1]
[neg_bagging_fraction: 1]
[bagging_freq: 5]
[bagging_seed: 400]
[bagging_by_query: 0]
[feature_fraction: 0.9]
[feature_fraction_bynode: 1]
[feature_fraction_seed: 30056]
[extra_trees: 0]
[extra_seed: 12879]
[early_stopping_round: 0]
[early_stopping_min_delta: 0]
[first_metric_only: 0]
[max_delta_step: 0]
[lambda_l1: 0]
[lambda_l2: 0]
[linear_lambda: 0]
[min_gain_to_split: 0]
[drop_rate: 0.1]
[max_drop: 50]
[skip_drop: 0.5]
[xgboost_dart_mode: 0]
[uniform_drop: 0]
[drop_seed: 17869]
[top_rate: 0.2]
[other_rate: 0.1]
[min_data_per_group: 100]
[max_cat_threshold: 32]
[cat_l2: 10]
[cat_smooth: 10]
[max_cat_to_onehot: 4]
[top_k: 20]
[monotone_constraints: ]
[monotone_constraints_method: basic]
[monotone_penalty: 0]
[feature_contri: ]
[forcedsplits_filename: ]
[refit_decay_rate: 0.9]
[cegb_tradeoff: 1]
[cegb_penalty_split: 0]
[cegb_penalty_feature_lazy: ]
[cegb_penalty_feature_coupled: ]
[path_smooth: 0]
[interaction_constraints: ]
[verbosity: -1]
[saved_feature_importance_type: 0]
[use_quantized_grad: 0]
[num_grad_quant_bins: 4]
[quant_train_renew_leaf: 0]
[stochastic_rounding: 1]
[linear_tree: 0]
[max_bin: 255]
[max_bin_by_feature: ]
[min_data_in_bin: 3]
[bin_construct_sample_cnt: 200000]
[data_random_seed: 175]
[is_enable_sparse: 1]
[enable_bundle: 1]
[use_missing: 1]
[zero_as_missing: 0]
[feature_pre_filter: 1]
[pre_partition: 0]
[two_round: 0]
[header: 0]
[label_column: ]
[weight_column: ]
[group_column: ]
[ignore_column: ]
[categorical_feature: ]
[forcedbins_filename: ]
[precise_float_parser: 0]
[parser_config_file: ]
[objective_seed: 16083]
[num_class: 1]
[is_unbalance: 0]
[scale_pos_weight: 1]
[sigmoid: 1]
[boost_from_average: 1]
[reg_sqrt: 0]
[alpha: 0.1]
[fair_c: 1]
[poisson_max_delta_step: 0.7]
[tweedie_variance_power: 1.5]
[lambdarank_truncation_level: 30]
[lambdarank_norm: 1]
[label_gain: ]
[lambdarank_position_bias_regularization: 0]
[eval_at: ]
[multi_error_top_k: 1]
[auc_mu_weights: ]
[num_machines: 1]
[local_listen_port: 12400]
[time_out: 120]
[machine_list_filename: ]
[machines: ]
[gpu_platform_id: -1]
[gpu_device_id: -1]
[gpu_use_dp: 0]
[num_gpu: 1]

end of parameters

pandas_categorical:null
