{"learner":{"attributes":{"best_iteration":"265","best_score":"0.02624434566209139"},"feature_names":[],"feature_types":[],"gradient_booster":{"model":{"cats":{"enc":[],"feature_segments":[],"sorted_idx":[]},"gbtree_model_param":{"num_parallel_tree":"1","num_trees":"316"},"iteration_indptr":[0,1,2,3,4,5,6,7,8,9,10,11,12,13,14,15,16,17,18,19,20,21,22,23,24,25,26,27,28,29,30,31,32,33,34,35,36,37,38,39,40,41,42,43,44,45,46,47,48,49,50,51,52,53,54,55,56,57,58,59,60,61,62,63,64,65,66,67,68,69,70,71,72,73,74,75,76,77,78,79,80,81,82,83,84,85,86,87,88,89,90,91,92,93,94,95,96,97,98,99,100,101,102,103,104,105,106,107,108,109,110,111,112,113,114,115,116,117,118,119,120,121,122,123,124,125,126,127,128,129,130,131,132,133,134,135,136,137,138,139,140,141,142,143,144,145,146,147,148,149,150,151,152,153,154,155,156,157,158,159,160,161,162,163,164,165,166,167,168,169,170,171,172,173,174,175,176,177,178,179,180,181,182,183,184,185,186,187,188,189,190,191,192,193,194,195,196,197,198,199,200,201,202,203,204,205,206,207,208,209,210,211,212,213,214,215,216,217,218,219,220,221,222,223,224,225,226,227,228,229,230,231,232,233,234,235,236,237,238,239,240,241,242,243,244,245,246,247,248,249,250,251,252,253,254,255,256,257,258,259,260,261,262,263,264,265,266,267,268,269,270,271,272,273,274,275,276,277,278,279,280,281,282,283,284,285,286,287,288,289,290,291,292,293,294,295,296,297,298,299,300,301,302,303,304,305,306,307,308,309,310,311,312,313,314,315,316],"tree_info":[0,0,0,0,0,0,0,0,0,0,0,0,0,0,0,0,0,0,0,0,0,0,0,0,0,0,0,0,0,0,0,0,0,0,0,0,0,0,0,0,0,0,0,0,0,0,0,0,0,0,0,0,0,0,0,0,0,0,0,0,0,0,0,0,0,0,0,0,0,0,0,0,0,0,0,0,0,0,0,0,0,0,0,0,0,0,0,0,0,0,0,0,0,0,0,0,0,0,0,0,0,0,0,0,0,0,0,0,0,0,0,0,0,0,0,0,0,0,0,0,0,0,0,0,0,0,0,0,0,0,0,0,0,0,0,0,0,0,0,0,0,0,0,0,0,0,0,0,0,0,0,0,0,0,0,0,0,0,0,0,0,0,0,0,0,0,0,0,0,0,0,0,0,0,0,0,0,0,0,0,0,0,0,0,0,0,0,0,0,0,0,0,0,0,0,0,0,0,0,0,0,0,0,0,0,0,0,0,0,0,0,0,0,0,0,0,0,0,0,0,0,0,0,0,0,0,0,0,0,0,0,0,0,0,0,0,0,0,0,0,0,0,0,0,0,0,0,0,0,0,0,0,0,0,0,0,0,0,0,0,0,0,0,0,0,0,0,0,0,0,0,0,0,0,0,0,0,0,0,0,0,0,0,0,0,0,0,0,0,0,0,0,0,0,0,0,0,0,0,0,0,0,0,0,0,0,0,0,0,0,0,0,0,0,0,0],"trees":[{"base_weights":[5.2355784E-3,-3.8674057E-2,3.6363635E-2,-9.179107E-2,1.1041664E-1,-4.1666775E-4,-4.959351E-3,4.0909093E-2,-4.868422E-3],"categories":[],"categories_nodes":[],"categories_segments":[],"categories_sizes":[],"default_left":[0,0,0,0,0,0,0,0,0],"id":0,"left_children":[1,3,-1,5,7,-1,-1,-1,-1],"loss_changes":[6.0836644E0,1.4435201E0,0E0,8.188486E-2,7.138691E0,0E0,0E0,0E0,0E0],"parents":[2147483647,0,0,1,1,3,3,4,4],"right_children":[2,4,-1,6,8,-1,-1,-1,-1],"split_conditions":[5.098454E0,4.957977E0,1.4867564E-2,5E0,4.8438206E0,-1.0340955E-10,-9.970756E-3,8.826187E-3,-4.494143E-3],"split_indices":[14,14,0,19,13,0,0,0,0],"split_type":[0,0,0,0,0,0,0,0,0],"sum_hessian":[1.9E2,1.8E2,1E1,1.33E2,4.7E1,1.1E1,1.22E2,1E1,3.7E1],"tree_param":{"num_deleted":"0","num_feature":"22","num_nodes":"9","size_leaf_vector":"1"}},{"base_weights":[8.648625E-3,-3.0857166E-2,3.181818E-2,1.9999997E-1,-7.248324E-2,-4.7058836E-3,3.181818E-2,-4.9637696E-3,1.2083332E-2],"categories":[],"categories_nodes":[],"categories_segments":[],"categories_sizes":[],"default_left":[0,0,0,0,0,0,0,0,0],"id":1,"left_children":[1,3,-1,5,7,-1,-1,-1,-1],"loss_changes":[4.607336E0,1.6961902E0,0E0,3.5251336E0,1.2780871E0,0E0,0E0,0E0,0E0],"parents":[2147483647,0,0,1,1,3,3,4,4],"right_children":[2,4,-1,6,8,-1,-1,-1,-1],"split_conditions":[5.0962687E0,8E0,1.4124175E-2,4.4226255E0,4.9E1,-1.1969595E-3,8.384874E-3,-1.2676408E-2,6.9467686E-3],"split_indices":[14,19,0,8,19,0,0,0,0],"split_type":[0,0,0,0,0,0,0,0,0],"sum_hessian":[1.84E2,1.74E2,1E1,2.6E1,1.48E2,1.6E1,1E1,1.37E2,1.1E1],"tree_param":{"num_deleted":"0","num_feature":"22","num_nodes":"9","size_leaf_vector":"1"}},{"base_weights":[6.1110873E-3,-4.9606315E-3,2.5370368E-1,4.2749997E-2,-4.8571443E-3],"categories":[],"categories_nodes":[],"categories_segments":[],"categories_sizes":[],"default_left":[0,0,0,0,0],"id":2,"left_children":[1,-1,3,-1,-1],"loss_changes":[4.7190976E0,0E0,1.1475044E1,0E0,0E0],"parents":[2147483647,0,0,2,2],"right_children":[2,-1,4,-1,-1],"split_conditions":[4.9540815E0,-6.9671758E-3,1.0177566E2,1.307373E-2,-2.4901517E-3],"split_indices":[14,0,16,0,0],"split_type":[0,0,0,0,0],"sum_hessian":[1.79E2,1.26E2,5.3E1,1.9E1,3.4E1],"tree_param":{"num_deleted":"0","num_feature":"22","num_nodes":"5","size_leaf_vector":"1"}},{"base_weights":[2.5509966E-3,-4.3575443E-2,2.3055555E-2,2.6399997E-1,-9.290325E-2,-4.666668E-3,3.6363635E-2,-4.9655186E-3,-1.0837209E-9],"categories":[],"categories_nodes":[],"categories_segments":[],"categories_sizes":[],"default_left":[0,0,0,0,0,0,0,0,0],"id":3,"left_children":[1,3,-1,5,7,-1,-1,-1,-1],"loss_changes":[4.165835E0,2.7403183E0,0E0,4.2064486E0,9.226239E-2,0E0,0E0,0E0,0E0],"parents":[2147483647,0,0,1,1,3,3,4,4],"right_children":[2,4,-1,6,8,-1,-1,-1,-1],"split_conditions":[1.2E1,7E0,1.2355118E-2,4.7589903E0,5.084452E0,-3.2029995E-3,1.148115E-2,-9.380893E-3,2.631394E-3],"split_indices":[20,19,0,9,14,0,0,0,0],"split_type":[0,0,0,0,0,0,0,0,0],"sum_hessian":[1.95E2,1.78E2,1.7E1,2.4E1,1.54E2,1.4E1,1E1,1.44E2,1E1],"tree_param":{"num_deleted":"0","num_feature":"22","num_nodes":"9","size_leaf_vector":"1"}},{"base_weights":[-1.8274136E-2,-4.96403E-3,1.7288134E-1,3.525E-2,-4.8750015E-3],"categories":[],"categories_nodes":[],"categories_segments":[],"categories_sizes":[],"default_left":[0,0,0,0,0],"id":4,"left_children":[1,-1,3,-1,-1],"loss_changes":[3.0676749E0,0E0,8.55736E0,0E0,0E0],"parents":[2147483647,0,0,2,2],"right_children":[2,-1,4,-1,-1],"split_conditions":[2.565704E2,-6.7152954E-3,4.928011E0,1.18459705E-2,-5.1693222E-3],"split_indices":[17,0,13,0,0],"split_type":[0,0,0,0,0],"sum_hessian":[1.96E2,1.38E2,5.8E1,1.9E1,3.9E1],"tree_param":{"num_deleted":"0","num_feature":"22","num_nodes":"5","size_leaf_vector":"1"}},{"base_weights":[-1.0471228E-2,-4.963505E-3,2.1090907E-1,3.5714284E-2,-4.8571443E-3],"categories":[],"categories_nodes":[],"categories_segments":[],"categories_sizes":[],"default_left":[0,0,0,0,0],"id":5,"left_children":[1,-1,3,-1,-1],"loss_changes":[3.775676E0,0E0,8.598026E0,0E0,0E0],"parents":[2147483647,0,0,2,2],"right_children":[2,-1,4,-1,-1],"split_conditions":[4.9540815E0,-6.853834E-3,1.0217063E2,1.110855E-2,-3.2957438E-3],"split_indices":[14,0,16,0,0],"split_type":[0,0,0,0,0],"sum_hessian":[1.9E2,1.36E2,5.4E1,2E1,3.4E1],"tree_param":{"num_deleted":"0","num_feature":"22","num_nodes":"5","size_leaf_vector":"1"}},{"base_weights":[-2.3723242E-8,-3.664924E-2,3.181818E-2,2.3749998E-1,-7.559526E-2,-4.6428586E-3,3.181818E-2,-4.9681542E-3,1.2083332E-2],"categories":[],"categories_nodes":[],"categories_segments":[],"categories_sizes":[],"default_left":[0,0,0,0,0,0,0,0,0],"id":6,"left_children":[1,3,-1,5,7,-1,-1,-1,-1],"loss_changes":[4.71109E0,2.057265E0,0E0,3.2215095E0,1.2908375E0,0E0,0E0,0E0,0E0],"parents":[2147483647,0,0,1,1,3,3,4,4],"right_children":[2,4,-1,6,8,-1,-1,-1,-1],"split_conditions":[5.098454E0,7E0,1.1003139E-2,4.404388E0,4.9E1,-1.1509325E-3,5.5901553E-3,-8.712434E-3,4.1802544E-3],"split_indices":[14,19,0,8,19,0,0,0,0],"split_type":[0,0,0,0,0,0,0,0,0],"sum_hessian":[2E2,1.9E2,1E1,2.3E1,1.67E2,1.3E1,1E1,1.56E2,1.1E1],"tree_param":{"num_deleted":"0","num_feature":"22","num_nodes":"9","size_leaf_vector":"1"}},{"base_weights":[-2.1761682E-2,-6.120221E-2,3.181818E-2,-4.96403E-3,5.7777755E-2,2.7272725E-2,-4.8571443E-3],"categories":[],"categories_nodes":[],"categories_segments":[],"categories_sizes":[],"default_left":[0,0,0,0,0,0,0],"id":7,"left_children":[1,3,-1,-1,5,-1,-1],"loss_changes":[5.0486107E0,8.348297E-1,0E0,0E0,3.4527907E0,0E0,0E0],"parents":[2147483647,0,0,1,1,4,4],"right_children":[2,4,-1,-1,6,-1,-1],"split_conditions":[5.0962687E0,4.9618073E0,1.0452989E-2,-5.8712414E-3,4.9057198E0,5.2173897E-3,-2.330315E-3],"split_indices":[14,14,0,0,7,0,0],"split_type":[0,0,0,0,0,0,0],"sum_hessian":[1.92E2,1.82E2,1E1,1.38E2,4.4E1,1E1,3.4E1],"tree_param":{"num_deleted":"0","num_feature":"22","num_nodes":"7","size_leaf_vector":"1"}},{"base_weights":[-1.18556935E-2,-5.0543502E-2,3.181818E-2,1.1944443E-2,-8.143715E-2,-4.9681542E-3,9.090908E-3],"categories":[],"categories_nodes":[],"categories_segments":[],"categories_sizes":[],"default_left":[0,0,0,0,0,0,0],"id":8,"left_children":[1,3,-1,-1,5,-1,-1],"loss_changes":[4.8973317E0,1.6647127E0,0E0,0E0,8.061551E-1,0E0,0E0],"parents":[2147483647,0,0,1,1,4,4],"right_children":[2,4,-1,-1,6,-1,-1],"split_conditions":[5.098454E0,6E0,9.930327E-3,4.9606753E-3,4.9E1,-8.474183E-3,2.3203224E-3],"split_indices":[14,19,0,0,19,0,0],"split_type":[0,0,0,0,0,0,0],"sum_hessian":[1.93E2,1.83E2,1E1,1.7E1,1.66E2,1.56E2,1E1],"tree_param":{"num_deleted":"0","num_feature":"22","num_nodes":"7","size_leaf_vector":"1"}},{"base_weights":[-1.0937524E-2,-9.179107E-2,1.7288134E-1,-4.9590175E-3,-7.692319E-4,3.333333E-2,-4.8717964E-3],"categories":[],"categories_nodes":[],"categories_segments":[],"categories_sizes":[],"default_left":[0,0,0,0,0,0,0],"id":9,"left_children":[1,3,5,-1,-1,-1,-1],"loss_changes":[2.869451E0,7.4128985E-2,7.9402E0,0E0,0E0,0E0,0E0],"parents":[2147483647,0,0,1,1,2,2],"right_children":[2,4,6,-1,-1,-1,-1],"split_conditions":[2.565704E2,4.7E1,4.928011E0,-6.994127E-3,1.2579867E-4,9.106881E-3,-5.198872E-3],"split_indices":[17,19,13,0,0,0,0],"split_type":[0,0,0,0,0,0,0],"sum_hessian":[1.91E2,1.33E2,5.8E1,1.21E2,1.2E1,2E1,3.8E1],"tree_param":{"num_deleted":"0","num_feature":"22","num_nodes":"7","size_leaf_vector":"1"}},{"base_weights":[-2.2564126E-2,-5.0810836E-2,2.2727272E-2,1.0937499E-2,-7.5882375E-2,-4.96795E-3,8.666666E-3],"categories":[],"categories_nodes":[],"categories_segments":[],"categories_sizes":[],"default_left":[0,0,0,0,0,0,0],"id":10,"left_children":[1,3,-1,-1,5,-1,-1],"loss_changes":[2.6510668E0,1.2668858E0,0E0,0E0,1.0118484E0,0E0,0E0],"parents":[2147483647,0,0,1,1,4,4],"right_children":[2,4,-1,-1,6,-1,-1],"split_conditions":[5.0962687E0,5E0,8.956418E-3,4.282751E-3,4.8E1,-8.674385E-3,2.70431E-3],"split_indices":[14,19,0,0,19,0,0],"split_type":[0,0,0,0,0,0,0],"sum_hessian":[1.94E2,1.84E2,1E1,1.5E1,1.69E2,1.55E2,1.4E1],"tree_param":{"num_deleted":"0","num_feature":"22","num_nodes":"7","size_leaf_vector":"1"}},{"base_weights":[-7.179511E-3,-4.0000025E-2,2.7272725E-2,2.0869564E-1,-7.484665E-2,-4.615386E-3,2.7272725E-2,-9.2715256E-2,6.9230758E-3,-4.9645402E-3,-1.0837209E-9],"categories":[],"categories_nodes":[],"categories_segments":[],"categories_sizes":[],"default_left":[0,0,0,0,0,0,0,0,0,0,0],"id":11,"left_children":[1,3,-1,5,7,-1,-1,9,-1,-1,-1],"loss_changes":[3.558676E0,1.618868E0,0E0,2.3817573E0,6.341153E-1,0E0,0E0,9.2057705E-2,0E0,0E0,0E0],"parents":[2147483647,0,0,1,1,3,3,4,4,7,7],"right_children":[2,4,-1,6,8,-1,-1,10,-1,-1,-1],"split_conditions":[5.098454E0,7E0,8.530643E-3,4.750792E0,4.8E1,-3.2702864E-3,4.1322494E-3,5.380394E0,2.8588863E-3,-1.1022068E-2,1.6488052E-4],"split_indices":[14,19,0,9,19,0,0,0,0,0,0],"split_type":[0,0,0,0,0,0,0,0,0,0,0],"sum_hessian":[1.94E2,1.84E2,1E1,2.2E1,1.62E2,1.2E1,1E1,1.5E2,1.2E1,1.4E2,1E1],"tree_param":{"num_deleted":"0","num_feature":"22","num_nodes":"11","size_leaf_vector":"1"}},{"base_weights":[-3.0687854E-2,-6.033522E-2,2.2727272E-2,-4.96403E-3,7.317071E-2,2.4583332E-2,-4.8333346E-3],"categories":[],"categories_nodes":[],"categories_segments":[],"categories_sizes":[],"default_left":[0,0,0,0,0,0,0],"id":12,"left_children":[1,3,-1,-1,5,-1,-1],"loss_changes":[2.746358E0,9.379641E-1,0E0,0E0,2.9616547E0,0E0,0E0],"parents":[2147483647,0,0,1,1,4,4],"right_children":[2,4,-1,-1,6,-1,-1],"split_conditions":[5.0924673E0,4.9540815E0,8.104112E-3,-5.4807956E-3,4.8672123E0,3.9129066E-3,-1.7815599E-3],"split_indices":[14,14,0,0,13,0,0],"split_type":[0,0,0,0,0,0,0],"sum_hessian":[1.88E2,1.78E2,1E1,1.38E2,4E1,1.1E1,2.9E1],"tree_param":{"num_deleted":"0","num_feature":"22","num_nodes":"7","size_leaf_vector":"1"}},{"base_weights":[-1.4814839E-2,-4.7701173E-2,1.7187499E-2,1.4062499E-2,-8.0503166E-2,-9.251703E-2,3.076922E-3,-4.963505E-3,-1.0837209E-9],"categories":[],"categories_nodes":[],"categories_segments":[],"categories_sizes":[],"default_left":[0,0,0,0,0,0,0,0,0],"id":13,"left_children":[1,3,-1,-1,5,7,-1,-1,-1],"loss_changes":[2.2450633E0,1.9001459E0,0E0,0E0,2.7702177E-1,9.184158E-2,0E0,0E0,0E0],"parents":[2147483647,0,0,1,1,4,4,5,5],"right_children":[2,4,-1,-1,6,8,-1,-1,-1],"split_conditions":[1.2E1,5E0,7.397232E-3,4.9360357E-3,4.6E1,5.406337E0,1.9260404E-4,-8.92325E-3,1.1713413E-5],"split_indices":[20,19,0,0,19,0,0,0,0],"split_type":[0,0,0,0,0,0,0,0,0],"sum_hessian":[1.88E2,1.73E2,1.5E1,1.5E1,1.58E2,1.46E2,1.2E1,1.36E2,1E1],"tree_param":{"num_deleted":"0","num_feature":"22","num_nodes":"9","size_leaf_vector":"1"}},{"base_weights":[-1.4361726E-2,-9.172935E-2,1.6964284E-1,-4.958679E-3,-7.692319E-4,3.4166668E-2,-7.17949E-2,-4.8275874E-3,-1.0837209E-9],"categories":[],"categories_nodes":[],"categories_segments":[],"categories_sizes":[],"default_left":[0,0,0,0,0,0,0,0,0],"id":14,"left_children":[1,3,5,-1,-1,-1,7,-1,-1],"loss_changes":[2.6919284E0,7.406187E-2,6.994419E0,0E0,0E0,0E0,6.93192E-2,0E0,0E0],"parents":[2147483647,0,0,1,1,2,2,6,6],"right_children":[2,4,6,-1,-1,-1,8,-1,-1],"split_conditions":[4.9401E0,2.5533026E-1,1.0141387E2,-7.030554E-3,-3.3576295E-4,7.190337E-3,5.4308295E0,-5.758777E-3,-3.9611088E-5],"split_indices":[14,15,16,0,0,0,2,0,0],"split_type":[0,0,0,0,0,0,0,0,0],"sum_hessian":[1.87E2,1.32E2,5.5E1,1.2E2,1.2E1,1.7E1,3.8E1,2.8E1,1E1],"tree_param":{"num_deleted":"0","num_feature":"22","num_nodes":"9","size_leaf_vector":"1"}},{"base_weights":[-3.045709E-3,3.8260868E-1,-5.371431E-2,-4.545456E-3,3.7692305E-2,-9.316772E-2,1.8666666E-2,-4.9668886E-3,-1.0837209E-9],"categories":[],"categories_nodes":[],"categories_segments":[],"categories_sizes":[],"default_left":[0,0,0,0,0,0,0,0,0],"id":15,"left_children":[1,3,5,-1,-1,7,-1,-1,-1],"loss_changes":[3.8700433E0,4.1116447E0,2.983268E0,0E0,0E0,9.2550635E-2,0E0,0E0,0E0],"parents":[2147483647,0,0,1,1,2,2,5,5],"right_children":[2,4,6,-1,-1,8,-1,-1,-1],"split_conditions":[6E0,4.8240094E0,4.9E1,-6.8954605E-4,6.938686E-3,5.406337E0,5.8288216E-3,-7.502856E-3,-2.305288E-5],"split_indices":[19,14,19,0,0,0,0,0,0],"split_type":[0,0,0,0,0,0,0,0,0],"sum_hessian":[1.96E2,2.2E1,1.74E2,1E1,1.2E1,1.6E2,1.4E1,1.5E2,1E1],"tree_param":{"num_deleted":"0","num_feature":"22","num_nodes":"9","size_leaf_vector":"1"}},{"base_weights":[-2.7624333E-2,-4.96154E-3,1.5192306E-1,3.2812502E-2,-7.027029E-2,-4.814816E-3,-1.0837209E-9],"categories":[],"categories_nodes":[],"categories_segments":[],"categories_sizes":[],"default_left":[0,0,0,0,0,0,0],"id":16,"left_children":[1,-1,3,-1,5,-1,-1],"loss_changes":[2.3421476E0,0E0,5.8731356E0,0E0,6.766765E-2,0E0,0E0],"parents":[2147483647,0,0,2,2,4,4],"right_children":[2,-1,4,-1,6,-1,-1],"split_conditions":[4.950477E0,-6.732059E-3,4.7546215E0,6.354227E-3,5.377336E0,-6.9409735E-3,-2.190847E-5],"split_indices":[14,0,7,0,0,0,0],"split_type":[0,0,0,0,0,0,0],"sum_hessian":[1.8E2,1.29E2,5.1E1,1.5E1,3.6E1,2.6E1,1E1],"tree_param":{"num_deleted":"0","num_feature":"22","num_nodes":"7","size_leaf_vector":"1"}},{"base_weights":[5.262921E-4,4.0416664E-1,-5.7485055E-2,-4.545456E-3,3.8214285E-2,-9.281048E-2,1.5333332E-2,-4.965036E-3,-1.0837209E-9],"categories":[],"categories_nodes":[],"categories_segments":[],"categories_sizes":[],"default_left":[0,0,0,0,0,0,0,0,0],"id":17,"left_children":[1,3,5,-1,-1,7,-1,-1,-1],"loss_changes":[4.4722204E0,4.3483496E0,2.176719E0,0E0,0E0,9.21613E-2,0E0,0E0,0E0],"parents":[2147483647,0,0,1,1,2,2,5,5],"right_children":[2,4,6,-1,-1,8,-1,-1,-1],"split_conditions":[6E0,4.5382843E0,4.9E1,-4.921849E-3,6.252475E-3,5.334723E0,3.5962933E-3,-6.6404105E-3,-2.0811745E-5],"split_indices":[19,13,19,0,0,1,0,0,0],"split_type":[0,0,0,0,0,0,0,0,0],"sum_hessian":[1.89E2,2.3E1,1.66E2,1E1,1.3E1,1.52E2,1.4E1,1.42E2,1E1],"tree_param":{"num_deleted":"0","num_feature":"22","num_nodes":"9","size_leaf_vector":"1"}},{"base_weights":[-3.1052655E-2,-6.055558E-2,2.2727272E-2,-4.962407E-3,4.7916643E-2,2.2307692E-2,-4.861112E-3],"categories":[],"categories_nodes":[],"categories_segments":[],"categories_sizes":[],"default_left":[0,0,0,0,0,0,0],"id":18,"left_children":[1,3,-1,-1,5,-1,-1],"loss_changes":[2.7495723E0,7.602279E-1,0E0,0E0,2.8177617E0,0E0,0E0],"parents":[2147483647,0,0,1,1,4,4],"right_children":[2,4,-1,-1,6,-1,-1],"split_conditions":[5.098454E0,4.950477E0,6.004577E-3,-4.71412E-3,4.8672123E0,2.120955E-3,-3.8596976E-3],"split_indices":[14,14,0,0,13,0,0],"split_type":[0,0,0,0,0,0,0],"sum_hessian":[1.89E2,1.79E2,1E1,1.32E2,4.7E1,1.2E1,3.5E1],"tree_param":{"num_deleted":"0","num_feature":"22","num_nodes":"7","size_leaf_vector":"1"}},{"base_weights":[-2.5000025E-2,2.3928571E-2,-6.514288E-2,-4.9673216E-3,1.6521737E-1,-4.5833346E-3,2.0416666E-2],"categories":[],"categories_nodes":[],"categories_segments":[],"categories_sizes":[],"default_left":[0,0,0,0,0,0,0],"id":19,"left_children":[1,-1,3,-1,5,-1,-1],"loss_changes":[3.831557E0,0E0,1.395263E0,0E0,1.4738407E0,0E0,0E0],"parents":[2147483647,0,0,2,2,4,4],"right_children":[2,-1,4,-1,6,-1,-1],"split_conditions":[4E0,5.6396197E-3,4.7E1,-5.9338547E-3,4.607118E0,-2.7468873E-3,5.108814E-3],"split_indices":[19,0,19,0,1,0,0],"split_type":[0,0,0,0,0,0,0],"sum_hessian":[1.87E2,1.3E1,1.74E2,1.52E2,2.2E1,1.1E1,1.1E1],"tree_param":{"num_deleted":"0","num_feature":"22","num_nodes":"7","size_leaf_vector":"1"}},{"base_weights":[-3.1770855E-2,2.1153843E-1,-6.94611E-2,-4.687501E-3,3.181818E-2,-9.285717E-2,9.642856E-3,-4.965279E-3,-1.0837209E-9],"categories":[],"categories_nodes":[],"categories_segments":[],"categories_sizes":[],"default_left":[0,0,0,0,0,0,0,0,0],"id":20,"left_children":[1,3,5,-1,-1,7,-1,-1,-1],"loss_changes":[1.775408E0,3.4317088E0,1.0428228E0,0E0,0E0,9.221244E-2,0E0,0E0,0E0],"parents":[2147483647,0,0,1,1,2,2,5,5],"right_children":[2,4,6,-1,-1,8,-1,-1,-1],"split_conditions":[7E0,4.5247364E0,4.9E1,-1.645565E-4,5.422359E-3,5.406337E0,4.6072337E-3,-7.1297325E-3,1.7883522E-4],"split_indices":[19,7,19,0,0,0,0,0,0],"split_type":[0,0,0,0,0,0,0,0,0],"sum_hessian":[1.91E2,2.5E1,1.66E2,1.5E1,1E1,1.53E2,1.3E1,1.43E2,1E1],"tree_param":{"num_deleted":"0","num_feature":"22","num_nodes":"9","size_leaf_vector":"1"}},{"base_weights":[-4.1269865E-2,-7.15084E-2,2.2727272E-2,8.636361E-2,-9.3038E-2,-4.5833346E-3,1.3636363E-2,-4.9655186E-3,-1.0714297E-3],"categories":[],"categories_nodes":[],"categories_segments":[],"categories_sizes":[],"default_left":[0,0,0,0,0,0,0,0,0],"id":21,"left_children":[1,3,-1,5,7,-1,-1,-1,-1],"loss_changes":[2.8661296E0,6.164419E-1,0E0,7.5492436E-1,6.883931E-2,0E0,0E0,0E0,0E0],"parents":[2147483647,0,0,1,1,3,3,4,4],"right_children":[2,4,-1,6,8,-1,-1,-1,-1],"split_conditions":[5.098454E0,7E0,5.151229E-3,5.066382E0,4.8E1,-1.5118123E-4,1.2794278E-3,-5.644047E-3,-3.4423036E-5],"split_indices":[14,19,0,0,19,0,0,0,0],"split_type":[0,0,0,0,0,0,0,0,0],"sum_hessian":[1.88E2,1.78E2,1E1,2.1E1,1.57E2,1.1E1,1E1,1.44E2,1.3E1],"tree_param":{"num_deleted":"0","num_feature":"22","num_nodes":"9","size_leaf_vector":"1"}},{"base_weights":[-3.762889E-2,1.3214285E-2,-6.0773503E-2,-8.679248E-2,1.21739104E-1,-4.9662176E-3,3.749999E-3,-4.615386E-3,1.8181818E-2],"categories":[],"categories_nodes":[],"categories_segments":[],"categories_sizes":[],"default_left":[0,0,0,0,0,0,0,0,0],"id":22,"left_children":[1,-1,3,5,7,-1,-1,-1,-1],"loss_changes":[1.3716747E0,0E0,8.7009716E-1,3.2983172E-1,1.2244451E0,0E0,0E0,0E0,0E0],"parents":[2147483647,0,0,2,2,3,3,4,4],"right_children":[2,-1,4,6,8,-1,-1,-1,-1],"split_conditions":[4E0,4.828949E-3,4.7E1,2.6411307E-1,4.607118E0,-4.6244957E-3,4.2972076E-4,-2.6296712E-3,4.286913E-3],"split_indices":[19,0,19,15,1,0,0,0,0],"split_type":[0,0,0,0,0,0,0,0,0],"sum_hessian":[1.93E2,1.3E1,1.8E2,1.58E2,2.2E1,1.47E2,1.1E1,1.2E1,1E1],"tree_param":{"num_deleted":"0","num_feature":"22","num_nodes":"9","size_leaf_vector":"1"}},{"base_weights":[-2.9569916E-2,1.6764703E-1,-7.320264E-2,-4.7368435E-3,2.3437498E-2,-9.230772E-2,9.090908E-3,-4.9621225E-3,-4.1666775E-4],"categories":[],"categories_nodes":[],"categories_segments":[],"categories_sizes":[],"default_left":[0,0,0,0,0,0,0,0,0],"id":23,"left_children":[1,3,5,-1,-1,7,-1,-1,-1],"loss_changes":[1.612823E0,2.7305632E0,7.6222855E-1,0E0,0E0,8.244765E-2,0E0,0E0,0E0],"parents":[2147483647,0,0,1,1,2,2,5,5],"right_children":[2,4,6,-1,-1,8,-1,-1,-1],"split_conditions":[3E0,4.6176615E0,5E1,-3.9408208E-4,4.1718385E-3,4.7E1,4.2741797E-3,-6.6279243E-3,2.264451E-4],"split_indices":[20,13,19,0,0,19,0,0,0],"split_type":[0,0,0,0,0,0,0,0,0],"sum_hessian":[1.85E2,3.3E1,1.52E2,1.8E1,1.5E1,1.42E2,1E1,1.31E2,1.1E1],"tree_param":{"num_deleted":"0","num_feature":"22","num_nodes":"9","size_leaf_vector":"1"}},{"base_weights":[-4.7668416E-2,-7.213117E-2,1.8181818E-2,-4.9637696E-3,1.0869542E-2,9.999999E-3,-4.8333346E-3],"categories":[],"categories_nodes":[],"categories_segments":[],"categories_sizes":[],"default_left":[0,0,0,0,0,0,0],"id":24,"left_children":[1,3,-1,-1,5,-1,-1],"loss_changes":[1.9681274E0,4.133761E-1,0E0,0E0,9.5489854E-1,0E0,0E0],"parents":[2147483647,0,0,1,1,4,4],"right_children":[2,4,-1,-1,6,-1,-1],"split_conditions":[5.094324E0,4.950477E0,4.9296212E-3,-4.8232474E-3,4.9492345E0,5.5050355E-4,-4.063345E-3],"split_indices":[14,14,0,0,13,0,0],"split_type":[0,0,0,0,0,0,0],"sum_hessian":[1.92E2,1.82E2,1E1,1.37E2,4.5E1,1.6E1,2.9E1],"tree_param":{"num_deleted":"0","num_feature":"22","num_nodes":"7","size_leaf_vector":"1"}},{"base_weights":[-2.6178034E-2,-5.5248644E-2,2.2727272E-2,6.0526293E-2,-8.541669E-2,-4.7727283E-3,1.2941176E-2,-4.9606315E-3,8.333322E-4],"categories":[],"categories_nodes":[],"categories_segments":[],"categories_sizes":[],"default_left":[0,0,0,0,0,0,0,0,0],"id":25,"left_children":[1,3,-1,5,7,-1,-1,-1,-1],"loss_changes":[2.6943233E0,6.3734937E-1,0E0,1.2000675E0,2.044537E-1,0E0,0E0,0E0,0E0],"parents":[2147483647,0,0,1,1,3,3,4,4],"right_children":[2,4,-1,6,8,-1,-1,-1,-1],"split_conditions":[5.094324E0,1.2E1,4.683144E-3,4.8313303E0,4.7E1,-1.385069E-4,8.9081994E-4,-7.58087E-3,2.8398508E-4],"split_indices":[14,19,0,14,19,0,0,0,0],"split_type":[0,0,0,0,0,0,0,0,0],"sum_hessian":[1.9E2,1.8E2,1E1,3.7E1,1.43E2,2.1E1,1.6E1,1.26E2,1.7E1],"tree_param":{"num_deleted":"0","num_feature":"22","num_nodes":"9","size_leaf_vector":"1"}},{"base_weights":[-2.5000025E-2,-4.8876427E-2,1.8181818E-2,-4.953705E-3,2.8168991E-2,2.0357143E-2,-6.379313E-2,-4.8958347E-3,4.5454535E-3],"categories":[],"categories_nodes":[],"categories_segments":[],"categories_sizes":[],"default_left":[0,0,0,0,0,0,0,0,0],"id":26,"left_children":[1,3,-1,-1,5,-1,7,-1,-1],"loss_changes":[1.7622702E0,6.9120586E-1,0E0,0E0,2.500411E0,0E0,3.1508294E-1,0E0,0E0],"parents":[2147483647,0,0,1,1,4,4,6,6],"right_children":[2,4,-1,-1,6,-1,8,-1,-1],"split_conditions":[5.0962687E0,2.5025865E2,4.448993E-3,-5.0184396E-3,4.7239494E0,9.059286E-4,5.387623E0,-3.940616E-3,2.1239997E-4],"split_indices":[14,17,0,0,7,0,0,0,0],"split_type":[0,0,0,0,0,0,0,0,0],"sum_hessian":[1.87E2,1.77E2,1E1,1.07E2,7E1,1.3E1,5.7E1,4.7E1,1E1],"tree_param":{"num_deleted":"0","num_feature":"22","num_nodes":"9","size_leaf_vector":"1"}},{"base_weights":[-9.042577E-3,2.0357143E-2,-4.2285737E-2,5.2830167E-2,-8.2926854E-2,-4.864866E-3,1.8823529E-2,-4.955753E-3,4.5454535E-3],"categories":[],"categories_nodes":[],"categories_segments":[],"categories_sizes":[],"default_left":[0,0,0,0,0,0,0,0,0],"id":27,"left_children":[1,-1,3,5,7,-1,-1,-1,-1],"loss_changes":[2.6182563E0,0E0,6.80864E-1,2.6117575E0,3.551439E-1,0E0,0E0,0E0,0E0],"parents":[2147483647,0,0,2,2,3,3,4,4],"right_children":[2,-1,4,6,8,-1,-1,-1,-1],"split_conditions":[4E0,3.999834E-3,4.7239494E0,4.8217783E0,5.380394E0,-3.0233772E-3,2.618973E-3,-7.877495E-3,2.0179035E-4],"split_indices":[19,0,7,14,0,0,0,0,0],"split_type":[0,0,0,0,0,0,0,0,0],"sum_hessian":[1.87E2,1.3E1,1.74E2,5.2E1,1.22E2,3.6E1,1.6E1,1.12E2,1E1],"tree_param":{"num_deleted":"0","num_feature":"22","num_nodes":"9","size_leaf_vector":"1"}},{"base_weights":[-1.9680874E-2,-4.8876427E-2,2.2727272E-2,-9.153849E-2,6.53061E-2,-4.9576284E-3,-7.692319E-4,1.8823529E-2,-4.8484863E-3],"categories":[],"categories_nodes":[],"categories_segments":[],"categories_sizes":[],"default_left":[0,0,0,0,0,0,0,0,0],"id":28,"left_children":[1,3,-1,5,7,-1,-1,-1,-1],"loss_changes":[2.6251328E0,8.730626E-1,0E0,7.385385E-2,2.5107353E0,0E0,0E0,0E0,0E0],"parents":[2147483647,0,0,1,1,3,3,4,4],"right_children":[2,4,-1,6,8,-1,-1,-1,-1],"split_conditions":[5.0962687E0,4.946916E0,4.026873E-3,2.5362682E-1,4.877894E0,-4.876157E-3,-1.603939E-4,6.0099835E-4,-3.27072E-3],"split_indices":[14,14,0,15,8,0,0,0,0],"split_type":[0,0,0,0,0,0,0,0,0],"sum_hessian":[1.87E2,1.77E2,1E1,1.29E2,4.8E1,1.17E2,1.2E1,1.6E1,3.2E1],"tree_param":{"num_deleted":"0","num_feature":"22","num_nodes":"9","size_leaf_vector":"1"}},{"base_weights":[-1.2307716E-2,3.333333E-1,-5.371431E-2,-1.0837209E-9,3.181818E-2,-7.484665E-2,1.0769229E-2,-8.6274534E-2,4.5454535E-3,-4.9637696E-3,1.5624989E-3],"categories":[],"categories_nodes":[],"categories_segments":[],"categories_sizes":[],"default_left":[0,0,0,0,0,0,0,0,0,0,0],"id":29,"left_children":[1,3,5,-1,-1,7,-1,9,-1,-1,-1],"loss_changes":[2.8087091E0,2.121212E0,1.0112915E0,0E0,0E0,3.1660372E-1,0E0,2.3687398E-1,0E0,0E0,0E0],"parents":[2147483647,0,0,1,1,2,2,5,5,7,7],"right_children":[2,4,6,-1,-1,8,-1,10,-1,-1,-1],"split_conditions":[2E0,4.404388E0,5E1,-2.8935313E-4,3.0973696E-3,5.417848E0,2.778966E-3,4.6E1,1.6166449E-4,-6.1563887E-3,3.9768216E-5],"split_indices":[20,8,19,0,0,0,0,19,0,0,0],"split_type":[0,0,0,0,0,0,0,0,0,0,0],"sum_hessian":[1.94E2,2E1,1.74E2,1E1,1E1,1.62E2,1.2E1,1.52E2,1E1,1.37E2,1.5E1],"tree_param":{"num_deleted":"0","num_feature":"22","num_nodes":"11","size_leaf_vector":"1"}},{"base_weights":[-4.232828E-3,2.852941E-1,-6.730772E-2,-4.687501E-3,2.9473683E-2,-8.561646E-2,9.090908E-3,-9.1911785E-2,-1.0837209E-9,-4.959351E-3,-1.0714297E-3],"categories":[],"categories_nodes":[],"categories_segments":[],"categories_sizes":[],"default_left":[0,0,0,0,0,0,0,0,0,0,0],"id":30,"left_children":[1,3,5,-1,-1,7,-1,9,-1,-1,-1],"loss_changes":[3.4706974E0,3.9753773E0,7.2711116E-1,0E0,0E0,7.869148E-2,0E0,6.761289E-2,0E0,0E0,0E0],"parents":[2147483647,0,0,1,1,2,2,5,5,7,7],"right_children":[2,4,6,-1,-1,8,-1,10,-1,-1,-1],"split_conditions":[9E0,4.752636E0,5E1,-4.543133E-3,3.112039E-3,5.377336E0,2.8861545E-3,4.6E1,8.1512764E-5,-8.699833E-3,-9.554013E-4],"split_indices":[19,14,19,0,0,0,0,19,0,0,0],"split_type":[0,0,0,0,0,0,0,0,0,0,0],"sum_hessian":[1.88E2,3.3E1,1.55E2,1.5E1,1.8E1,1.45E2,1E1,1.35E2,1E1,1.22E2,1.3E1],"tree_param":{"num_deleted":"0","num_feature":"22","num_nodes":"11","size_leaf_vector":"1"}},{"base_weights":[-3.826533E-2,1.105263E-2,-6.573036E-2,-8.609274E-2,4.642855E-2,-4.9632364E-3,1.5624989E-3,-4.7222236E-3,1.3636363E-2],"categories":[],"categories_nodes":[],"categories_segments":[],"categories_sizes":[],"default_left":[0,0,0,0,0,0,0,0,0],"id":31,"left_children":[1,-1,3,5,7,-1,-1,-1,-1],"loss_changes":[1.4104762E0,0E0,4.105175E-1,2.3649323E-1,9.1838026E-1,0E0,0E0,0E0,0E0],"parents":[2147483647,0,0,2,2,3,3,4,4],"right_children":[2,-1,4,6,8,-1,-1,-1,-1],"split_conditions":[5E0,2.956447E-3,4.6E1,5.286384E0,4.608092E0,-6.567355E-3,7.895943E-5,-1.5341285E-4,2.7418395E-3],"split_indices":[19,0,19,1,7,0,0,0,0],"split_type":[0,0,0,0,0,0,0,0,0],"sum_hessian":[1.95E2,1.8E1,1.77E2,1.5E2,2.7E1,1.35E2,1.5E1,1.7E1,1E1],"tree_param":{"num_deleted":"0","num_feature":"22","num_nodes":"9","size_leaf_vector":"1"}},{"base_weights":[-4.656087E-2,1.3666664E-1,-8.062503E-2,-4.7222236E-3,2.2307692E-2,-9.266669E-2,4.5454535E-3,-4.964287E-3,-1.0837209E-9],"categories":[],"categories_nodes":[],"categories_segments":[],"categories_sizes":[],"default_left":[0,0,0,0,0,0,0,0,0],"id":32,"left_children":[1,3,5,-1,-1,7,-1,-1,-1],"loss_changes":[1.1906605E0,2.1879144E0,3.389132E-1,0E0,0E0,9.2004776E-2,0E0,0E0,0E0],"parents":[2147483647,0,0,1,1,2,2,5,5],"right_children":[2,4,6,-1,-1,8,-1,-1,-1],"split_conditions":[8E0,4.6252584E0,5.0905476E0,-2.480317E-4,3.5396763E-3,5.380394E0,2.6047488E-3,-2.847791E-3,1.2309071E-4],"split_indices":[19,13,14,0,0,0,0,0,0],"split_type":[0,0,0,0,0,0,0,0,0],"sum_hessian":[1.88E2,2.9E1,1.59E2,1.7E1,1.2E1,1.49E2,1E1,1.39E2,1E1],"tree_param":{"num_deleted":"0","num_feature":"22","num_nodes":"9","size_leaf_vector":"1"}},{"base_weights":[-4.248707E-2,-6.120221E-2,1.3636363E-2,-4.9545467E-3,-4.0540774E-3,1.6785713E-2,-8.1967235E-2,-4.901962E-3,-1.0837209E-9],"categories":[],"categories_nodes":[],"categories_segments":[],"categories_sizes":[],"default_left":[0,0,0,0,0,0,0,0,0],"id":33,"left_children":[1,3,-1,-1,5,-1,7,-1,-1],"loss_changes":[1.1552526E0,3.9584267E-1,0E0,0E0,1.986477E0,0E0,8.0359995E-2,0E0,0E0],"parents":[2147483647,0,0,1,1,4,4,6,6],"right_children":[2,4,-1,-1,6,-1,8,-1,-1],"split_conditions":[5.094324E0,2.5025865E2,3.6063814E-3,-5.1022535E-3,4.79316E0,9.2363356E-5,5.406337E0,-2.3886708E-3,1.16939504E-4],"split_indices":[14,17,0,0,12,0,0,0,0],"split_type":[0,0,0,0,0,0,0,0,0],"sum_hessian":[1.92E2,1.82E2,1E1,1.09E2,7.3E1,1.3E1,6E1,5E1,1E1],"tree_param":{"num_deleted":"0","num_feature":"22","num_nodes":"9","size_leaf_vector":"1"}},{"base_weights":[-4.1269865E-2,5.7812475E-2,-9.1269866E-2,-4.87805E-3,3.2083333E-1,-1.0837209E-9,-4.956898E-3,3.076922E-3,2.875E-2],"categories":[],"categories_nodes":[],"categories_segments":[],"categories_sizes":[],"default_left":[0,0,0,0,0,0,0,0,0],"id":34,"left_children":[1,3,5,-1,7,-1,-1,-1,-1],"loss_changes":[9.416046E-1,2.6467543E0,9.048307E-2,0E0,1.546314E0,0E0,0E0,0E0,0E0],"parents":[2147483647,0,0,1,1,2,2,4,4],"right_children":[2,4,6,-1,8,-1,-1,-1,-1],"split_conditions":[4.7432017E0,4.8197308E0,4.5796204E0,-3.9263847E-3,4.709027E0,1.5177956E-4,-3.9925207E-3,1.9635195E-4,3.208813E-3],"split_indices":[7,14,8,0,6,0,0,0,0],"split_type":[0,0,0,0,0,0,0,0,0],"sum_hessian":[1.88E2,6.3E1,1.25E2,4E1,2.3E1,1E1,1.15E2,1.2E1,1.1E1],"tree_param":{"num_deleted":"0","num_feature":"22","num_nodes":"9","size_leaf_vector":"1"}},{"base_weights":[-4.6842128E-2,-7.166669E-2,1.8181818E-2,-8.636366E-2,1.4814792E-2,-4.9645402E-3,2.499999E-3,-4.7058836E-3,9.090908E-3],"categories":[],"categories_nodes":[],"categories_segments":[],"categories_sizes":[],"default_left":[0,0,0,0,0,0,0,0,0],"id":35,"left_children":[1,3,-1,5,7,-1,-1,-1,-1],"loss_changes":[1.9621508E0,2.3006225E-1,0E0,2.7643466E-1,5.082987E-1,0E0,0E0,0E0,0E0],"parents":[2147483647,0,0,1,1,3,3,4,4],"right_children":[2,4,-1,6,8,-1,-1,-1,-1],"split_conditions":[5.098454E0,1.1E1,3.2744096E-3,5.2240024E0,4.5596385E0,-3.8101298E-3,2.6655194E-4,-1.6708116E-3,2.1670338E-4],"split_indices":[14,20,0,10,5,0,0,0,0],"split_type":[0,0,0,0,0,0,0,0,0],"sum_hessian":[1.89E2,1.79E2,1E1,1.53E2,2.6E1,1.4E2,1.3E1,1.6E1,1E1],"tree_param":{"num_deleted":"0","num_feature":"22","num_nodes":"9","size_leaf_vector":"1"}},{"base_weights":[1.0581773E-3,2.9696968E-1,-6.114652E-2,-4.666668E-3,2.9473683E-2,-9.160308E-2,8.888887E-2,-4.958679E-3,-1.0837209E-9,-4.6428586E-3,1.3214285E-2],"categories":[],"categories_nodes":[],"categories_segments":[],"categories_sizes":[],"default_left":[0,0,0,0,0,0,0,0,0,0,0],"id":36,"left_children":[1,3,5,-1,-1,7,9,-1,-1,-1,-1],"loss_changes":[3.4970977E0,3.8224688E0,7.2556365E-1,0E0,0E0,9.084606E-2,8.8523805E-1,0E0,0E0,0E0,0E0],"parents":[2147483647,0,0,1,1,2,2,5,5,6,6],"right_children":[2,4,6,-1,-1,8,10,-1,-1,-1,-1],"split_conditions":[9E0,4.5682664E0,4.6E1,-3.5709501E-3,2.1271796E-3,5.2919493E0,4.5596385E0,-6.6247173E-3,2.7446976E-4,-1.3624146E-3,1.600823E-3],"split_indices":[19,13,19,0,0,1,5,0,0,0,0],"split_type":[0,0,0,0,0,0,0,0,0,0,0],"sum_hessian":[1.88E2,3.2E1,1.56E2,1.4E1,1.8E1,1.3E2,2.6E1,1.2E2,1E1,1.3E1,1.3E1],"tree_param":{"num_deleted":"0","num_feature":"22","num_nodes":"11","size_leaf_vector":"1"}},{"base_weights":[-3.7305724E-2,1.36842085E-2,-7.085717E-2,-8.711659E-2,6.9230758E-3,-4.9671065E-3,3.749999E-3],"categories":[],"categories_nodes":[],"categories_segments":[],"categories_sizes":[],"default_left":[0,0,0,0,0,0,0],"id":37,"left_children":[1,-1,3,5,-1,-1,-1],"loss_changes":[2.0331855E0,0E0,6.076575E-1,3.305105E-1,0E0,0E0,0E0],"parents":[2147483647,0,0,2,2,3,3],"right_children":[2,-1,4,6,-1,-1,-1],"split_conditions":[5E0,2.020821E-3,5.2240024E0,5E1,2.2740118E-4,-3.359399E-3,6.540821E-4],"split_indices":[19,0,10,19,0,0,0],"split_type":[0,0,0,0,0,0,0],"sum_hessian":[1.92E2,1.8E1,1.74E2,1.62E2,1.2E1,1.51E2,1.1E1],"tree_param":{"num_deleted":"0","num_feature":"22","num_nodes":"7","size_leaf_vector":"1"}},{"base_weights":[-3.316329E-2,-5.6451637E-2,1.8181818E-2,-8.670888E-2,1.10344805E-1,-4.96403E-3,2.4999888E-4,-4.687501E-3,1.6785713E-2],"categories":[],"categories_nodes":[],"categories_segments":[],"categories_sizes":[],"default_left":[0,0,0,0,0,0,0,0,0],"id":38,"left_children":[1,3,-1,5,7,-1,-1,-1,-1],"loss_changes":[1.8317262E0,9.4827294E-1,0E0,1.8266046E-1,1.3653787E0,0E0,0E0,0E0,0E0],"parents":[2147483647,0,0,1,1,3,3,4,4],"right_children":[2,4,-1,6,8,-1,-1,-1,-1],"split_conditions":[5.0962687E0,2.286083E-1,2.9127523E-3,4.6E1,4.6733336E0,-3.2330216E-3,1.0821802E-4,-3.2954842E-3,2.2980686E-4],"split_indices":[14,15,0,19,9,0,0,0,0],"split_type":[0,0,0,0,0,0,0,0,0],"sum_hessian":[1.95E2,1.85E2,1E1,1.57E2,2.8E1,1.38E2,1.9E1,1.5E1,1.3E1],"tree_param":{"num_deleted":"0","num_feature":"22","num_nodes":"9","size_leaf_vector":"1"}},{"base_weights":[-2.162186E-3,2.6666665E-1,-6.013074E-2,-4.687501E-3,2.8611109E-2,-9.1472894E-2,1.0399998E-1,-4.9579847E-3,-1.0837209E-9,-4.615386E-3,1.4615384E-2],"categories":[],"categories_nodes":[],"categories_segments":[],"categories_sizes":[],"default_left":[0,0,0,0,0,0,0,0,0,0,0],"id":39,"left_children":[1,3,5,-1,-1,7,9,-1,-1,-1,-1],"loss_changes":[2.8990045E0,3.6878471E0,7.965773E-1,0E0,0E0,9.07042E-2,9.5113844E-1,0E0,0E0,0E0,0E0],"parents":[2147483647,0,0,1,1,2,2,5,5,6,6],"right_children":[2,4,6,-1,-1,8,10,-1,-1,-1,-1],"split_conditions":[9E0,4.5998693E0,4.6E1,-3.2997706E-3,1.8959948E-3,5.378698E0,4.5596385E0,-5.2088667E-3,2.378725E-4,-1.2762025E-3,1.4655181E-3],"split_indices":[19,13,19,0,0,0,5,0,0,0,0],"split_type":[0,0,0,0,0,0,0,0,0,0,0],"sum_hessian":[1.84E2,3.2E1,1.52E2,1.5E1,1.7E1,1.28E2,2.4E1,1.18E2,1E1,1.2E1,1.2E1],"tree_param":{"num_deleted":"0","num_feature":"22","num_nodes":"11","size_leaf_vector":"1"}},{"base_weights":[-3.664924E-2,-6.0773503E-2,1.8181818E-2,3.6666643E-2,-7.960529E-2,-4.7500012E-3,1.3636363E-2,-9.1911785E-2,1.1764695E-3,-4.9603186E-3,-1.0837209E-9],"categories":[],"categories_nodes":[],"categories_segments":[],"categories_sizes":[],"default_left":[0,0,0,0,0,0,0,0,0,0,0],"id":40,"left_children":[1,3,-1,5,7,-1,-1,9,-1,-1,-1],"loss_changes":[1.8665092E0,3.350488E-1,0E0,9.583486E-1,1.9508511E-1,0E0,0E0,9.118235E-2,0E0,0E0,0E0],"parents":[2147483647,0,0,1,1,3,3,4,4,7,7],"right_children":[2,4,-1,6,8,-1,-1,10,-1,-1,-1],"split_conditions":[5.094324E0,4.5064774E0,2.6744842E-3,4.751416E0,4.6E1,-3.4080506E-3,3.7543774E-5,5.406337E0,7.4088566E-5,-4.940386E-3,2.3135178E-4],"split_indices":[14,8,0,14,19,0,0,0,0,0,0],"split_type":[0,0,0,0,0,0,0,0,0,0,0],"sum_hessian":[1.9E2,1.8E2,1E1,2.9E1,1.51E2,1.9E1,1E1,1.35E2,1.6E1,1.25E2,1E1],"tree_param":{"num_deleted":"0","num_feature":"22","num_nodes":"11","size_leaf_vector":"1"}},{"base_weights":[-2.052634E-2,2.884615E-1,-6.909093E-2,-4.545456E-3,2.65625E-2,-9.225354E-2,7.083331E-2,-4.9621225E-3,-1.0837209E-9,-4.6428586E-3,1.3636363E-2],"categories":[],"categories_nodes":[],"categories_segments":[],"categories_sizes":[],"default_left":[0,0,0,0,0,0,0,0,0,0,0],"id":41,"left_children":[1,3,5,-1,-1,7,9,-1,-1,-1,-1],"loss_changes":[2.871045E0,2.4430723E0,5.413015E-1,0E0,0E0,9.155464E-2,8.1847954E-1,0E0,0E0,0E0,0E0],"parents":[2147483647,0,0,1,1,2,2,5,5,6,6],"right_children":[2,4,6,-1,-1,8,10,-1,-1,-1,-1],"split_conditions":[7E0,4.5382843E0,4.6E1,-2.8848266E-3,1.9111533E-3,5.380394E0,4.568424E0,-4.2166333E-3,2.1441211E-4,-5.892756E-4,1.5046617E-3],"split_indices":[19,13,19,0,0,0,7,0,0,0,0],"split_type":[0,0,0,0,0,0,0,0,0,0,0],"sum_hessian":[1.89E2,2.5E1,1.64E2,1E1,1.5E1,1.41E2,2.3E1,1.31E2,1E1,1.3E1,1E1],"tree_param":{"num_deleted":"0","num_feature":"22","num_nodes":"11","size_leaf_vector":"1"}},{"base_weights":[-4.0641736E-2,-6.5536745E-2,1.8181818E-2,-8.6956546E-2,7.0588225E-3,-4.9645402E-3,-2.2706532E-8,-4.545456E-3,4.5454535E-3],"categories":[],"categories_nodes":[],"categories_segments":[],"categories_sizes":[],"default_left":[0,0,0,0,0,0,0,0,0],"id":42,"left_children":[1,3,-1,5,-1,-1,7,-1,-1],"loss_changes":[1.9058944E0,7.959888E-1,0E0,1.7267966E-1,0E0,0E0,1.8181819E-1,0E0,0E0],"parents":[2147483647,0,0,1,1,3,3,6,6],"right_children":[2,4,-1,6,-1,-1,8,-1,-1],"split_conditions":[5.098454E0,5.2683544E0,2.4472282E-3,4.6E1,1.9141671E-4,-2.9016237E-3,4.5116305E0,-1.9123534E-3,5.14531E-5],"split_indices":[14,1,0,19,0,0,1,0,0],"split_type":[0,0,0,0,0,0,0,0,0],"sum_hessian":[1.86E2,1.76E2,1E1,1.6E2,1.6E1,1.4E2,2E1,1E1,1E1],"tree_param":{"num_deleted":"0","num_feature":"22","num_nodes":"9","size_leaf_vector":"1"}},{"base_weights":[-1.8817227E-2,2.5588232E-1,-7.973859E-2,-4.7058836E-3,2.8611109E-2,-4.96479E-3,7.916666E-3],"categories":[],"categories_nodes":[],"categories_segments":[],"categories_sizes":[],"default_left":[0,0,0,0,0,0,0],"id":43,"left_children":[1,3,5,-1,-1,-1,-1],"loss_changes":[3.1331267E0,3.818301E0,7.280932E-1,0E0,0E0,0E0,0E0],"parents":[2147483647,0,0,1,1,2,2],"right_children":[2,4,6,-1,-1,-1,-1],"split_conditions":[9E0,4.752636E0,5E1,-2.690978E-3,8.2423195E-4,-2.3971058E-3,1.1839911E-3],"split_indices":[19,14,19,0,0,0,0],"split_type":[0,0,0,0,0,0,0],"sum_hessian":[1.85E2,3.3E1,1.52E2,1.6E1,1.7E1,1.41E2,1.1E1],"tree_param":{"num_deleted":"0","num_feature":"22","num_nodes":"7","size_leaf_vector":"1"}},{"base_weights":[-1.9680874E-2,2.3928571E-2,-5.9428595E-2,7.0588225E-3,-8.0503166E-2,-9.1911785E-2,-1.2500023E-2,-4.9603186E-3,-1.0837209E-9,-4.6428586E-3,4.5454535E-3],"categories":[],"categories_nodes":[],"categories_segments":[],"categories_sizes":[],"default_left":[0,0,0,0,0,0,0,0,0,0,0],"id":44,"left_children":[1,-1,3,-1,5,7,9,-1,-1,-1,-1],"loss_changes":[3.7516668E0,0E0,7.512067E-1,0E0,1.2220669E-1,9.118235E-2,2.0787339E-1,0E0,0E0,0E0,0E0],"parents":[2147483647,0,0,2,2,4,4,5,5,6,6],"right_children":[2,-1,4,-1,6,8,10,-1,-1,-1,-1],"split_conditions":[4E0,1.8956991E-3,8E0,9.0491754E-5,4.6E1,5.380394E0,4.5247364E0,-4.26919E-3,3.139757E-4,-4.0471586E-4,1.16932395E-4],"split_indices":[19,0,19,0,19,0,6,0,0,0,0],"split_type":[0,0,0,0,0,0,0,0,0,0,0],"sum_hessian":[1.87E2,1.3E1,1.74E2,1.6E1,1.58E2,1.35E2,2.3E1,1.25E2,1E1,1.3E1,1E1],"tree_param":{"num_deleted":"0","num_feature":"22","num_nodes":"11","size_leaf_vector":"1"}},{"base_weights":[-2.6178034E-2,-4.972378E-2,1.8181818E-2,1.0399998E-1,-7.3885374E-2,-4.666668E-3,1.8181818E-2,-8.571431E-2,4.5454535E-3,-4.9612415E-3,5.2631466E-4],"categories":[],"categories_nodes":[],"categories_segments":[],"categories_sizes":[],"default_left":[0,0,0,0,0,0,0,0,0,0,0],"id":45,"left_children":[1,3,-1,5,7,-1,-1,9,-1,-1,-1],"loss_changes":[1.7711693E0,6.7995626E-1,0E0,1.3148122E0,3.1383902E-1,0E0,0E0,1.9218266E-1,0E0,0E0,0E0],"parents":[2147483647,0,0,1,1,3,3,4,4,7,7],"right_children":[2,4,-1,6,8,-1,-1,10,-1,-1,-1],"split_conditions":[5.0962687E0,8E0,2.1959518E-3,4.6111574E0,5.406337E0,-6.546975E-5,1.1974573E-4,4.6E1,3.0410997E-4,-4.9678595E-3,2.5217489E-5],"split_indices":[14,19,0,13,4,0,0,19,0,0,0],"split_type":[0,0,0,0,0,0,0,0,0,0,0],"sum_hessian":[1.9E2,1.8E2,1E1,2.4E1,1.56E2,1.4E1,1E1,1.46E2,1E1,1.28E2,1.8E1],"tree_param":{"num_deleted":"0","num_feature":"22","num_nodes":"11","size_leaf_vector":"1"}},{"base_weights":[-1.3197993E-2,-3.529414E-2,1.8181818E-2,-5.798819E-2,8.421051E-3,1.639342E-2,-4.9541295E-3,-7.7551045E-2,1.8461538E-2,-4.8717964E-3,-1.0837209E-9],"categories":[],"categories_nodes":[],"categories_segments":[],"categories_sizes":[],"default_left":[0,0,0,0,0,0,0,0,0,0,0],"id":46,"left_children":[1,3,-1,5,-1,7,-1,9,-1,-1,-1],"loss_changes":[1.6531719E0,8.742901E-1,0E0,5.182012E-1,0E0,2.0506082E0,0E0,7.556254E-2,0E0,0E0,0E0],"parents":[2147483647,0,0,1,1,3,3,5,5,7,7],"right_children":[2,4,-1,6,-1,8,-1,10,-1,-1,-1],"split_conditions":[5.098454E0,5.2683544E0,2.08616E-3,4.7517166E0,3.4437884E-4,4.8313303E0,-5.625898E-3,4.8091974E0,3.257846E-4,-3.014851E-3,7.3194324E-6],"split_indices":[14,1,0,7,0,14,0,14,0,0,0],"split_type":[0,0,0,0,0,0,0,0,0,0,0],"sum_hessian":[1.96E2,1.86E2,1E1,1.68E2,1.8E1,6E1,1.08E2,4.8E1,1.2E1,3.8E1,1E1],"tree_param":{"num_deleted":"0","num_feature":"22","num_nodes":"11","size_leaf_vector":"1"}},{"base_weights":[-2.336959E-2,-6.139243E-2,1.9999997E-1,-9.1338605E-2,5.9374977E-2,2.4583332E-2,-1.5625012E-3,-7.692319E-4,-4.956523E-3,-4.7058836E-3,1.0937499E-2],"categories":[],"categories_nodes":[],"categories_segments":[],"categories_sizes":[],"default_left":[0,0,0,0,0,0,0,0,0,0,0],"id":47,"left_children":[1,3,5,7,9,-1,-1,-1,-1,-1,-1],"loss_changes":[1.5750172E0,5.768337E-1,1.8364583E0,7.363629E-2,8.0340075E-1,0E0,0E0,0E0,0E0,0E0,0E0],"parents":[2147483647,0,0,1,1,2,2,3,3,4,4],"right_children":[2,4,6,8,10,-1,-1,-1,-1,-1,-1],"split_conditions":[5.2470584E0,4.5E1,5.3456545E0,4E0,8.422259E-2,7.934808E-4,8.0027436E-5,5.177255E-5,-5.314994E-3,-2.0692595E-4,7.0047827E-4],"split_indices":[0,19,4,19,15,0,0,0,0,0,0],"split_type":[0,0,0,0,0,0,0,0,0,0,0],"sum_hessian":[1.83E2,1.57E2,2.6E1,1.26E2,3.1E1,1.1E1,1.5E1,1.2E1,1.14E2,1.6E1,1.5E1],"tree_param":{"num_deleted":"0","num_feature":"22","num_nodes":"11","size_leaf_vector":"1"}},{"base_weights":[-2.0105844E-2,1.5277776E-1,-6.0389634E-2,-4.7500012E-3,2.1764705E-2,-4.953272E-3,2.708331E-2,1.1999999E-2,-6.7647085E-2,-4.7916677E-3,-1.0837209E-9],"categories":[],"categories_nodes":[],"categories_segments":[],"categories_sizes":[],"default_left":[0,0,0,0,0,0,0,0,0,0,0],"id":48,"left_children":[1,3,5,-1,-1,-1,7,-1,9,-1,-1],"loss_changes":[1.3254989E0,2.5613987E0,5.236784E-1,0E0,0E0,0E0,9.843798E-1,0E0,6.4828426E-2,0E0,0E0],"parents":[2147483647,0,0,1,1,2,2,6,6,8,8],"right_children":[2,4,6,-1,-1,-1,8,-1,10,-1,-1],"split_conditions":[9E0,4.6111574E0,4.9401E0,-7.159711E-5,1.192729E-3,-5.384963E-3,4.9109597E0,7.4053975E-4,5.169554E0,-3.4640841E-3,6.670711E-5],"split_indices":[19,13,14,0,0,0,8,0,0,0,0],"split_type":[0,0,0,0,0,0,0,0,0,0,0],"sum_hessian":[1.88E2,3.5E1,1.53E2,1.9E1,1.6E1,1.06E2,4.7E1,1.4E1,3.3E1,2.3E1,1E1],"tree_param":{"num_deleted":"0","num_feature":"22","num_nodes":"11","size_leaf_vector":"1"}},{"base_weights":[-4.248707E-2,-6.120221E-2,1.3636363E-2,3.1578937E-3,-7.515154E-2,-8.6451635E-2,4.5454535E-3,-4.962688E-3,-4.545477E-3,-4.5833346E-3,4.5454535E-3],"categories":[],"categories_nodes":[],"categories_segments":[],"categories_sizes":[],"default_left":[0,0,0,0,0,0,0,0,0,0,0],"id":49,"left_children":[1,3,-1,-1,5,7,-1,-1,9,-1,-1],"loss_changes":[1.1552526E0,3.2220387E-1,0E0,0E0,3.1748188E-1,1.6207755E-1,0E0,0E0,1.9128789E-1,0E0,0E0],"parents":[2147483647,0,0,1,1,4,4,5,5,8,8],"right_children":[2,4,-1,-1,6,8,-1,-1,10,-1,-1],"split_conditions":[5.098454E0,2E0,1.9186422E-3,7.238858E-5,5.417848E0,4.5E1,2.430367E-4,-2.7993645E-3,4.4969707E0,-1.6014057E-3,2.975034E-4],"split_indices":[14,20,0,0,6,19,0,0,1,0,0],"split_type":[0,0,0,0,0,0,0,0,0,0,0],"sum_hessian":[1.92E2,1.82E2,1E1,1.8E1,1.64E2,1.54E2,1E1,1.33E2,2.1E1,1.1E1,1E1],"tree_param":{"num_deleted":"0","num_feature":"22","num_nodes":"11","size_leaf_vector":"1"}},{"base_weights":[-3.1052655E-2,-7.891159E-2,1.2954544E-1,-4.955753E-3,-1.1428595E-2,2.4583332E-2,-6.060629E-3,9.090908E-3,-4.800001E-3,-4.7727283E-3,7.916666E-3],"categories":[],"categories_nodes":[],"categories_segments":[],"categories_sizes":[],"default_left":[0,0,0,0,0,0,0,0,0,0,0],"id":50,"left_children":[1,3,5,-1,7,-1,9,-1,-1,-1,-1],"loss_changes":[1.4705726E0,1.9928586E-1,2.1636364E0,0E0,5.8946496E-1,0E0,5.000758E-1,0E0,0E0,0E0,0E0],"parents":[2147483647,0,0,1,1,2,2,4,4,6,6],"right_children":[2,4,6,-1,8,-1,10,-1,-1,-1,-1],"split_conditions":[5.0939054E0,4.943571E0,4.8002825E0,-2.7914979E-3,4.729085E0,1.6649052E-3,5.388811E0,2.8510563E-4,-4.904393E-4,-8.022738E-4,2.1191592E-4],"split_indices":[1,14,7,0,12,0,11,0,0,0,0],"split_type":[0,0,0,0,0,0,0,0,0,0,0],"sum_hessian":[1.89E2,1.46E2,4.3E1,1.12E2,3.4E1,1.1E1,3.2E1,1E1,2.4E1,2.1E1,1.1E1],"tree_param":{"num_deleted":"0","num_feature":"22","num_nodes":"11","size_leaf_vector":"1"}},{"base_weights":[-2.6943028E-2,1.9999997E-1,-8.02548E-2,-4.7222236E-3,2.275E-2,-4.9553583E-3,-3.2608718E-2,5.3333323E-3,-4.8437514E-3],"categories":[],"categories_nodes":[],"categories_segments":[],"categories_sizes":[],"default_left":[0,0,0,0,0,0,0,0,0],"id":51,"left_children":[1,3,5,-1,-1,-1,7,-1,-1],"loss_changes":[2.3511066E0,2.821056E0,1.3779211E-1,0E0,0E0,0E0,4.2206612E-1,0E0,0E0],"parents":[2147483647,0,0,1,1,2,2,6,6],"right_children":[2,4,6,-1,-1,-1,8,-1,-1],"split_conditions":[1E1,4.7540445E0,4.943571E0,-2.0453692E-3,5.7725905E-4,-5.014463E-3,4.9109597E0,6.5324287E-4,-8.248952E-4],"split_indices":[19,14,14,0,0,0,8,0,0],"split_type":[0,0,0,0,0,0,0,0,0],"sum_hessian":[1.92E2,3.6E1,1.56E2,1.7E1,1.9E1,1.11E2,4.5E1,1.4E1,3.1E1],"tree_param":{"num_deleted":"0","num_feature":"22","num_nodes":"9","size_leaf_vector":"1"}},{"base_weights":[-2.5789497E-2,1.6999997E-1,-6.2111825E-2,2.1999998E-2,-4.687501E-3,-7.9470225E-2,9.090908E-3,-9.214288E-2,3.749999E-3,-4.959351E-3,-1.9444457E-3],"categories":[],"categories_nodes":[],"categories_segments":[],"categories_sizes":[],"default_left":[0,0,0,0,0,0,0,0,0,0,0],"id":52,"left_children":[1,3,5,-1,-1,7,-1,9,-1,-1,-1],"loss_changes":[1.3617495E0,2.1776247E0,6.9616073E-1,0E0,0E0,3.025005E-1,0E0,4.8660755E-2,0E0,0E0,0E0],"parents":[2147483647,0,0,1,1,2,2,5,5,7,7],"right_children":[2,4,6,-1,-1,8,-1,10,-1,-1,-1],"split_conditions":[9E0,9.996734E1,5.406337E0,1.1384006E-3,-1.3417247E-4,5E1,1.9501922E-4,4.5E1,9.046172E-4,-4.4269743E-3,2.1614896E-5],"split_indices":[19,16,6,0,0,19,0,19,0,0,0],"split_type":[0,0,0,0,0,0,0,0,0,0,0],"sum_hessian":[1.89E2,2.9E1,1.6E2,1.4E1,1.5E1,1.5E2,1E1,1.39E2,1.1E1,1.22E2,1.7E1],"tree_param":{"num_deleted":"0","num_feature":"22","num_nodes":"11","size_leaf_vector":"1"}},{"base_weights":[-4.095747E-2,-7.000002E-2,1.105263E-2,-8.0503166E-2,3.749999E-3,-9.1911785E-2,-1.2500023E-2,-4.9579847E-3,-1.9444457E-3,-4.6428586E-3,4.5454535E-3],"categories":[],"categories_nodes":[],"categories_segments":[],"categories_sizes":[],"default_left":[0,0,0,0,0,0,0,0,0,0,0],"id":53,"left_children":[1,3,-1,5,-1,7,9,-1,-1,-1,-1],"loss_changes":[1.4460487E0,2.6494038E-1,0E0,1.2220669E-1,0E0,4.8409224E-2,2.0787339E-1,0E0,0E0,0E0,0E0],"parents":[2147483647,0,0,1,1,3,3,5,5,6,6],"right_children":[2,4,-1,6,-1,8,10,-1,-1,-1,-1],"split_conditions":[2.641887E2,5E1,6.170244E-4,2.3426446E-1,8.593892E-4,4.5E1,4.653554E0,-2.6342513E-3,2.0542013E-5,-2.6056534E-3,3.8528195E-4],"split_indices":[17,19,0,15,0,19,9,0,0,0,0],"split_type":[0,0,0,0,0,0,0,0,0,0,0],"sum_hessian":[1.87E2,1.69E2,1.8E1,1.58E2,1.1E1,1.35E2,2.3E1,1.18E2,1.7E1,1.3E1,1E1],"tree_param":{"num_deleted":"0","num_feature":"22","num_nodes":"11","size_leaf_vector":"1"}},{"base_weights":[-2.1761682E-2,2.521739E-1,-5.8479555E-2,2.875E-2,-4.5833346E-3,-7.4375026E-2,7.916666E-3,-8.581083E-2,3.076922E-3,-4.9590175E-3,-2.2222245E-2,4.5454535E-3,-4.7058836E-3],"categories":[],"categories_nodes":[],"categories_segments":[],"categories_sizes":[],"default_left":[0,0,0,0,0,0,0,0,0,0,0,0,0],"id":54,"left_children":[1,3,5,-1,-1,7,-1,9,-1,-1,11,-1,-1],"loss_changes":[1.9560051E0,2.6057248E0,6.0110044E-1,0E0,0E0,2.539655E-1,0E0,1.2361801E-1,0E0,0E0,2.2816399E-1,0E0,0E0],"parents":[2147483647,0,0,1,1,2,2,5,5,7,7,10,10],"right_children":[2,4,6,-1,-1,8,-1,10,-1,-1,12,-1,-1],"split_conditions":[6E0,9.996734E1,5.388811E0,1.465015E-3,-6.152634E-5,5E1,1.7827033E-4,1.3E1,7.8129995E-4,-2.3980523E-3,4.8002825E0,3.8349626E-4,-4.051819E-3],"split_indices":[19,16,11,0,0,19,0,3,0,0,7,0,0],"split_type":[0,0,0,0,0,0,0,0,0,0,0,0,0],"sum_hessian":[1.92E2,2.2E1,1.7E2,1.1E1,1.1E1,1.59E2,1.1E1,1.47E2,1.2E1,1.21E2,2.6E1,1E1,1.6E1],"tree_param":{"num_deleted":"0","num_feature":"22","num_nodes":"13","size_leaf_vector":"1"}},{"base_weights":[-2.2564126E-2,1.6578946E-1,-6.7721546E-2,-4.7500012E-3,2.1578947E-2,-9.140627E-2,3.225804E-2,-4.9576284E-3,-1.0837209E-9,-4.761906E-3,1.3636363E-2],"categories":[],"categories_nodes":[],"categories_segments":[],"categories_sizes":[],"default_left":[0,0,0,0,0,0,0,0,0,0,0],"id":55,"left_children":[1,3,5,-1,-1,7,9,-1,-1,-1,-1],"loss_changes":[1.6698117E0,2.6749735E0,3.77091E-1,0E0,0E0,9.0631485E-2,9.764E-1,0E0,0E0,0E0,0E0],"parents":[2147483647,0,0,1,1,2,2,5,5,6,6],"right_children":[2,4,6,-1,-1,8,10,-1,-1,-1,-1],"split_conditions":[1E1,4.3864894E0,4.5E1,-1.797533E-3,5.129308E-4,5.387623E0,4.6656666E0,-4.5152386E-3,3.2350996E-5,-3.497935E-4,7.8734383E-4],"split_indices":[19,8,19,0,0,6,7,0,0,0,0],"split_type":[0,0,0,0,0,0,0,0,0,0,0],"sum_hessian":[1.94E2,3.7E1,1.57E2,1.9E1,1.8E1,1.27E2,3E1,1.17E2,1E1,2E1,1E1],"tree_param":{"num_deleted":"0","num_feature":"22","num_nodes":"11","size_leaf_vector":"1"}},{"base_weights":[-3.9344285E-2,-8.320002E-2,5.4237265E-2,5.2631466E-4,-4.953272E-3,1.625E-2,-1.4583357E-2,-7.027029E-2,7.916666E-3,-1.0837209E-9,-4.814816E-3],"categories":[],"categories_nodes":[],"categories_segments":[],"categories_sizes":[],"default_left":[0,0,0,0,0,0,0,0,0,0,0],"id":56,"left_children":[1,3,5,-1,-1,-1,7,9,-1,-1,-1],"loss_changes":[7.5556064E-1,1.8691874E-1,1.104149E0,0E0,0E0,0E0,4.733277E-1,6.766765E-2,0E0,0E0,0E0],"parents":[2147483647,0,0,1,1,2,2,6,6,7,7],"right_children":[2,4,6,-1,-1,-1,8,10,-1,-1,-1],"split_conditions":[4.943571E0,3E0,1.0031436E2,2.887487E-5,-4.312227E-3,7.189368E-4,5.388811E0,4.784927E0,1.5371322E-4,-3.71149E-5,-2.8410682E-4],"split_indices":[14,20,16,0,0,0,11,0,0,0,0],"split_type":[0,0,0,0,0,0,0,0,0,0,0],"sum_hessian":[1.82E2,1.24E2,5.8E1,1.8E1,1.06E2,1.1E1,4.7E1,3.6E1,1.1E1,1E1,2.6E1],"tree_param":{"num_deleted":"0","num_feature":"22","num_nodes":"11","size_leaf_vector":"1"}},{"base_weights":[-2.1761682E-2,-4.9473695E-3,5.252523E-2,2.4473682E-1,-6.612906E-2,2.2727272E-2,1.5357141E-1,-4.8837224E-3,2.4999888E-4,8.333322E-4,1.8181818E-2],"categories":[],"categories_nodes":[],"categories_segments":[],"categories_sizes":[],"default_left":[0,0,0,0,0,0,0,0,0,0,0],"id":57,"left_children":[1,-1,3,5,7,-1,9,-1,-1,-1,-1],"loss_changes":[1.1118376E0,0E0,2.2740505E0,6.570318E-1,1.396035E-1,0E0,7.991883E-1,0E0,0E0,0E0,0E0],"parents":[2147483647,0,0,2,2,3,3,4,4,6,6],"right_children":[2,-1,4,6,8,-1,10,-1,-1,-1,-1],"split_conditions":[4.8197308E0,-3.000391E-3,4.9109597E0,4.5247364E0,2.624308E2,6.915449E-4,4.9982147E0,-4.1571143E-3,3.2067255E-5,3.5562458E-5,1.5003656E-3],"split_indices":[14,0,8,8,17,0,9,0,0,0,0],"split_type":[0,0,0,0,0,0,0,0,0,0,0],"sum_hessian":[1.92E2,9.4E1,9.8E1,3.7E1,6.1E1,1E1,2.7E1,4.2E1,1.9E1,1.7E1,1E1],"tree_param":{"num_deleted":"0","num_feature":"22","num_nodes":"11","size_leaf_vector":"1"}},{"base_weights":[-4.419892E-2,-7.3717974E-2,1.3461536E-1,-9.172935E-2,2.9166644E-2,1.8181818E-2,-1.5625012E-3,-4.959351E-3,-1.0837209E-9,-4.6428586E-3,9.090908E-3],"categories":[],"categories_nodes":[],"categories_segments":[],"categories_sizes":[],"default_left":[0,0,0,0,0,0,0,0,0,0,0],"id":58,"left_children":[1,3,5,7,9,-1,-1,-1,-1,-1,-1],"loss_changes":[9.6531916E-1,2.9175794E-1,9.990165E-1,9.098363E-2,4.6393397E-1,0E0,0E0,0E0,0E0,0E0,0E0],"parents":[2147483647,0,0,1,1,2,2,3,3,4,4],"right_children":[2,4,6,8,10,-1,-1,-1,-1,-1,-1],"split_conditions":[2.624308E2,1.1E1,1.02855675E2,5.247626E0,9.6201E-2,1.380708E-3,-2.3617778E-5,-1.7101057E-3,-4.9643655E-5,-7.703781E-5,6.970382E-4],"split_indices":[17,20,16,0,15,0,0,0,0,0,0],"split_type":[0,0,0,0,0,0,0,0,0,0,0],"sum_hessian":[1.8E2,1.55E2,2.5E1,1.32E2,2.3E1,1E1,1.5E1,1.22E2,1E1,1.3E1,1E1],"tree_param":{"num_deleted":"0","num_feature":"22","num_nodes":"11","size_leaf_vector":"1"}},{"base_weights":[-7.179511E-3,2.4571426E-1,-6.2111825E-2,-4.687501E-3,2.525E-2,-7.891159E-2,5.3333323E-3,-9.197082E-2,4.5454535E-3,-4.958335E-3,-1.9444457E-3],"categories":[],"categories_nodes":[],"categories_segments":[],"categories_sizes":[],"default_left":[0,0,0,0,0,0,0,0,0,0,0],"id":59,"left_children":[1,3,5,-1,-1,7,-1,9,-1,-1,-1],"loss_changes":[2.7242098E0,3.1279821E0,4.6492273E-1,0E0,0E0,3.3436716E-1,0E0,4.847336E-2,0E0,0E0,0E0],"parents":[2147483647,0,0,1,1,2,2,5,5,7,7],"right_children":[2,4,6,-1,-1,8,-1,10,-1,-1,-1],"split_conditions":[3E0,2.4679283E2,1.2E1,-1.5135193E-3,1.817226E-4,5.417848E0,1.0498164E-3,1.1E1,7.24101E-5,-3.7395481E-3,-4.860884E-5],"split_indices":[20,17,20,0,0,6,0,20,0,0,0],"split_type":[0,0,0,0,0,0,0,0,0,0,0],"sum_hessian":[1.94E2,3.4E1,1.6E2,1.5E1,1.9E1,1.46E2,1.4E1,1.36E2,1E1,1.19E2,1.7E1],"tree_param":{"num_deleted":"0","num_feature":"22","num_nodes":"11","size_leaf_vector":"1"}},{"base_weights":[-1.2307716E-2,2.4999997E-1,-5.2352965E-2,3E-2,-4.6428586E-3,-6.8125024E-2,9.090908E-3,-9.140627E-2,2.4242401E-2,-4.9576284E-3,-1.0837209E-9,-4.7058836E-3,7.0588225E-3],"categories":[],"categories_nodes":[],"categories_segments":[],"categories_sizes":[],"default_left":[0,0,0,0,0,0,0,0,0,0,0,0,0],"id":60,"left_children":[1,3,5,-1,-1,7,-1,9,11,-1,-1,-1,-1],"loss_changes":[2.0614028E0,3.1757143E0,6.4025766E-1,0E0,0E0,3.4628463E-1,0E0,9.0631485E-2,4.7001785E-1,0E0,0E0,0E0,0E0],"parents":[2147483647,0,0,1,1,2,2,5,5,7,7,8,8],"right_children":[2,4,6,-1,-1,8,-1,10,12,-1,-1,-1,-1],"split_conditions":[7E0,9.996734E1,5.3833127E0,1.0210893E-3,-8.7509216E-5,4.4E1,7.189989E-5,5.289762E0,9.6201E-2,-4.216009E-3,2.7794114E-4,-1.0877134E-4,6.082368E-4],"split_indices":[19,16,11,0,0,19,0,0,15,0,0,0,0],"split_type":[0,0,0,0,0,0,0,0,0,0,0,0,0],"sum_hessian":[1.94E2,2.5E1,1.69E2,1.2E1,1.3E1,1.59E2,1E1,1.27E2,3.2E1,1.17E2,1E1,1.6E1,1.6E1],"tree_param":{"num_deleted":"0","num_feature":"22","num_nodes":"13","size_leaf_vector":"1"}},{"base_weights":[-4.0000025E-2,1.0769229E-1,-7.891159E-2,-4.7058836E-3,2.521739E-1,-4.9514575E-3,-3.1111134E-2,1.8181818E-2,6.9230758E-3,4.5454535E-3,-6.857145E-2,-4.800001E-3,-1.0837209E-9],"categories":[],"categories_nodes":[],"categories_segments":[],"categories_sizes":[],"default_left":[0,0,0,0,0,0,0,0,0,0,0,0,0],"id":61,"left_children":[1,3,5,-1,7,-1,9,-1,-1,-1,11,-1,-1],"loss_changes":[1.0716817E0,1.1608893E0,1.3827848E-1,0E0,2.4116755E-1,0E0,2.1192497E-1,0E0,0E0,0E0,6.582856E-2,0E0,0E0],"parents":[2147483647,0,0,1,1,2,2,4,4,6,6,10,10],"right_children":[2,4,6,-1,8,-1,10,-1,-1,-1,12,-1,-1],"split_conditions":[1.2E1,4.7564607E0,4.943571E0,-1.3515687E-3,5.183099E0,-3.4882668E-3,4.9011936E0,1.2124584E-3,2.2769444E-4,5.247353E-4,5.1493435E0,-2.542151E-3,1.5423275E-5],"split_indices":[19,14,14,0,1,0,13,0,0,0,1,0,0],"split_type":[0,0,0,0,0,0,0,0,0,0,0,0,0],"sum_hessian":[1.84E2,3.8E1,1.46E2,1.6E1,2.2E1,1.02E2,4.4E1,1E1,1.2E1,1E1,3.4E1,2.4E1,1E1],"tree_param":{"num_deleted":"0","num_feature":"22","num_nodes":"13","size_leaf_vector":"1"}},{"base_weights":[-4.095747E-2,-6.0112383E-2,1.3636363E-2,-7.5449124E-2,7.916666E-3,-9.246578E-2,4.0909067E-2,-4.9632364E-3,-1.0837209E-9,-4.5833346E-3,9.090908E-3],"categories":[],"categories_nodes":[],"categories_segments":[],"categories_sizes":[],"default_left":[0,0,0,0,0,0,0,0,0,0,0],"id":62,"left_children":[1,3,-1,5,-1,7,9,-1,-1,-1,-1],"loss_changes":[1.1460118E0,6.082898E-1,0E0,3.3444715E-1,0E0,9.178591E-2,4.2765152E-1,0E0,0E0,0E0,0E0],"parents":[2147483647,0,0,1,1,3,3,5,5,6,6],"right_children":[2,4,-1,6,-1,8,10,-1,-1,-1,-1],"split_conditions":[5.0905476E0,5.3833127E0,1.2010597E-3,1.1E1,5.5489538E-5,5.2424335E0,4.5116305E0,-1.2700133E-3,2.5264494E-4,-4.589181E-4,6.819318E-4],"split_indices":[14,11,0,20,0,1,1,0,0,0,0],"split_type":[0,0,0,0,0,0,0,0,0,0,0],"sum_hessian":[1.87E2,1.77E2,1E1,1.66E2,1.1E1,1.45E2,2.1E1,1.35E2,1E1,1.1E1,1E1],"tree_param":{"num_deleted":"0","num_feature":"22","num_nodes":"11","size_leaf_vector":"1"}},{"base_weights":[-4.095747E-2,3.7878763E-2,-8.2926854E-2,-4.868422E-3,2.1379308E-1,-4.951924E-3,2.4999888E-4,1.8666666E-2,1.999999E-3],"categories":[],"categories_nodes":[],"categories_segments":[],"categories_sizes":[],"default_left":[0,0,0,0,0,0,0,0,0],"id":63,"left_children":[1,3,5,-1,7,-1,-1,-1,-1],"loss_changes":[6.2517834E-1,1.5910834E0,1.7474246E-1,0E0,7.891495E-1,0E0,0E0,0E0,0E0],"parents":[2147483647,0,0,1,1,2,2,4,4],"right_children":[2,4,6,-1,8,-1,-1,-1,-1],"split_conditions":[4.7366123E0,2.4682312E2,1.2758835E-1,-1.5409663E-3,5.2024007E0,-1.3967443E-3,5.5551227E-5,9.6518977E-4,1.5639058E-4],"split_indices":[8,17,15,0,0,0,0,0,0],"split_type":[0,0,0,0,0,0,0,0,0],"sum_hessian":[1.87E2,6.5E1,1.22E2,3.7E1,2.8E1,1.03E2,1.9E1,1.4E1,1.4E1],"tree_param":{"num_deleted":"0","num_feature":"22","num_nodes":"9","size_leaf_vector":"1"}},{"base_weights":[-5.846156E-2,-8.187137E-2,1.0399998E-1,-9.236114E-2,-2.5000023E-2,-4.1666775E-4,9.642856E-3,-4.962688E-3,-1.0837209E-9,-4.7058836E-3,3.749999E-3],"categories":[],"categories_nodes":[],"categories_segments":[],"categories_sizes":[],"default_left":[0,0,0,0,0,0,0,0,0,0,0],"id":64,"left_children":[1,3,5,7,9,-1,-1,-1,-1,-1,-1],"loss_changes":[7.501372E-1,9.970403E-2,2.5114763E-1,9.1671824E-2,2.0058824E-1,0E0,0E0,0E0,0E0,0E0,0E0],"parents":[2147483647,0,0,1,1,2,2,3,3,4,4],"right_children":[2,4,6,8,10,-1,-1,-1,-1,-1,-1],"split_conditions":[2.624308E2,1.1E1,5.046153E0,5.324836E0,4.567185E0,-1.3194418E-5,7.3513E-4,-1.54099E-3,2.150439E-4,-2.8457644E-5,5.435894E-4],"split_indices":[17,20,10,0,5,0,0,0,0,0,0],"split_type":[0,0,0,0,0,0,0,0,0,0,0],"sum_hessian":[1.94E2,1.7E2,2.4E1,1.43E2,2.7E1,1.1E1,1.3E1,1.33E2,1E1,1.6E1,1.1E1],"tree_param":{"num_deleted":"0","num_feature":"22","num_nodes":"11","size_leaf_vector":"1"}},{"base_weights":[-2.9946547E-2,1.8399997E-1,-6.257671E-2,2.2307692E-2,-4.615386E-3,-8.396949E-2,2.4242401E-2,-4.958679E-3,4.5454535E-3,-4.7222236E-3,7.8124986E-3],"categories":[],"categories_nodes":[],"categories_segments":[],"categories_sizes":[],"default_left":[0,0,0,0,0,0,0,0,0,0,0],"id":65,"left_children":[1,3,5,-1,-1,7,9,-1,-1,-1,-1],"loss_changes":[1.3169817E0,1.8520615E0,3.047759E-1,0E0,0E0,3.5732764E-1,5.3178656E-1,0E0,0E0,0E0,0E0],"parents":[2147483647,0,0,1,1,2,2,5,5,6,6],"right_children":[2,4,6,-1,-1,8,10,-1,-1,-1,-1],"split_conditions":[7E0,9.996734E1,4.4E1,8.0421893E-4,-4.2429706E-4,5.417848E0,4.5596385E0,-2.9997563E-3,5.0182334E-5,-2.7308464E-5,5.074548E-4],"split_indices":[19,16,19,0,0,6,5,0,0,0,0],"split_type":[0,0,0,0,0,0,0,0,0,0,0],"sum_hessian":[1.86E2,2.4E1,1.62E2,1.2E1,1.2E1,1.3E2,3.2E1,1.2E2,1E1,1.7E1,1.5E1],"tree_param":{"num_deleted":"0","num_feature":"22","num_nodes":"11","size_leaf_vector":"1"}},{"base_weights":[-2.9569916E-2,9.782606E-2,-7.092201E-2,-4.7727283E-3,2.6399997E-1,-8.396949E-2,4.5454535E-3,1.8666666E-2,4.5454535E-3,-4.954956E-3,-1.1353266E-9],"categories":[],"categories_nodes":[],"categories_segments":[],"categories_sizes":[],"default_left":[0,0,0,0,0,0,0,0,0,0,0],"id":66,"left_children":[1,3,5,-1,7,9,-1,-1,-1,-1,-1],"loss_changes":[9.868029E-1,1.5026371E0,3.0535334E-1,0E0,4.3917584E-1,1.66426E-1,0E0,0E0,0E0,0E0,0E0],"parents":[2147483647,0,0,1,1,2,2,4,4,5,5],"right_children":[2,4,6,-1,8,10,-1,-1,-1,-1,-1],"split_conditions":[1.2E1,2.4679283E2,5E1,-1.1567642E-3,4.856539E0,2.624308E2,5.9417955E-4,2.898931E-4,9.830401E-4,-2.8162363E-3,4.245992E-5],"split_indices":[19,17,19,0,9,17,0,0,0,0,0],"split_type":[0,0,0,0,0,0,0,0,0,0,0],"sum_hessian":[1.85E2,4.5E1,1.4E2,2.1E1,2.4E1,1.3E2,1E1,1.4E1,1E1,1.1E2,2E1],"tree_param":{"num_deleted":"0","num_feature":"22","num_nodes":"11","size_leaf_vector":"1"}},{"base_weights":[-4.7395855E-2,-6.982251E-2,1.12499975E-1,-4.9590175E-3,6.249977E-3,1.3636363E-2,-1.0714297E-3,-4.7500012E-3,7.586204E-2,1.0769229E-2,-1.7647072E-3],"categories":[],"categories_nodes":[],"categories_segments":[],"categories_sizes":[],"default_left":[0,0,0,0,0,0,0,0,0,0,0],"id":67,"left_children":[1,3,5,-1,7,-1,-1,-1,9,-1,-1],"loss_changes":[6.963532E-1,3.780517E-1,5.2086043E-1,0E0,3.4552157E-1,0E0,0E0,0E0,4.5735687E-1,0E0,0E0],"parents":[2147483647,0,0,1,1,2,2,4,4,8,8],"right_children":[2,4,6,-1,8,-1,-1,-1,10,-1,-1],"split_conditions":[5.191719E0,1E1,5.066382E0,-9.724619E-4,4.8115697E0,3.657102E-4,1.32941905E-5,-3.4422164E-3,4.6767898E0,5.196356E-4,5.2175437E-5],"split_indices":[1,20,7,0,14,0,0,0,7,0,0],"split_type":[0,0,0,0,0,0,0,0,0,0,0],"sum_hessian":[1.91E2,1.68E2,2.3E1,1.21E2,4.7E1,1E1,1.3E1,1.9E1,2.8E1,1.2E1,1.6E1],"tree_param":{"num_deleted":"0","num_feature":"22","num_nodes":"11","size_leaf_vector":"1"}},{"base_weights":[-1.7010333E-2,1.8857141E-1,-6.1875023E-2,-4.7058836E-3,2.1578947E-2,-9.160308E-2,6.999998E-2,-4.958679E-3,-1.0837209E-9,-4.687501E-3,1.1999999E-2],"categories":[],"categories_nodes":[],"categories_segments":[],"categories_sizes":[],"default_left":[0,0,0,0,0,0,0,0,0,0,0],"id":68,"left_children":[1,3,5,-1,-1,7,9,-1,-1,-1,-1],"loss_changes":[1.8009999E0,2.444964E0,6.33674E-1,0E0,0E0,9.084606E-2,8.5762495E-1,0E0,0E0,0E0,0E0],"parents":[2147483647,0,0,1,1,2,2,5,5,6,6],"right_children":[2,4,6,-1,-1,8,10,-1,-1,-1,-1],"split_conditions":[3E0,4.5998693E0,4.5E1,-9.0009224E-4,1.6679753E-4,5.417848E0,8.422259E-2,-2.8851463E-3,4.3652046E-5,-1.7699726E-4,4.4881096E-4],"split_indices":[20,13,19,0,0,6,15,0,0,0,0],"split_type":[0,0,0,0,0,0,0,0,0,0,0],"sum_hessian":[1.93E2,3.4E1,1.59E2,1.6E1,1.8E1,1.3E2,2.9E1,1.2E2,1E1,1.5E1,1.4E1],"tree_param":{"num_deleted":"0","num_feature":"22","num_nodes":"11","size_leaf_vector":"1"}},{"base_weights":[-9.523833E-3,1.9999997E-1,-6.013074E-2,-4.7058836E-3,4.285714E-1,-9.098363E-2,5.9374977E-2,3.181818E-2,9.090908E-3,-4.9553583E-3,-1.0837209E-9,-4.6428586E-3,8.421051E-3],"categories":[],"categories_nodes":[],"categories_segments":[],"categories_sizes":[],"default_left":[0,0,0,0,0,0,0,0,0,0,0,0,0],"id":69,"left_children":[1,3,5,-1,7,9,11,-1,-1,-1,-1,-1,-1],"loss_changes":[2.0160596E0,2.5277314E0,5.695279E-1,0E0,9.6103907E-1,9.017122E-2,5.468492E-1,0E0,0E0,0E0,0E0,0E0,0E0],"parents":[2147483647,0,0,1,1,2,2,4,4,5,5,6,6],"right_children":[2,4,6,-1,8,10,12,-1,-1,-1,-1,-1,-1],"split_conditions":[1E1,4.7540445E0,4.4E1,-8.5507886E-4,4.838464E0,5.406337E0,8.422259E-2,3.3907883E-4,1.0693833E-3,-2.7503443E-3,4.1458592E-5,-1.3561732E-4,3.557991E-4],"split_indices":[19,14,19,0,9,6,15,0,0,0,0,0,0],"split_type":[0,0,0,0,0,0,0,0,0,0,0,0,0],"sum_hessian":[1.88E2,3.6E1,1.52E2,1.6E1,2E1,1.21E2,3.1E1,1E1,1E1,1.11E2,1E1,1.3E1,1.8E1],"tree_param":{"num_deleted":"0","num_feature":"22","num_nodes":"13","size_leaf_vector":"1"}},{"base_weights":[-3.0687854E-2,-5.34483E-2,1.0937499E-2,-6.851854E-2,6.9230758E-3,3.6111102E-3,-8.5517265E-2,-9.1851875E-2,-1.0837209E-9,-4.9579847E-3,-1.7647072E-3],"categories":[],"categories_nodes":[],"categories_segments":[],"categories_sizes":[],"default_left":[0,0,0,0,0,0,0,0,0,0,0],"id":70,"left_children":[1,3,-1,5,-1,-1,7,9,-1,-1,-1],"loss_changes":[1.0847045E0,5.1271737E-1,0E0,3.9374727E-1,0E0,0E0,7.854915E-2,5.2297473E-2,0E0,0E0,0E0],"parents":[2147483647,0,0,1,1,3,3,6,6,7,7],"right_children":[2,4,-1,6,-1,-1,8,10,-1,-1,-1],"split_conditions":[2.5533026E-1,5.094324E0,2.0923605E-4,4.5064774E0,8.840511E-4,1.1807897E-4,5.417848E0,4.5E1,3.5402754E-5,-2.1663716E-3,6.412961E-7],"split_indices":[15,14,0,8,0,0,7,19,0,0,0],"split_type":[0,0,0,0,0,0,0,0,0,0,0],"sum_hessian":[1.88E2,1.73E2,1.5E1,1.61E2,1.2E1,1.7E1,1.44E2,1.34E2,1E1,1.18E2,1.6E1],"tree_param":{"num_deleted":"0","num_feature":"22","num_nodes":"11","size_leaf_vector":"1"}},{"base_weights":[-2.0105844E-2,9.782606E-2,-5.7638913E-2,-4.7727283E-3,2.6399997E-1,-9.03509E-2,6.4516105E-2,1.8666666E-2,4.5454535E-3,-4.951924E-3,-1.0837209E-9,-4.5833346E-3,7.7499985E-3],"categories":[],"categories_nodes":[],"categories_segments":[],"categories_sizes":[],"default_left":[0,0,0,0,0,0,0,0,0,0,0,0,0],"id":71,"left_children":[1,3,5,-1,7,9,11,-1,-1,-1,-1,-1,-1],"loss_changes":[8.4221804E-1,1.5026371E0,5.812436E-1,0E0,4.3917584E-1,8.948213E-2,4.5230106E-1,0E0,0E0,0E0,0E0,0E0,0E0],"parents":[2147483647,0,0,1,1,2,2,4,4,5,5,6,6],"right_children":[2,4,6,-1,8,10,12,-1,-1,-1,-1,-1,-1],"split_conditions":[1.2E1,2.4679283E2,4.4E1,-9.6937193E-4,4.856539E0,5.3111353E0,4.4742546E0,2.2134774E-4,9.829781E-4,-3.0052236E-3,3.3638455E-5,-2.1370433E-4,2.5229447E-4],"split_indices":[19,17,19,0,9,0,12,0,0,0,0,0,0],"split_type":[0,0,0,0,0,0,0,0,0,0,0,0,0],"sum_hessian":[1.88E2,4.5E1,1.43E2,2.1E1,2.4E1,1.13E2,3E1,1.4E1,1E1,1.03E2,1E1,1.1E1,1.9E1],"tree_param":{"num_deleted":"0","num_feature":"22","num_nodes":"13","size_leaf_vector":"1"}},{"base_weights":[-3.247425E-2,-4.943183E-3,2.2429883E-2,1.361702E-1,-6.55738E-2,-4.545456E-3,1.9999997E-1,-4.8809536E-3,2.4999888E-4,2.0357143E-2,7.083331E-2,-1.0714297E-3,9.090908E-3],"categories":[],"categories_nodes":[],"categories_segments":[],"categories_sizes":[],"default_left":[0,0,0,0,0,0,0,0,0,0,0,0,0],"id":72,"left_children":[1,-1,3,5,7,-1,9,-1,-1,-1,11,-1,-1],"loss_changes":[7.0935774E-1,0E0,1.0799527E0,6.994197E-1,1.38443E-1,0E0,9.611312E-1,0E0,0E0,0E0,2.4964827E-1,0E0,0E0],"parents":[2147483647,0,0,2,2,3,3,4,4,6,6,10,10],"right_children":[2,-1,4,6,8,-1,10,-1,-1,-1,12,-1,-1],"split_conditions":[4.8115697E0,-2.6581385E-3,4.957868E0,8.176693E-2,2.624308E2,-7.171636E-5,5.018547E0,-2.4413923E-3,4.096027E-5,3.9716714E-4,2.4863783E-1,4.0059047E-5,3.0059807E-4],"split_indices":[14,0,8,15,17,0,1,0,0,0,15,0,0],"split_type":[0,0,0,0,0,0,0,0,0,0,0,0,0],"sum_hessian":[1.93E2,8.7E1,1.06E2,4.6E1,6E1,1E1,3.6E1,4.1E1,1.9E1,1.3E1,2.3E1,1.3E1,1E1],"tree_param":{"num_deleted":"0","num_feature":"22","num_nodes":"13","size_leaf_vector":"1"}},{"base_weights":[-4.0641736E-2,-6.666669E-2,7.428569E-2,-9.1851875E-2,5.7894727E-3,-1.2500023E-2,1.2083332E-2,-1.0714297E-3,-4.9590175E-3,-4.6428586E-3,4.5454535E-3],"categories":[],"categories_nodes":[],"categories_segments":[],"categories_sizes":[],"default_left":[0,0,0,0,0,0,0,0,0,0,0],"id":73,"left_children":[1,3,5,7,-1,9,-1,-1,-1,-1,-1],"loss_changes":[5.6426585E-1,7.136999E-1,5.114405E-1,6.754756E-2,0E0,2.0787339E-1,0E0,0E0,0E0,0E0,0E0],"parents":[2147483647,0,0,1,1,2,2,3,3,5,5],"right_children":[2,4,6,8,-1,10,-1,-1,-1,-1,-1],"split_conditions":[4.4E1,5.2683544E0,5.0728106E0,4E0,1.112174E-4,9.968898E1,2.5104522E-4,2.865779E-6,-1.4673774E-3,-7.481099E-5,4.3562637E-4],"split_indices":[19,1,9,19,0,16,0,0,0,0,0],"split_type":[0,0,0,0,0,0,0,0,0,0,0],"sum_hessian":[1.86E2,1.52E2,3.4E1,1.34E2,1.8E1,2.3E1,1.1E1,1.3E1,1.21E2,1.3E1,1E1],"tree_param":{"num_deleted":"0","num_feature":"22","num_nodes":"11","size_leaf_vector":"1"}},{"base_weights":[-1.8378401E-2,-4.9375024E-2,1.730769E-1,-6.554057E-2,6.9230758E-3,-4.615386E-3,2.0357143E-2,-8.2926854E-2,1.9230746E-2,-4.947918E-3,-2.5000023E-2,-4.687501E-3,9.090908E-3,3.076922E-3,-4.687501E-3],"categories":[],"categories_nodes":[],"categories_segments":[],"categories_sizes":[],"default_left":[0,0,0,0,0,0,0,0,0,0,0,0,0,0,0],"id":74,"left_children":[1,3,5,7,-1,-1,-1,9,11,-1,13,-1,-1,-1,-1],"loss_changes":[1.1064222E0,4.949115E-1,1.6526376E0,2.1972585E-1,0E0,0E0,0E0,1.1175054E-1,4.94646E-1,0E0,1.7235579E-1,0E0,0E0,0E0,0E0],"parents":[2147483647,0,0,1,1,2,2,3,3,7,7,8,8,10,10],"right_children":[2,4,6,8,-1,-1,-1,10,12,-1,14,-1,-1,-1,-1],"split_conditions":[2.3120691E-1,5.094324E0,4.6733336E0,4.4E1,7.9578854E-4,-6.704141E-4,2.1507256E-4,4.9820633E0,4.528212E0,-2.5038493E-3,5.110434E0,-4.949907E-4,4.186319E-4,8.386132E-5,-2.0343313E-4],"split_indices":[15,14,9,19,0,0,0,10,5,0,10,0,0,0,0],"split_type":[0,0,0,0,0,0,0,0,0,0,0,0,0,0,0],"sum_hessian":[1.84E2,1.59E2,2.5E1,1.47E2,1.2E1,1.2E1,1.3E1,1.22E2,2.5E1,9.5E1,2.7E1,1.5E1,1E1,1.2E1,1.5E1],"tree_param":{"num_deleted":"0","num_feature":"22","num_nodes":"15","size_leaf_vector":"1"}},{"base_weights":[-5.2085705E-4,2.27027E-1,-5.4487202E-2,-4.7058836E-3,4.7619045E-1,-8.346459E-2,6.999998E-2,3.6363635E-2,9.090908E-3,-4.957266E-3,4.5454535E-3,-4.687501E-3,1.1999999E-2],"categories":[],"categories_nodes":[],"categories_segments":[],"categories_sizes":[],"default_left":[0,0,0,0,0,0,0,0,0,0,0,0,0],"id":75,"left_children":[1,3,5,-1,7,9,11,-1,-1,-1,-1,-1,-1],"loss_changes":[2.370116E0,3.0054662E0,5.6858337E-1,0E0,1.4199138E0,3.5627002E-1,8.5762495E-1,0E0,0E0,0E0,0E0,0E0,0E0],"parents":[2147483647,0,0,1,1,2,2,4,4,5,5,6,6],"right_children":[2,4,6,-1,8,10,12,-1,-1,-1,-1,-1,-1],"split_conditions":[1E1,4.7540445E0,4.4E1,-5.623294E-4,5.183099E0,5.406337E0,9.6201E-2,9.029029E-4,2.692699E-4,-2.589693E-3,1.04570376E-4,-8.97503E-5,3.2304515E-4],"split_indices":[19,14,19,0,1,6,15,0,0,0,0,0,0],"split_type":[0,0,0,0,0,0,0,0,0,0,0,0,0],"sum_hessian":[1.91E2,3.6E1,1.55E2,1.6E1,2E1,1.26E2,2.9E1,1E1,1E1,1.16E2,1E1,1.5E1,1.4E1],"tree_param":{"num_deleted":"0","num_feature":"22","num_nodes":"13","size_leaf_vector":"1"}},{"base_weights":[-2.1354191E-2,1.3636363E-2,-3.9011013E-2,-5.2907E-2,9.090908E-3,-7.83217E-2,6.999998E-2,3.1578937E-3,-4.9600014E-3,-4.615386E-3,9.166665E-3],"categories":[],"categories_nodes":[],"categories_segments":[],"categories_sizes":[],"default_left":[0,0,0,0,0,0,0,0,0,0,0],"id":76,"left_children":[1,-1,3,5,-1,7,9,-1,-1,-1,-1],"loss_changes":[1.0076078E0,0E0,5.681119E-1,5.427494E-1,0E0,4.286667E-1,5.687692E-1,0E0,0E0,0E0,0E0],"parents":[2147483647,0,0,2,2,3,3,5,5,6,6],"right_children":[2,-1,4,6,-1,8,10,-1,-1,-1,-1],"split_conditions":[3E0,8.5645885E-4,5.388811E0,4.4E1,9.934901E-5,4.467528E0,8.422259E-2,8.2275765E-5,-1.0170701E-3,-1.3591534E-4,2.3698798E-4],"split_indices":[19,0,11,19,0,8,15,0,0,0,0],"split_type":[0,0,0,0,0,0,0,0,0,0,0],"sum_hessian":[1.91E2,1E1,1.81E2,1.71E2,1E1,1.42E2,2.9E1,1.8E1,1.24E2,1.2E1,1.7E1],"tree_param":{"num_deleted":"0","num_feature":"22","num_nodes":"11","size_leaf_vector":"1"}},{"base_weights":[-4.248707E-2,-7.000002E-2,1.5416664E-1,6.0714274E-3,-8.662423E-2,-4.1666775E-4,1.4615384E-2,-4.9603186E-3,-3.4375023E-2,-4.761906E-3,3.749999E-3],"categories":[],"categories_nodes":[],"categories_segments":[],"categories_sizes":[],"default_left":[0,0,0,0,0,0,0,0,0,0,0],"id":77,"left_children":[1,3,5,-1,7,-1,-1,-1,9,-1,-1],"loss_changes":[1.055023E0,5.5151784E-1,5.411859E-1,0E0,9.980273E-2,0E0,0E0,0E0,2.2016369E-1,0E0,0E0],"parents":[2147483647,0,0,1,1,2,2,4,4,8,8],"right_children":[2,4,6,-1,8,-1,-1,-1,10,-1,-1],"split_conditions":[5.3111353E0,4E0,2.1497774E-1,5.646512E-4,4.4E1,6.695743E-5,2.108311E-4,-1.500107E-3,4.659317E0,-2.6724369E-5,3.6497109E-4],"split_indices":[0,19,15,0,19,0,0,0,4,0,0],"split_type":[0,0,0,0,0,0,0,0,0,0,0],"sum_hessian":[1.92E2,1.69E2,2.3E1,1.3E1,1.56E2,1.1E1,1.2E1,1.25E2,3.1E1,2E1,1.1E1],"tree_param":{"num_deleted":"0","num_feature":"22","num_nodes":"11","size_leaf_vector":"1"}},{"base_weights":[-2.9189212E-2,-7.172416E-2,1.2195119E-1,2.3999978E-2,-9.0909116E-2,-2.1052645E-3,2.521739E-1,-4.666668E-3,9.090908E-3,-4.9541295E-3,-7.692319E-4,2.0416666E-2,3.749999E-3],"categories":[],"categories_nodes":[],"categories_segments":[],"categories_sizes":[],"default_left":[0,0,0,0,0,0,0,0,0,0,0,0,0],"id":78,"left_children":[1,3,5,7,9,-1,11,-1,-1,-1,-1,-1,-1],"loss_changes":[1.1980655E0,2.6846898E-1,8.8653684E-1,4.7990304E-1,7.3168635E-2,0E0,6.057247E-1,0E0,0E0,0E0,0E0,0E0,0E0],"parents":[2147483647,0,0,1,1,2,2,3,3,4,4,6,6],"right_children":[2,4,6,8,10,-1,12,-1,-1,-1,-1,-1,-1],"split_conditions":[5.0939054E0,4.4932666E0,4.653554E0,4.797822E0,2.6173373E2,-4.466064E-5,4.7553034E0,-7.789733E-4,3.5682193E-4,-1.1138399E-3,-4.9832084E-5,2.2365565E-4,7.016084E-4],"split_indices":[1,7,9,9,17,0,9,0,0,0,0,0,0],"split_type":[0,0,0,0,0,0,0,0,0,0,0,0,0],"sum_hessian":[1.84E2,1.44E2,4E1,2.4E1,1.2E2,1.8E1,2.2E1,1.4E1,1E1,1.08E2,1.2E1,1.1E1,1.1E1],"tree_param":{"num_deleted":"0","num_feature":"22","num_nodes":"13","size_leaf_vector":"1"}},{"base_weights":[-3.350256E-2,-4.948455E-3,2.9702947E-2,2.2727272E-2,-2.1978045E-2,1.12499975E-1,-6.911767E-2,-4.615386E-3,1.625E-2,-4.9137943E-3,4.5454535E-3],"categories":[],"categories_nodes":[],"categories_segments":[],"categories_sizes":[],"default_left":[0,0,0,0,0,0,0,0,0,0,0],"id":79,"left_children":[1,-1,3,-1,5,7,9,-1,-1,-1,-1],"loss_changes":[8.1809527E-1,0E0,2.2275743E0,0E0,5.8464694E-1,1.0745192E0,3.2622856E-1,0E0,0E0,0E0,0E0],"parents":[2147483647,0,0,2,2,4,4,5,5,6,6],"right_children":[2,-1,4,-1,6,8,10,-1,-1,-1,-1],"split_conditions":[4.8197308E0,-1.2904693E-3,4.752718E0,3.4847492E-4,4.8252873E0,1.0911273E-1,5.417848E0,-4.701854E-5,7.075594E-4,-5.1665324E-4,9.123085E-5],"split_indices":[14,0,13,0,12,15,6,0,0,0,0],"split_type":[0,0,0,0,0,0,0,0,0,0,0],"sum_hessian":[1.96E2,9.6E1,1E2,1E1,9E1,2.3E1,6.7E1,1.2E1,1.1E1,5.7E1,1E1],"tree_param":{"num_deleted":"0","num_feature":"22","num_nodes":"11","size_leaf_vector":"1"}},{"base_weights":[-2.7692331E-2,-4.9456535E-3,3.55769E-2,1.8461538E-2,-1.19565455E-2,9.090908E-3,-3.78049E-2,-8.253971E-2,5.249999E-3,-1.0837209E-9,-4.9056616E-3],"categories":[],"categories_nodes":[],"categories_segments":[],"categories_sizes":[],"default_left":[0,0,0,0,0,0,0,0,0,0,0],"id":80,"left_children":[1,-1,3,-1,5,-1,7,9,-1,-1,-1],"loss_changes":[8.8220483E-1,0E0,1.6538253E0,0E0,4.6767935E-1,0E0,5.3251123E-1,8.098233E-2,0E0,0E0,0E0],"parents":[2147483647,0,0,2,2,4,4,6,6,7,7],"right_children":[2,-1,4,-1,6,-1,8,10,-1,-1,-1],"split_conditions":[4.8115697E0,-2.213874E-3,4.6931868E0,3.2118795E-4,4.6767898E0,1.1611936E-4,2.641887E2,4.671996E0,9.224413E-5,1.2242551E-4,-6.614161E-4],"split_indices":[14,0,13,0,0,0,17,7,0,0,0],"split_type":[0,0,0,0,0,0,0,0,0,0,0],"sum_hessian":[1.94E2,9.1E1,1.03E2,1.2E1,9.1E1,1E1,8.1E1,6.2E1,1.9E1,1E1,5.2E1],"tree_param":{"num_deleted":"0","num_feature":"22","num_nodes":"11","size_leaf_vector":"1"}},{"base_weights":[-3.247425E-2,-7.2108865E-2,8.958331E-2,-4.958335E-3,4.642855E-2,1.5333332E-2,-8.823552E-3,-4.6428586E-3,8.666666E-3,-4.7368435E-3,4.687499E-3],"categories":[],"categories_nodes":[],"categories_segments":[],"categories_sizes":[],"default_left":[0,0,0,0,0,0,0,0,0,0,0],"id":81,"left_children":[1,3,5,-1,7,-1,9,-1,-1,-1,-1],"loss_changes":[9.449744E-1,4.7608668E-1,1.0281053E0,0E0,5.110238E-1,0E0,3.0850425E-1,0E0,0E0,0E0,0E0],"parents":[2147483647,0,0,1,1,2,2,4,4,6,6],"right_children":[2,4,6,-1,8,-1,10,-1,-1,-1,-1],"split_conditions":[5.0779E0,4.5E1,9E0,-1.1327519E-3,8.422259E-2,5.0963147E-4,2.6173373E2,-1.0468964E-4,2.3872846E-4,-6.0702575E-4,6.758689E-5],"split_indices":[1,19,19,0,15,0,17,0,0,0,0],"split_type":[0,0,0,0,0,0,0,0,0,0,0],"sum_hessian":[1.93E2,1.46E2,4.7E1,1.19E2,2.7E1,1.4E1,3.3E1,1.3E1,1.4E1,1.8E1,1.5E1],"tree_param":{"num_deleted":"0","num_feature":"22","num_nodes":"11","size_leaf_vector":"1"}},{"base_weights":[-2.8804371E-2,1.0333331E-1,-5.419357E-2,-4.545456E-3,1.0249999E-2,-7.6691754E-2,7.826085E-2,3.749999E-3,-9.098363E-2,7.916666E-3,-4.1666775E-4,-1.7647072E-3,-4.952831E-3],"categories":[],"categories_nodes":[],"categories_segments":[],"categories_sizes":[],"default_left":[0,0,0,0,0,0,0,0,0,0,0,0,0],"id":82,"left_children":[1,3,5,-1,-1,7,9,-1,11,-1,-1,-1,-1],"loss_changes":[6.228961E-1,6.110757E-1,4.6789944E-1,0E0,0E0,2.9516244E-1,1.607971E-1,0E0,5.135274E-2,0E0,0E0,0E0,0E0],"parents":[2147483647,0,0,1,1,2,2,5,5,6,6,8,8],"right_children":[2,4,6,-1,-1,8,10,-1,12,-1,-1,-1,-1],"split_conditions":[9E0,4.456155E0,2.624308E2,-2.011538E-5,1.9354814E-4,4.4932666E0,5.1980267E0,2.702903E-4,5E0,1.5944478E-4,2.0809164E-5,-4.564768E-5,-1.6073085E-3],"split_indices":[19,7,17,0,0,7,1,0,3,0,0,0,0],"split_type":[0,0,0,0,0,0,0,0,0,0,0,0,0],"sum_hessian":[1.83E2,2.9E1,1.54E2,1E1,1.9E1,1.32E2,2.2E1,1.1E1,1.21E2,1.1E1,1.1E1,1.6E1,1.05E2],"tree_param":{"num_deleted":"0","num_feature":"22","num_nodes":"13","size_leaf_vector":"1"}},{"base_weights":[-3.9196003E-2,-6.909093E-2,1.0285712E-1,-4.9576284E-3,6.249977E-3,-4.7058836E-3,1.36842085E-2,7.0588225E-3,-6.562503E-2,-4.7727283E-3,-1.0837209E-9],"categories":[],"categories_nodes":[],"categories_segments":[],"categories_sizes":[],"default_left":[0,0,0,0,0,0,0,0,0,0,0],"id":83,"left_children":[1,3,5,-1,7,-1,-1,-1,9,-1,-1],"loss_changes":[8.5219336E-1,3.7432337E-1,1.2034605E0,0E0,4.7476107E-1,0E0,0E0,0E0,6.264205E-2,0E0,0E0],"parents":[2147483647,0,0,1,1,2,2,4,4,8,8],"right_children":[2,4,6,-1,8,-1,-1,-1,10,-1,-1],"split_conditions":[4.4E1,5.072442E0,8.422259E-2,-1.6767125E-3,5.1764627E0,-8.897545E-5,1.8490547E-4,2.595255E-4,5.417848E0,-4.7826783E-5,2.364873E-5],"split_indices":[19,1,15,0,1,0,0,0,0,0,0],"split_type":[0,0,0,0,0,0,0,0,0,0,0],"sum_hessian":[1.98E2,1.64E2,3.4E1,1.17E2,4.7E1,1.6E1,1.8E1,1.6E1,3.1E1,2.1E1,1E1],"tree_param":{"num_deleted":"0","num_feature":"22","num_nodes":"11","size_leaf_vector":"1"}},{"base_weights":[-1.2755126E-2,-8.817206E-2,5.480767E-2,-4.9397605E-3,-1.0837209E-9,3.8095236E-1,-2.7380977E-2,9.090908E-3,2.7272725E-2,-6.666669E-2,8.636361E-2,-4.9056616E-3,4.5454535E-3,9.090908E-3,-4.1666775E-4],"categories":[],"categories_nodes":[],"categories_segments":[],"categories_sizes":[],"default_left":[0,0,0,0,0,0,0,0,0,0,0,0,0,0,0],"id":84,"left_children":[1,3,5,-1,-1,7,9,-1,-1,11,13,-1,-1,-1,-1],"loss_changes":[1.0035268E0,8.7109685E-2,2.7981915E0,0E0,0E0,5.8874464E-1,3.8111472E-1,0E0,0E0,3.210978E-1,2.003788E-1,0E0,0E0,0E0,0E0],"parents":[2147483647,0,0,1,1,2,2,5,5,6,6,9,9,10,10],"right_children":[2,4,6,-1,-1,8,10,-1,-1,12,14,-1,-1,-1,-1],"split_conditions":[4.8115697E0,5.166567E0,4.7302523E0,-2.235338E-3,-1.9913493E-4,4.676191E0,5.292584E0,6.3009255E-5,2.873277E-4,5.0924673E0,5.380394E0,-9.801413E-4,1.56579E-4,1.7549512E-4,1.856803E-5],"split_indices":[14,0,12,0,0,1,4,0,0,14,0,0,0,0,0],"split_type":[0,0,0,0,0,0,0,0,0,0,0,0,0,0,0],"sum_hessian":[1.95E2,9.2E1,1.03E2,8.2E1,1E1,2E1,8.3E1,1E1,1E1,6.2E1,2.1E1,5.2E1,1E1,1E1,1.1E1],"tree_param":{"num_deleted":"0","num_feature":"22","num_nodes":"15","size_leaf_vector":"1"}},{"base_weights":[1.04395365E-2,2.0606059E-1,-3.266669E-2,2.1764705E-2,-1.7647072E-3,-7.438019E-2,1.3666664E-1,-4.9545467E-3,7.916666E-3,-4.615386E-3,1.4722221E-2],"categories":[],"categories_nodes":[],"categories_segments":[],"categories_sizes":[],"default_left":[0,0,0,0,0,0,0,0,0,0,0],"id":85,"left_children":[1,3,5,-1,-1,7,9,-1,-1,-1,-1],"loss_changes":[1.5414437E0,1.8411409E0,1.0696881E0,0E0,0E0,7.115028E-1,1.1109915E0,0E0,0E0,0E0,0E0],"parents":[2147483647,0,0,1,1,2,2,5,5,6,6],"right_children":[2,4,6,-1,-1,8,10,-1,-1,-1,-1],"split_conditions":[9E0,1.00157295E2,4.4E1,3.4751632E-4,-6.6852767E-6,2.630307E2,8.422259E-2,-2.0740747E-3,6.1006536E-5,-2.3138775E-4,1.8115038E-4],"split_indices":[19,16,19,0,0,17,15,0,0,0,0],"split_type":[0,0,0,0,0,0,0,0,0,0,0],"sum_hessian":[1.81E2,3.2E1,1.49E2,1.6E1,1.6E1,1.2E2,2.9E1,1.09E2,1.1E1,1.2E1,1.7E1],"tree_param":{"num_deleted":"0","num_feature":"22","num_nodes":"11","size_leaf_vector":"1"}},{"base_weights":[-1.2755126E-2,1.5333332E-2,-3.9011013E-2,-5.2907E-2,9.090908E-3,-8.467156E-2,6.944442E-2,-4.9606315E-3,4.5454535E-3,-5.416669E-2,1.4615384E-2,-4.6428586E-3,-1.0837209E-9],"categories":[],"categories_nodes":[],"categories_segments":[],"categories_sizes":[],"default_left":[0,0,0,0,0,0,0,0,0,0,0,0,0],"id":86,"left_children":[1,-1,3,5,-1,7,9,-1,-1,11,-1,-1,-1],"loss_changes":[1.6557568E0,0E0,5.681119E-1,6.743474E-1,0E0,3.5879797E-1,1.0075748E0,0E0,0E0,5.0297618E-2,0E0,0E0,0E0],"parents":[2147483647,0,0,2,2,3,3,5,5,6,6,9,9],"right_children":[2,-1,4,6,-1,8,10,-1,-1,12,-1,-1,-1],"split_conditions":[4E0,4.0136554E-4,2.6974237E-1,4.4E1,1.4686104E-4,5.388811E0,4.6656666E0,-1.200911E-3,6.240367E-5,4.605276E0,1.3080119E-4,-3.672937E-4,2.5103084E-4],"split_indices":[19,0,15,19,0,11,7,0,0,0,0,0,0],"split_type":[0,0,0,0,0,0,0,0,0,0,0,0,0],"sum_hessian":[1.95E2,1.4E1,1.81E2,1.71E2,1E1,1.36E2,3.5E1,1.26E2,1E1,2.3E1,1.2E1,1.3E1,1E1],"tree_param":{"num_deleted":"0","num_feature":"22","num_nodes":"13","size_leaf_vector":"1"}},{"base_weights":[-2.2959208E-2,-8.877553E-2,4.242422E-2,-4.943183E-3,-1.0837209E-9,2.3666665E-1,-4.1428596E-2,2.03125E-2,1.999999E-3,-8.1034504E-2,6.9230758E-3,-1.0837209E-9,-4.8958347E-3],"categories":[],"categories_nodes":[],"categories_segments":[],"categories_sizes":[],"default_left":[0,0,0,0,0,0,0,0,0,0,0,0,0],"id":87,"left_children":[1,3,5,-1,-1,7,9,-1,-1,11,-1,-1,-1],"loss_changes":[8.4721243E-1,8.776671E-2,1.6222942E0,0E0,0E0,9.842918E-1,5.0995E-1,0E0,0E0,7.934624E-2,0E0,0E0,0E0],"parents":[2147483647,0,0,1,1,2,2,5,5,6,6,9,9],"right_children":[2,4,6,-1,-1,8,10,-1,-1,12,-1,-1,-1],"split_conditions":[4.8197308E0,5.1735044E0,4.88572E0,-1.278635E-3,-1.7440847E-4,5.1677065E0,5.289762E0,4.4551832E-4,9.5915755E-5,4.715935E0,7.379293E-5,1.0093918E-4,-1.2818672E-3],"split_indices":[14,0,13,0,0,0,4,0,0,0,0,0,0],"split_type":[0,0,0,0,0,0,0,0,0,0,0,0,0],"sum_hessian":[1.95E2,9.7E1,9.8E1,8.7E1,1E1,2.9E1,6.9E1,1.5E1,1.4E1,5.7E1,1.2E1,1E1,4.7E1],"tree_param":{"num_deleted":"0","num_feature":"22","num_nodes":"13","size_leaf_vector":"1"}},{"base_weights":[-1.8817227E-2,1.3666664E-1,-4.8407666E-2,-4.1666775E-4,1.105263E-2,-7.539685E-2,5.9374977E-2,-4.9545467E-3,4.1176463E-3,-4.6428586E-3,8.421051E-3],"categories":[],"categories_nodes":[],"categories_segments":[],"categories_sizes":[],"default_left":[0,0,0,0,0,0,0,0,0,0,0],"id":88,"left_children":[1,3,5,-1,-1,7,9,-1,-1,-1,-1],"loss_changes":[8.623712E-1,3.6892104E-1,4.6118423E-1,0E0,0E0,4.791153E-1,5.468492E-1,0E0,0E0,0E0,0E0],"parents":[2147483647,0,0,1,1,2,2,5,5,6,6],"right_children":[2,4,6,-1,-1,8,10,-1,-1,-1,-1],"split_conditions":[9E0,4.9311113E0,4.4E1,-9.441399E-7,4.7068545E-5,5.366021E0,8.422259E-2,-2.1616707E-3,6.434679E-5,-2.6347648E-4,1.4420981E-4],"split_indices":[19,10,19,0,0,6,15,0,0,0,0],"split_type":[0,0,0,0,0,0,0,0,0,0,0],"sum_hessian":[1.85E2,2.9E1,1.56E2,1.1E1,1.8E1,1.25E2,3.1E1,1.09E2,1.6E1,1.3E1,1.8E1],"tree_param":{"num_deleted":"0","num_feature":"22","num_nodes":"11","size_leaf_vector":"1"}},{"base_weights":[-4.020124E-3,1.2444442E-1,-4.1290347E-2,-4.666668E-3,2.2580643E-1,-8.264465E-2,1.0285712E-1,3.749999E-3,1.5249999E-2,-4.954956E-3,4.5454535E-3,-4.6428586E-3,2.2272725E-1,-1.0837209E-9,2.0416666E-2],"categories":[],"categories_nodes":[],"categories_segments":[],"categories_sizes":[],"default_left":[0,0,0,0,0,0,0,0,0,0,0,0,0,0,0],"id":89,"left_children":[1,3,5,-1,7,9,11,-1,-1,-1,-1,-1,13,-1,-1],"loss_changes":[9.5793086E-1,1.0144229E0,9.324739E-1,0E0,3.473549E-1,3.5455287E-1,8.417922E-1,0E0,0E0,0E0,0E0,0E0,9.0946984E-1,0E0,0E0],"parents":[2147483647,0,0,1,1,2,2,4,4,5,5,6,6,12,12],"right_children":[2,4,6,-1,8,10,12,-1,-1,-1,-1,-1,14,-1,-1],"split_conditions":[1.2E1,4.6155834E0,4.4E1,-1.9748094E-3,2.0543124E-1,5.417848E0,4.8115697E0,5.458926E-4,8.473394E-5,-1.6499117E-3,6.9754125E-5,-1.6008288E-3,8.348281E-2,-2.776874E-5,2.1855351E-4],"split_indices":[19,9,19,0,15,7,14,0,0,0,0,0,15,0,0],"split_type":[0,0,0,0,0,0,0,0,0,0,0,0,0,0,0],"sum_hessian":[1.98E2,4.4E1,1.54E2,1.4E1,3E1,1.2E2,3.4E1,1.1E1,1.9E1,1.1E2,1E1,1.3E1,2.1E1,1E1,1.1E1],"tree_param":{"num_deleted":"0","num_feature":"22","num_nodes":"15","size_leaf_vector":"1"}},{"base_weights":[-1.4361726E-2,-8.764047E-2,5.0999977E-2,-1.0837209E-9,-4.93671E-3,1.8461538E-2,3.4090674E-3,-4.2253546E-2,9.166665E-3,9.090908E-3,-8.1967235E-2,-4.901962E-3,-1.0837209E-9],"categories":[],"categories_nodes":[],"categories_segments":[],"categories_sizes":[],"default_left":[0,0,0,0,0,0,0,0,0,0,0,0,0],"id":90,"left_children":[1,3,5,-1,-1,-1,7,9,-1,-1,11,-1,-1],"loss_changes":[9.049189E-1,8.65311E-2,1.5132304E0,0E0,0E0,0E0,7.3073786E-1,6.467119E-1,0E0,0E0,8.0359995E-2,0E0,0E0],"parents":[2147483647,0,0,1,1,2,2,6,6,7,7,10,10],"right_children":[2,4,6,-1,-1,-1,8,10,-1,-1,12,-1,-1],"split_conditions":[4.8115697E0,4.329313E0,4.840478E0,-7.7177065E-6,-2.6294072E-3,2.0406004E-4,2.641887E2,4.6767898E0,1.9536947E-4,1.067829E-4,5.0884933E0,-1.9319785E-4,1.7236325E-6],"split_indices":[14,8,14,0,0,0,17,0,0,0,14,0,0],"split_type":[0,0,0,0,0,0,0,0,0,0,0,0,0],"sum_hessian":[1.87E2,8.8E1,9.9E1,1E1,7.8E1,1.2E1,8.7E1,7E1,1.7E1,1E1,6E1,5E1,1E1],"tree_param":{"num_deleted":"0","num_feature":"22","num_nodes":"13","size_leaf_vector":"1"}},{"base_weights":[-2.1354191E-2,-8.791211E-2,3.823527E-2,-4.9382728E-3,-1.0837209E-9,1.9210523E-1,-5.2307718E-2,8.214284E-2,2.2727272E-2,-8.000002E-2,4.5454535E-3,1.8181818E-2,-4.7222236E-3,-1.0837209E-9,-4.88889E-3],"categories":[],"categories_nodes":[],"categories_segments":[],"categories_sizes":[],"default_left":[0,0,0,0,0,0,0,0,0,0,0,0,0,0,0],"id":91,"left_children":[1,3,5,-1,-1,7,9,11,-1,13,-1,-1,-1,-1,-1],"loss_changes":[7.648623E-1,8.682668E-2,1.4310969E0,0E0,0E0,1.0592873E0,2.6506293E-1,1.4261724E0,0E0,7.8222245E-2,0E0,0E0,0E0,0E0,0E0],"parents":[2147483647,0,0,1,1,2,2,5,5,6,6,7,7,9,9],"right_children":[2,4,6,-1,-1,8,10,12,-1,14,-1,-1,-1,-1,-1],"split_conditions":[4.8160453E0,5.1735044E0,4.892738E0,-2.5332046E-3,-1.3745589E-4,4.8401985E0,5.417848E0,4.6931868E0,5.8767304E-4,4.709027E0,5.649805E-5,2.1177052E-4,-3.9434446E-5,9.329315E-5,-1.0691048E-3],"split_indices":[14,0,13,0,0,13,7,13,0,0,0,0,0,0,0],"split_type":[0,0,0,0,0,0,0,0,0,0,0,0,0,0,0],"sum_hessian":[1.91E2,9E1,1.01E2,8E1,1E1,3.7E1,6.4E1,2.7E1,1E1,5.4E1,1E1,1E1,1.7E1,1E1,4.4E1],"tree_param":{"num_deleted":"0","num_feature":"22","num_nodes":"15","size_leaf_vector":"1"}},{"base_weights":[-1.570683E-2,-4.9056627E-2,1.4545453E-1,-7.132869E-2,7.0588225E-3,-4.615386E-3,2.8571427E-1,-8.421055E-2,4.5454535E-3,1.8181818E-2,9.090908E-3,-4.956523E-3,5.2631466E-4],"categories":[],"categories_nodes":[],"categories_segments":[],"categories_sizes":[],"default_left":[0,0,0,0,0,0,0,0,0,0,0,0,0],"id":92,"left_children":[1,3,5,7,-1,-1,9,11,-1,-1,-1,-1,-1],"loss_changes":[1.033703E0,6.8373454E-1,1.1268731E0,3.0651456E-1,0E0,0E0,1.0389602E-1,1.8903428E-1,0E0,0E0,0E0,0E0,0E0],"parents":[2147483647,0,0,1,1,2,2,3,3,6,6,7,7],"right_children":[2,4,6,8,-1,-1,10,12,-1,-1,-1,-1,-1],"split_conditions":[2.0543124E-1,1.2E1,4.6155834E0,5.417848E0,3.3182127E-4,-1.5430904E-3,5.282976E0,4.4E1,5.368471E-5,1.5273332E-4,5.071878E-5,-1.0715723E-3,1.3275101E-5],"split_indices":[15,20,9,7,0,0,1,19,0,0,0,0,0],"split_type":[0,0,0,0,0,0,0,0,0,0,0,0,0],"sum_hessian":[1.9E2,1.58E2,3.2E1,1.42E2,1.6E1,1.2E1,2E1,1.32E2,1E1,1E1,1E1,1.14E2,1.8E1],"tree_param":{"num_deleted":"0","num_feature":"22","num_nodes":"13","size_leaf_vector":"1"}},{"base_weights":[-4.419892E-2,8.484846E-2,-7.248324E-2,-4.615386E-3,1.9047616E-1,-8.489211E-2,4.5454535E-3,1.8181818E-2,-1.0837209E-9,1.1764695E-3,-4.959351E-3],"categories":[],"categories_nodes":[],"categories_segments":[],"categories_sizes":[],"default_left":[0,0,0,0,0,0,0,0,0,0,0],"id":93,"left_children":[1,3,5,-1,7,9,-1,-1,-1,-1,-1],"loss_changes":[6.6680336E-1,6.350982E-1,3.0981696E-1,0E0,6.9264066E-1,2.177664E-1,0E0,0E0,0E0,0E0,0E0],"parents":[2147483647,0,0,1,1,2,2,4,4,5,5],"right_children":[2,4,6,-1,8,10,-1,-1,-1,-1,-1],"split_conditions":[9E0,4.5928097E0,5.0905476E0,-7.846362E-6,5.2232985E0,4E0,9.4051335E-5,5.54099E-4,9.699579E-5,1.7464141E-5,-6.6303735E-4],"split_indices":[19,12,14,0,0,3,0,0,0,0,0],"split_type":[0,0,0,0,0,0,0,0,0,0,0],"sum_hessian":[1.8E2,3.2E1,1.48E2,1.2E1,2E1,1.38E2,1E1,1E1,1E1,1.6E1,1.22E2],"tree_param":{"num_deleted":"0","num_feature":"22","num_nodes":"11","size_leaf_vector":"1"}},{"base_weights":[-1.570683E-2,-6.1940324E-2,9.1379285E-2,-8.306454E-2,9.090908E-3,2.3703702E-1,-3.4375023E-2,-4.954956E-3,2.499999E-3,-1.0837209E-9,1.8823529E-2,-4.7727283E-3,4.5454535E-3],"categories":[],"categories_nodes":[],"categories_segments":[],"categories_sizes":[],"default_left":[0,0,0,0,0,0,0,0,0,0,0,0,0],"id":94,"left_children":[1,3,5,7,-1,9,11,-1,-1,-1,-1,-1,-1],"loss_changes":[9.5129436E-1,7.0509636E-1,1.0705392E0,2.6952565E-1,0E0,8.9237475E-1,2.5355116E-1,0E0,0E0,0E0,0E0,0E0,0E0],"parents":[2147483647,0,0,1,1,2,2,3,3,5,5,6,6],"right_children":[2,4,6,8,-1,10,12,-1,-1,-1,-1,-1,-1],"split_conditions":[4.9401E0,4.7E1,1.02855675E2,2.5362682E-1,2.249503E-4,1.1392931E-1,5.192444E0,-1.0406284E-3,1.1582375E-4,-4.799384E-6,2.4077634E-4,-2.0677762E-3,6.9227215E-5],"split_indices":[14,19,16,15,0,15,0,0,0,0,0,0,0],"split_type":[0,0,0,0,0,0,0,0,0,0,0,0,0],"sum_hessian":[1.9E2,1.33E2,5.7E1,1.23E2,1E1,2.6E1,3.1E1,1.1E2,1.3E1,1E1,1.6E1,2.1E1,1E1],"tree_param":{"num_deleted":"0","num_feature":"22","num_nodes":"13","size_leaf_vector":"1"}},{"base_weights":[-3.0687854E-2,-4.9162034E-2,1.3636363E-2,6.3888878E-3,-6.851854E-2,-8.571431E-2,4.687499E-3,4.5454535E-3,-4.963505E-3],"categories":[],"categories_nodes":[],"categories_segments":[],"categories_sizes":[],"default_left":[0,0,0,0,0,0,0,0,0],"id":95,"left_children":[1,3,-1,-1,5,7,-1,-1,-1],"loss_changes":[1.0728182E0,6.2181866E-1,0E0,0E0,4.600696E-1,3.6098194E-1,0E0,0E0,0E0],"parents":[2147483647,0,0,1,1,4,4,5,5],"right_children":[2,4,-1,-1,6,8,-1,-1,-1],"split_conditions":[5.0905476E0,2E0,5.1332224E-4,6.3471765E-5,5.361064E0,4.479156E0,6.877422E-5,1.7884966E-4,-6.014448E-4],"split_indices":[14,20,0,0,6,12,0,0,0],"split_type":[0,0,0,0,0,0,0,0,0],"sum_hessian":[1.88E2,1.78E2,1E1,1.7E1,1.61E2,1.46E2,1.5E1,1E1,1.36E2],"tree_param":{"num_deleted":"0","num_feature":"22","num_nodes":"9","size_leaf_vector":"1"}},{"base_weights":[5.499976E-3,1.5744679E-1,-4.0909115E-2,-4.687501E-3,2.78125E-1,-8.189657E-2,8.205126E-2,2.7272725E-2,1.3181816E-1,-4.952831E-3,4.5454535E-3,-2.2222245E-2,1.4615384E-2,-4.545456E-3,1.625E-2,3.749999E-3,-4.687501E-3],"categories":[],"categories_nodes":[],"categories_segments":[],"categories_sizes":[],"default_left":[0,0,0,0,0,0,0,0,0,0,0,0,0,0,0,0,0],"id":96,"left_children":[1,3,5,-1,7,9,11,-1,13,-1,-1,15,-1,-1,-1,-1,-1],"loss_changes":[1.4167837E0,1.4508309E0,7.8285414E-1,0E0,1.1796877E0,3.5298616E-1,8.615384E-1,0E0,9.761363E-1,0E0,0E0,1.9479166E-1,0E0,0E0,0E0,0E0,0E0],"parents":[2147483647,0,0,1,1,2,2,4,4,5,5,6,6,8,8,11,11],"right_children":[2,4,6,-1,8,10,12,-1,14,-1,-1,16,-1,-1,-1,-1,-1],"split_conditions":[1.3E1,4.747269E0,4.3E1,-3.2477867E-4,5.1352324E0,5.417848E0,4.838464E0,4.9155223E-4,5.292584E0,-2.0169073E-3,6.233692E-5,4.4932666E0,6.94561E-5,-2.7406217E-5,1.1927603E-4,2.3422239E-4,-3.0684478E-5],"split_indices":[19,14,19,0,1,7,8,0,4,0,0,7,0,0,0,0,0],"split_type":[0,0,0,0,0,0,0,0,0,0,0,0,0,0,0,0,0],"sum_hessian":[1.99E2,4.6E1,1.53E2,1.5E1,3.1E1,1.15E2,3.8E1,1E1,2.1E1,1.05E2,1E1,2.6E1,1.2E1,1E1,1.1E1,1.1E1,1.5E1],"tree_param":{"num_deleted":"0","num_feature":"22","num_nodes":"17","size_leaf_vector":"1"}},{"base_weights":[-7.653085E-3,-3.728816E-2,1.2749999E-2,-7.050362E-2,8.205126E-2,9.090908E-3,-9.1472894E-2,-2.2222245E-2,1.4615384E-2,-1.0837209E-9,-4.9579847E-3,3.076922E-3,-4.666668E-3],"categories":[],"categories_nodes":[],"categories_segments":[],"categories_sizes":[],"default_left":[0,0,0,0,0,0,0,0,0,0,0,0,0],"id":97,"left_children":[1,3,-1,5,7,-1,9,11,-1,-1,-1,-1,-1],"loss_changes":[1.535122E0,7.073976E-1,0E0,7.52081E-1,8.615384E-1,0E0,9.07042E-2,1.665641E-1,0E0,0E0,0E0,0E0,0E0],"parents":[2147483647,0,0,1,1,3,3,4,4,6,6,7,7],"right_children":[2,4,-1,6,8,-1,10,12,-1,-1,-1,-1,-1],"split_conditions":[5.292584E0,4.3E1,6.117821E-5,3E0,4.838464E0,4.6050773E-4,4.528212E0,4.4932666E0,6.597519E-5,7.8189354E-5,-1.1783533E-3,2.1687744E-4,-2.7954582E-5],"split_indices":[4,19,0,19,8,0,7,7,0,0,0,0,0],"split_type":[0,0,0,0,0,0,0,0,0,0,0,0,0],"sum_hessian":[1.95E2,1.76E2,1.9E1,1.38E2,3.8E1,1E1,1.28E2,2.6E1,1.2E1,1E1,1.18E2,1.2E1,1.4E1],"tree_param":{"num_deleted":"0","num_feature":"22","num_nodes":"13","size_leaf_vector":"1"}},{"base_weights":[-9.523833E-3,-3.620692E-2,1.4062499E-2,-6.577183E-2,1.3461536E-1,-9.1056935E-2,5.1851828E-2,1.0937499E-2,-1.0837209E-9,-1.0837209E-9,-4.955753E-3,1.2083332E-2,-4.687501E-3],"categories":[],"categories_nodes":[],"categories_segments":[],"categories_sizes":[],"default_left":[0,0,0,0,0,0,0,0,0,0,0,0,0],"id":98,"left_children":[1,3,-1,5,7,9,11,-1,-1,-1,-1,-1,-1],"loss_changes":[1.4765856E0,8.8761413E-1,0E0,4.4786614E-1,2.944711E-1,9.025121E-2,7.688658E-1,0E0,0E0,0E0,0E0,0E0,0E0],"parents":[2147483647,0,0,1,1,3,3,4,4,5,5,6,6],"right_children":[2,4,-1,6,8,10,12,-1,-1,-1,-1,-1,-1],"split_conditions":[2.6044872E-1,2.624308E2,8.1157654E-5,4.4E1,5.1980267E0,4.3842793E0,4.9E1,2.341412E-4,4.3134653E-5,7.083889E-5,-8.351261E-4,1.36795E-4,-2.3503306E-5],"split_indices":[15,17,0,19,1,8,19,0,0,0,0,0,0],"split_type":[0,0,0,0,0,0,0,0,0,0,0,0,0],"sum_hessian":[1.88E2,1.73E2,1.5E1,1.48E2,2.5E1,1.22E2,2.6E1,1.5E1,1E1,1E1,1.12E2,1.1E1,1.5E1],"tree_param":{"num_deleted":"0","num_feature":"22","num_nodes":"13","size_leaf_vector":"1"}},{"base_weights":[8.7628625E-3,1.9210523E-1,-3.5668813E-2,-4.6428586E-3,3.4399998E-1,-5.704228E-2,7.8124986E-3,2.8666666E-2,-1.0837209E-9,-4.9541295E-3,7.9411745E-2,-4.7058836E-3,1.1944443E-2],"categories":[],"categories_nodes":[],"categories_segments":[],"categories_sizes":[],"default_left":[0,0,0,0,0,0,0,0,0,0,0,0,0],"id":99,"left_children":[1,3,5,-1,7,9,-1,-1,-1,-1,11,-1,-1],"loss_changes":[1.5872167E0,1.6767461E0,6.5292203E-1,0E0,1.9722662E0,8.224612E-1,0E0,0E0,0E0,0E0,9.633987E-1,0E0,0E0],"parents":[2147483647,0,0,1,1,2,2,4,4,5,5,10,10],"right_children":[2,4,6,-1,8,10,-1,-1,-1,-1,12,-1,-1],"split_conditions":[1E1,4.5293007E0,5.361064E0,-2.7148734E-4,4.856539E0,4.4E1,5.0148963E-5,9.9635115E-5,4.2594897E-4,-2.0981245E-3,8.422259E-2,-3.488303E-5,1.7259594E-4],"split_indices":[19,13,6,0,9,19,0,0,0,0,15,0,0],"split_type":[0,0,0,0,0,0,0,0,0,0,0,0,0],"sum_hessian":[1.93E2,3.7E1,1.56E2,1.3E1,2.4E1,1.41E2,1.5E1,1.4E1,1E1,1.08E2,3.3E1,1.6E1,1.7E1],"tree_param":{"num_deleted":"0","num_feature":"22","num_nodes":"13","size_leaf_vector":"1"}},{"base_weights":[1.1052608E-2,1.9374998E-1,-5.0349675E-2,-4.666668E-3,3.1470585E-1,-7.520002E-2,5.7894727E-3,4.4583333E-1,-1.0837209E-9,3.749999E-3,-9.03509E-2,7.916666E-3,3.384615E-2,-4.9489806E-3,-1.7647072E-3],"categories":[],"categories_nodes":[],"categories_segments":[],"categories_sizes":[],"default_left":[0,0,0,0,0,0,0,0,0,0,0,0,0,0,0],"id":100,"left_children":[1,3,5,-1,7,9,-1,11,-1,-1,13,-1,-1,-1,-1],"loss_changes":[2.141182E0,1.6961446E0,5.990994E-1,0E0,1.4030638E0,2.9123402E-1,0E0,1.4873395E0,0E0,0E0,5.0664485E-2,0E0,0E0,0E0,0E0],"parents":[2147483647,0,0,1,1,2,2,4,4,5,5,7,7,10,10],"right_children":[2,4,6,-1,8,10,-1,12,-1,-1,14,-1,-1,-1,-1],"split_conditions":[1.4E1,2.3628131E2,2.624308E2,-3.03352E-4,4.856539E0,4.4932666E0,5.5460878E-5,4.6767898E0,4.0465817E-4,2.0260332E-4,4.5E1,1.265001E-4,1.0251998E-4,-2.8998216E-3,-1.1062642E-6],"split_indices":[19,17,17,0,9,7,0,9,0,0,19,0,0,0,0],"split_type":[0,0,0,0,0,0,0,0,0,0,0,0,0,0,0],"sum_hessian":[1.89E2,4.7E1,1.42E2,1.4E1,3.3E1,1.24E2,1.8E1,2.3E1,1E1,1.1E1,1.13E2,1.1E1,1.2E1,9.7E1,1.6E1],"tree_param":{"num_deleted":"0","num_feature":"22","num_nodes":"15","size_leaf_vector":"1"}},{"base_weights":[-8.06454E-3,-8.854169E-2,7.692305E-2,-4.9418616E-3,-1.0837209E-9,2.6153846E-2,2.531622E-3,1.3636363E-2,-4.0579733E-2,-4.909092E-3,8.666666E-3],"categories":[],"categories_nodes":[],"categories_segments":[],"categories_sizes":[],"default_left":[0,0,0,0,0,0,0,0,0,0,0],"id":101,"left_children":[1,3,5,-1,-1,-1,7,-1,9,-1,-1],"loss_changes":[1.2789688E0,8.7512195E-2,3.018968E0,0E0,0E0,0E0,9.3129873E-1,0E0,8.672253E-1,0E0,0E0],"parents":[2147483647,0,0,1,1,2,2,6,6,8,8],"right_children":[2,4,6,-1,-1,-1,8,-1,10,-1,-1],"split_conditions":[4.8197308E0,2.4180143E-1,4.8515654E0,-2.3108625E-3,3.6039266E-5,1.8598793E-4,4.671996E0,1.5516997E-4,5.361064E0,-1.103521E-4,4.4631957E-5],"split_indices":[14,15,14,0,0,0,0,0,6,0,0],"split_type":[0,0,0,0,0,0,0,0,0,0,0],"sum_hessian":[1.85E2,9.5E1,9E1,8.5E1,1E1,1.2E1,7.8E1,1E1,6.8E1,5.4E1,1.4E1],"tree_param":{"num_deleted":"0","num_feature":"22","num_nodes":"11","size_leaf_vector":"1"}},{"base_weights":[-2.3717032E-8,-2.5988724E-2,1.5333332E-2,1.6296294E-1,-5.9602674E-2,-4.7058836E-3,2.7272725E-2,-8.359377E-2,7.083331E-2,-4.000002E-2,-4.9468097E-3,7.916666E-3,-7.692319E-4,-4.78261E-3,3.076922E-3],"categories":[],"categories_nodes":[],"categories_segments":[],"categories_sizes":[],"default_left":[0,0,0,0,0,0,0,0,0,0,0,0,0,0,0],"id":102,"left_children":[1,3,-1,5,7,-1,-1,9,11,13,-1,-1,-1,-1,-1],"loss_changes":[1.5302145E0,1.1339129E0,0E0,2.7062783E0,4.7844607E-1,0E0,0E0,8.165324E-2,1.8349361E-1,2.0366557E-1,0E0,0E0,0E0,0E0,0E0],"parents":[2147483647,0,0,1,1,3,3,4,4,7,7,8,8,9,9],"right_children":[2,4,-1,6,8,-1,-1,10,12,14,-1,-1,-1,-1,-1],"split_conditions":[2.6044872E-1,4.5247364E0,6.787775E-5,4.747269E0,2.624308E2,-2.0546924E-4,2.5044678E-4,6E0,5.1764627E0,1.206686E-1,-8.630181E-4,3.8047307E-4,-1.8065042E-5,-2.4348043E-4,1.336813E-4],"split_indices":[15,7,0,14,17,0,0,3,1,15,0,0,0,0,0],"split_type":[0,0,0,0,0,0,0,0,0,0,0,0,0,0,0],"sum_hessian":[1.9E2,1.76E2,1.4E1,2.6E1,1.5E2,1.6E1,1E1,1.27E2,2.3E1,3.4E1,9.3E1,1.1E1,1.2E1,2.2E1,1.2E1],"tree_param":{"num_deleted":"0","num_feature":"22","num_nodes":"15","size_leaf_vector":"1"}},{"base_weights":[1.7553167E-2,-7.5294144E-2,9.326921E-2,-4.9333344E-3,4.5454535E-3,2.3928571E-2,3.296701E-2,1.8461538E-2,-2.2784833E-2,-8.2812525E-2,1.0937499E-2,-1.0837209E-9,-4.9074087E-3],"categories":[],"categories_nodes":[],"categories_segments":[],"categories_sizes":[],"default_left":[0,0,0,0,0,0,0,0,0,0,0,0,0],"id":103,"left_children":[1,3,5,-1,-1,-1,7,-1,9,11,-1,-1,-1],"loss_changes":[1.3286684E0,3.3916005E-1,2.4006183E0,0E0,0E0,0E0,1.7144194E0,0E0,1.1635185E0,8.127892E-2,0E0,0E0,0E0],"parents":[2147483647,0,0,1,1,2,2,6,6,8,8,9,9],"right_children":[2,4,6,-1,-1,-1,8,-1,10,12,-1,-1,-1],"split_conditions":[4.8115697E0,4.977086E0,4.6931868E0,-2.2232772E-3,5.3222175E-5,2.1979806E-4,4.691366E0,1.2925387E-4,5.3456545E0,4.709027E0,7.8000994E-5,3.771161E-4,-6.044678E-4],"split_indices":[14,10,13,0,0,0,4,0,6,7,0,0,0],"split_type":[0,0,0,0,0,0,0,0,0,0,0,0,0],"sum_hessian":[1.87E2,8.4E1,1.03E2,7.4E1,1E1,1.3E1,9E1,1.2E1,7.8E1,6.3E1,1.5E1,1E1,5.3E1],"tree_param":{"num_deleted":"0","num_feature":"22","num_nodes":"13","size_leaf_vector":"1"}},{"base_weights":[-1.3440884E-2,-3.5838176E-2,1.3214285E-2,-7.539685E-2,6.874998E-2,3.749999E-3,-9.0434805E-2,-4.761906E-3,1.892857E-1,-4.9523823E-3,-1.0837209E-9,2.0357143E-2,-1.3333345E-3],"categories":[],"categories_nodes":[],"categories_segments":[],"categories_sizes":[],"default_left":[0,0,0,0,0,0,0,0,0,0,0,0,0],"id":104,"left_children":[1,3,-1,5,7,-1,9,-1,11,-1,-1,-1,-1],"loss_changes":[1.1664516E0,7.209483E-1,0E0,2.9175192E-1,9.668155E-1,0E0,8.957344E-2,0E0,1.3281668E0,0E0,0E0,0E0,0E0],"parents":[2147483647,0,0,1,1,3,3,4,4,6,6,8,8],"right_children":[2,4,-1,6,8,-1,10,-1,12,-1,-1,-1,-1],"split_conditions":[5.3727517E0,1E1,8.970258E-5,4.4467344E0,4.8115697E0,8.942126E-5,5.292584E0,-3.004613E-3,5.1521063E0,-4.447341E-4,7.616041E-5,3.3349032E-4,6.079669E-5],"split_indices":[11,20,0,7,14,0,0,0,9,0,0,0,0],"split_type":[0,0,0,0,0,0,0,0,0,0,0,0,0],"sum_hessian":[1.85E2,1.72E2,1.3E1,1.25E2,4.7E1,1.1E1,1.14E2,2E1,2.7E1,1.04E2,1E1,1.3E1,1.4E1],"tree_param":{"num_deleted":"0","num_feature":"22","num_nodes":"13","size_leaf_vector":"1"}},{"base_weights":[5.262921E-4,1.4693876E-1,-5.0000023E-2,5.6410234E-2,2.2727272E-2,8.214284E-2,-8.173916E-2,1.259259E-1,-4.615386E-3,-4.7222236E-3,1.8181818E-2,-4.9523823E-3,4.5454535E-3,-4.5833346E-3,1.4062499E-2],"categories":[],"categories_nodes":[],"categories_segments":[],"categories_sizes":[],"default_left":[0,0,0,0,0,0,0,0,0,0,0,0,0,0,0],"id":105,"left_children":[1,3,5,7,-1,9,11,13,-1,-1,-1,-1,-1,-1,-1],"loss_changes":[1.4129066E0,1.3388705E0,6.0227644E-1,4.1481483E-1,0E0,1.4261724E0,3.5265642E-1,9.3831015E-1,0E0,0E0,0E0,0E0,0E0,0E0,0E0],"parents":[2147483647,0,0,1,1,2,2,3,3,5,5,6,6,7,7],"right_children":[2,4,6,8,-1,10,12,14,-1,-1,-1,-1,-1,-1,-1],"split_conditions":[1.3E1,4.6294675E0,4.6031194E0,4.467528E0,3.5709137E-4,4.4351163E0,5.3261003E0,2.358578E2,-2.1796242E-5,-1.527644E-3,1.5077113E-4,-8.069517E-4,3.013849E-5,-1.4536526E-3,8.6655615E-5],"split_indices":[19,8,11,8,0,1,2,17,0,0,0,0,0,0,0],"split_type":[0,0,0,0,0,0,0,0,0,0,0,0,0,0,0],"sum_hessian":[1.89E2,4.8E1,1.41E2,3.8E1,1E1,2.7E1,1.14E2,2.6E1,1.2E1,1.7E1,1E1,1.04E2,1E1,1.1E1,1.5E1],"tree_param":{"num_deleted":"0","num_feature":"22","num_nodes":"15","size_leaf_vector":"1"}},{"base_weights":[2.0312477E-2,-1.7088631E-2,1.8857141E-1,-6.693551E-2,1.5999998E-1,5.2631466E-4,1.8823529E-2,-9.0000026E-2,5.3333323E-3,-1.7647072E-3,1.6315788E-2,-1.0837209E-9,-4.9500014E-3],"categories":[],"categories_nodes":[],"categories_segments":[],"categories_sizes":[],"default_left":[0,0,0,0,0,0,0,0,0,0,0,0,0],"id":106,"left_children":[1,3,5,7,9,-1,-1,11,-1,-1,-1,-1,-1],"loss_changes":[1.2114918E0,1.4054252E0,1.1669456E0,5.061022E-1,1.1483345E0,0E0,0E0,8.91E-2,0E0,0E0,0E0,0E0,0E0],"parents":[2147483647,0,0,1,1,2,2,3,3,4,4,7,7],"right_children":[2,4,6,8,10,-1,-1,12,-1,-1,-1,-1,-1],"split_conditions":[2.046193E-1,4.3E1,4.6733336E0,2.630307E2,4.567185E0,5.2795385E-5,5.4035172E-5,4.605276E0,1.9794691E-4,4.8849488E-5,1.4957666E-4,8.0287435E-5,-8.308889E-4],"split_indices":[15,19,9,17,5,0,0,6,0,0,0,0,0],